#include "ap_fixed.h"
#include "ap_int.h"

#include "hls_stream.h"

typedef ap_fixed<32, 10> fixed_pt; // Gives integer range from -512 to 511, which should be sufficient, floating accuracy till  -0.00000023849
typedef ap_int<8>       io_pt;

#define NUMBER_OF_INPUTS 300
#define NUMBER_OF_NODES 64

#define NUMBER_OF_OUTPUTS 5


struct AXI_IO {
	io_pt data;
	ap_uint<1> last;
};

typedef hls::stream<AXI_IO>  stream_io;



const fixed_pt weights_1[NUMBER_OF_INPUTS][NUMBER_OF_NODES] =
{
		{0.07100900262594223,0.04677070304751396,0.05774557590484619,-0.05035075917840004,0.1076270192861557,0.04734715446829796,-0.11223050206899643,0.06916490197181702,0.029008768498897552,-0.03996836021542549,0.11182451248168945,0.09823445230722427,-0.03720312938094139,-0.10866943746805191,0.12436194717884064,-0.03919755294919014,0.1484239101409912,-0.07729081064462662,0.08238670974969864,-0.11424844712018967,0.11907140165567398,-0.0766746774315834,-0.10720892250537872,-0.07419595122337341,-0.0764819011092186,0.07255466282367706,-0.056798141449689865,0.005001917015761137,0.00829352904111147,-0.020530641078948975,-0.08784864097833633,0.005323830060660839,-0.08633574843406677,-0.07418642938137054,-0.04431421309709549,0.06474603712558746,0.1491173654794693,0.043207619339227676,-0.10688890516757965,-0.048818714916706085,0.03354726359248161,-0.06856890767812729,-0.1084529459476471,0.1158207505941391,-0.10470716655254364,0.09482471644878387,-0.06384162604808807,0.11853254586458206,-0.017516598105430603,0.002911960007622838,0.03641994297504425,0.05171629786491394,-0.038726840168237686,-0.07506176084280014,-0.0285384152084589,0.10326564311981201,-0.05849914252758026,0.004107307642698288,-0.1143227219581604,-0.044326066970825195,0.06732755899429321,0.007111111655831337,0.07476295530796051,-0.09864134341478348},
		{0.034001514315605164,-0.10044670104980469,0.12591759860515594,0.08835551142692566,-0.09995824843645096,0.12573307752609253,-0.052038099616765976,-0.11099839955568314,-0.026834063231945038,0.09101599454879761,-0.09886331856250763,-0.08213703334331512,0.11961761116981506,-0.062446676194667816,0.1122095063328743,-0.08530956506729126,0.08032268285751343,0.06824760884046555,0.08793517202138901,-0.0712629109621048,0.09139124304056168,-0.08557261526584625,0.0775526836514473,0.0076322732493281364,0.04192618653178215,-0.04216126352548599,0.08215205371379852,0.06042422354221344,-0.06391263753175735,0.02226567454636097,0.04128864407539368,-0.03793037310242653,0.016778631135821342,0.10111749917268753,0.09639854729175568,0.05124719440937042,-0.04396704584360123,0.062245436012744904,-0.11435974389314651,-0.04275807365775108,-0.03326360508799553,-0.09181489050388336,-0.07826714962720871,0.10311177372932434,0.023682260885834694,-0.027026645839214325,0.08431345224380493,0.0560927651822567,-0.011567575857043266,0.009802994318306446,0.08558419346809387,0.06052672863006592,-0.07979968190193176,0.11070842295885086,-0.09244739264249802,-0.12879110872745514,-0.049052681773900986,-0.015208561904728413,0.0835404098033905,-0.027726175263524055,-0.032786328345537186,-0.09671371430158615,-0.07681187242269516,-0.05971739813685417},
		{-0.03630926460027695,0.06739524006843567,-0.029073702171444893,-0.1299622803926468,0.09685560315847397,-0.03656915947794914,0.09663759171962738,0.11398495733737946,0.1204775720834732,-0.10198698937892914,0.12147680670022964,-0.029270127415657043,0.007584038190543652,-0.044504314661026,-0.09070529043674469,0.10825835168361664,0.02210615761578083,-0.032208457589149475,-0.11491138488054276,-0.031094567850232124,0.09783008694648743,0.09154070913791656,-0.023966411128640175,-0.04288427531719208,0.09193545579910278,0.014727643691003323,-0.05358158051967621,-0.0716204047203064,-0.04491467773914337,0.07100124657154083,0.13090769946575165,-0.04537665471434593,0.06887760758399963,0.03986134007573128,0.11543820798397064,0.05655992031097412,0.012100926600396633,-0.00675413990393281,0.10240121930837631,-0.11390186101198196,0.009027553722262383,-0.13306964933872223,0.01595848612487316,0.07386898249387741,-0.055916085839271545,-0.08936519175767899,0.09974530339241028,0.09350904077291489,-0.10890261083841324,-0.04666915163397789,0.0636514276266098,0.04503452405333519,-0.023955095559358597,0.1456061750650406,-0.08865607529878616,0.003741605905815959,-0.00017668383952695876,-0.11600753664970398,-0.1365698128938675,0.059329017996788025,-0.07352772355079651,0.09928490221500397,0.06780166178941727,-0.07082803547382355},
		{-0.0916866883635521,-0.05799523741006851,0.035820089280605316,-0.08913746476173401,-0.06307186931371689,-0.0714460238814354,-0.015252896584570408,0.13956865668296814,0.04528740793466568,-0.01737688109278679,-0.05727450177073479,0.06001511216163635,0.0165695957839489,-0.11656992882490158,-0.001029292936436832,0.059160880744457245,0.13314959406852722,-0.04397963732481003,-0.1268114596605301,0.01660815253853798,0.05374835804104805,-0.002572112251073122,0.1269412636756897,0.05982787907123566,-0.09638624638319016,0.09997318685054779,-0.0036986167542636395,-0.14054229855537415,-0.028767846524715424,0.07775314152240753,-0.010303856804966927,0.07117965817451477,-0.03536016866564751,-0.050929054617881775,-0.043245285749435425,0.03714342415332794,0.13985991477966309,-0.03937457129359245,0.044503550976514816,0.08267267048358917,-0.11456212401390076,-0.09628857672214508,-0.07743420451879501,-0.09691803902387619,-0.040083467960357666,-0.08730531483888626,-0.10255010426044464,-0.03723900020122528,0.009235281497240067,-0.0649554654955864,-0.11196377873420715,0.030842432752251625,-0.04664696007966995,0.07526733726263046,-0.04906591773033142,0.028166577219963074,-0.03309043124318123,-0.028323011472821236,0.012975998222827911,-0.031704582273960114,0.06643875688314438,-0.12692424654960632,0.13558565080165863,0.09355175495147705},
		{-0.06741975247859955,-0.02749403566122055,0.12175731360912323,-0.14843785762786865,-0.05221031233668327,0.09670314192771912,0.04064274579286575,0.10570964217185974,0.04001949355006218,-0.11984509229660034,-0.077003613114357,0.031212016940116882,0.1070762351155281,-0.06850142776966095,-0.09877927601337433,-0.0027956790290772915,0.09857068955898285,0.048706941306591034,0.07645471394062042,-0.08811812102794647,-0.11430231481790543,0.007949636317789555,0.0341402031481266,-0.008533221669495106,0.053756047040224075,0.09069060534238815,0.023227211087942123,0.021208323538303375,0.02120163105428219,-0.12670445442199707,0.08930177986621857,0.013723434880375862,0.14512145519256592,0.033267054706811905,-0.06490547955036163,-0.09612900763750076,-0.005521759390830994,-0.028969736769795418,0.02862595021724701,0.01845659129321575,-0.012785346247255802,-0.09814884513616562,0.09199222922325134,0.09370604157447815,-0.08130713552236557,0.13723094761371613,0.059851810336112976,0.11876150965690613,0.060809310525655746,0.07367918640375137,-0.09908831119537354,0.08575320243835449,0.12570910155773163,0.023893989622592926,0.011059513315558434,-0.11278627812862396,-0.14848437905311584,0.04492347687482834,0.004188744351267815,0.04069983959197998,-0.07686901837587357,0.011874763295054436,0.06284904479980469,0.09742042422294617},
		{0.04153546690940857,-0.09485117346048355,0.13300025463104248,0.03451593220233917,-0.12604235112667084,-0.009770448319613934,0.0780692845582962,0.06695995479822159,-0.09460333734750748,0.014731022529304028,-0.04744793847203255,-0.07852126657962799,0.038378115743398666,0.017958780750632286,-0.08587294816970825,0.08084729313850403,0.04246994107961655,0.005390803795307875,0.06893160939216614,-0.09190955758094788,-0.05925924703478813,0.017622703686356544,-0.10405589640140533,-0.0441618375480175,-0.08125593513250351,0.0019517060136422515,-0.0849878117442131,0.02404356189072132,-0.04453811049461365,0.08423079550266266,-0.10432437062263489,0.016472196206450462,0.07138948142528534,0.07597523927688599,0.048327941447496414,0.03932802006602287,-0.10526424646377563,-0.061047058552503586,-0.02793918550014496,-0.06774618476629257,0.0006897651473991573,-0.060454580932855606,-0.08774387091398239,0.06926490366458893,0.08024106174707413,0.05015990883111954,-0.047966521233320236,-0.05562977492809296,0.08678920567035675,-0.019742488861083984,-0.06502746790647507,0.008968736976385117,-0.12244703620672226,0.030424822121858597,-0.0978972390294075,-0.06683400273323059,0.04208368808031082,0.03299012407660484,0.04207267984747887,-0.03681885078549385,0.04863714054226875,0.10265358537435532,-0.10962982475757599,-0.061393044888973236},
		{-0.03990963473916054,-0.15396587550640106,0.1338108777999878,-0.09423649311065674,0.07645319402217865,-0.07012602686882019,-0.025578495115041733,-0.11550445854663849,-0.09087952971458435,-0.14456750452518463,0.07955082505941391,0.01569209434092045,-0.0015692223096266389,0.09846663475036621,-0.11877644807100296,-0.006085083819925785,-0.018567979335784912,0.1513241082429886,-0.08141138404607773,0.13760197162628174,-0.08104605972766876,0.03285843878984451,0.04635774716734886,0.07527504861354828,-0.02026798389852047,-0.03304384648799896,0.02506657876074314,-0.019673146307468414,0.01877088099718094,-0.10273848474025726,-0.08792894333600998,0.12584476172924042,-0.03225322440266609,-0.04230235517024994,0.013415709137916565,0.12916171550750732,0.08665075898170471,0.06944438815116882,0.07735618203878403,-0.06101341173052788,-0.05927380174398422,-0.1420215368270874,0.007062779273837805,-0.04811204597353935,0.06917745620012283,0.12271576374769211,0.08799663931131363,-0.007486766204237938,0.08499625325202942,0.11829525977373123,0.06648633629083633,-0.10326535254716873,0.09968870133161545,0.0749882310628891,-0.14008401334285736,-0.004346566274762154,0.04202502593398094,0.02036566659808159,-0.1390286535024643,0.10766168683767319,0.052916206419467926,-0.04219461604952812,0.056325968354940414,-0.01895221695303917},
		{0.08131597936153412,0.05833090841770172,0.1334374099969864,-0.0020624911412596703,0.10445753484964371,-0.1021062433719635,-0.030295712873339653,-0.11024755984544754,0.11331696808338165,-0.04716155678033829,-0.10274672508239746,-0.05264168232679367,-0.007792863994836807,-0.05867477506399155,-0.10812414437532425,-0.11054025590419769,-0.004512114450335503,0.017341913655400276,-0.0053026024252176285,0.11911501735448837,0.04673144221305847,-0.02421174757182598,0.04040628671646118,-0.04852166771888733,0.04180626571178436,0.09560509026050568,-0.10537250339984894,-0.01625704951584339,0.10719714313745499,-0.12293446809053421,-0.04966640844941139,0.12671226263046265,-0.0934332087635994,-0.021588273346424103,-0.07483210414648056,-0.04824921488761902,0.04171934351325035,-0.05737362802028656,0.004545362200587988,0.03066062368452549,0.06633561849594116,-0.034588221460580826,-0.09355081617832184,-0.10004968196153641,0.02135085128247738,0.04301536828279495,0.09676358848810196,-0.061969298869371414,-0.03767993301153183,-0.0506710410118103,0.011160842142999172,0.001264928258024156,-0.023585010319948196,0.06610900908708572,-0.022590788081288338,-0.057560428977012634,0.03303278237581253,0.11725872755050659,-0.021686213091015816,0.06398806720972061,0.08166171610355377,0.06461379677057266,-0.058576907962560654,0.11038199812173843},
		{-0.11255437135696411,0.004571281839162111,-0.01677263155579567,-0.02839559130370617,-0.025650732219219208,-0.04414546117186546,0.008315278217196465,-0.10404625535011292,-0.0024947996716946363,0.05669984221458435,-0.11978866159915924,-0.11340563744306564,0.09644659608602524,-0.08819985389709473,0.08613257855176926,-0.11786037683486938,0.012051809579133987,-0.07207857072353363,-0.01248371135443449,0.07859740406274796,-0.04471886157989502,0.09932086616754532,0.07584451138973236,-0.028756335377693176,0.04689963534474373,0.11004214733839035,0.06409437209367752,0.11335374414920807,-0.125812828540802,0.029992464929819107,0.07648840546607971,-0.053514089435338974,0.10903359949588776,-0.07689070701599121,-0.09704539179801941,0.039492227137088776,-0.023666104301810265,-0.0450008288025856,0.09556920826435089,-0.03548013046383858,-0.002202144358307123,-0.04533572122454643,-0.07416506111621857,0.01686689630150795,-0.0945013165473938,0.08583664894104004,-0.04975232481956482,0.007102615665644407,0.03716929629445076,0.10518364608287811,0.07387234270572662,-0.06330254673957825,-0.10261078923940659,0.06016175448894501,0.03613037243485451,0.11968197673559189,-0.039772335439920425,-0.0591554157435894,0.05059748888015747,0.04903241991996765,-0.06669808179140091,0.034799158573150635,0.017566662281751633,-0.10790806263685226},
		{0.02047981694340706,0.028189942240715027,0.10693462193012238,-0.08041403442621231,-0.06582880020141602,0.019182797521352768,0.04903091490268707,0.015449931845068932,0.02970900759100914,-0.012892484664916992,0.02977975644171238,0.09688474237918854,-0.0860234946012497,-0.10422232747077942,-0.1205270066857338,0.10894381999969482,0.04341074451804161,-0.08527547121047974,0.003940170630812645,-0.0008571534999646246,-0.09743485599756241,0.0167262963950634,-0.10431645065546036,0.0758843943476677,0.030417822301387787,-0.057621557265520096,-0.015397881157696247,-0.008286613039672375,0.08838331699371338,-0.008555731736123562,-0.007160638924688101,0.03463318198919296,0.06425563246011734,-0.05799553915858269,0.06814383715391159,-0.04561809450387955,0.07583940029144287,0.024397915229201317,0.06480257213115692,0.0433332622051239,-0.032622288912534714,-0.15903429687023163,0.0598277747631073,0.10726368427276611,0.010851679369807243,0.018264170736074448,0.08339960873126984,0.10633732378482819,0.04313717409968376,0.08323084563016891,-0.0030263657681643963,-0.10742603242397308,-0.07822737097740173,0.0002271274570375681,0.04481377825140953,0.1220601424574852,0.03432347625494003,-0.022099489346146584,0.07457892596721649,-0.009307206608355045,-0.03320583328604698,0.010511459782719612,-0.010368279181420803,-0.007153797894716263},
		{-0.07034528255462646,-0.12565459311008453,0.03605804592370987,0.05405319109559059,-0.0918564647436142,-0.03330729529261589,-0.0388915129005909,0.03584624454379082,0.061511535197496414,-0.08540698140859604,-0.020200051367282867,0.012076403945684433,-0.08690446615219116,0.10232017189264297,0.06418547034263611,-0.012682169675827026,0.05161479115486145,-0.024646950885653496,-0.11553502827882767,0.024624669924378395,0.09513315558433533,-0.020513903349637985,0.08994175493717194,0.05932508036494255,-0.05201934278011322,-0.08284888416528702,0.0746365338563919,-0.02686375379562378,-0.046936485916376114,-0.04659368097782135,0.0766000896692276,-0.030166039243340492,-0.09892221540212631,0.1076381653547287,0.04299827665090561,-0.08960793167352676,0.048147767782211304,0.03938344866037369,0.06304943561553955,-0.0567702017724514,0.05409564822912216,0.01725555583834648,-0.012553181499242783,-0.013358525931835175,0.03208839148283005,-0.06270942836999893,0.07439670711755753,0.03728625550866127,-0.03760309889912605,0.11054101586341858,0.1158161610364914,0.11245899647474289,0.06724715977907181,0.13286668062210083,-0.10900462418794632,0.03165057301521301,-0.06152617186307907,0.06565475463867188,-0.027122171595692635,0.09832276403903961,-0.03757127746939659,0.1180424615740776,-0.04115268588066101,0.030097587034106255},
		{0.0717453584074974,-0.00498318811878562,-0.0821596309542656,0.06513555347919464,-0.0719367116689682,0.07887139171361923,0.009613746777176857,0.09771744906902313,0.060288261622190475,-0.005610696971416473,0.10828300565481186,-0.03516484797000885,0.033313725143671036,0.09279391169548035,-0.08371851593255997,-0.12122457474470139,0.039958685636520386,0.09796693176031113,-0.07300283759832382,0.08088648319244385,0.03254181146621704,-0.038562506437301636,0.09870965778827667,-0.10808973759412766,0.07447973638772964,0.0906129702925682,-0.05184343829751015,-0.11039863526821136,0.057189345359802246,0.013966296799480915,-0.011998302303254604,0.046833306550979614,0.007641676813364029,-0.0030697265174239874,0.10197235643863678,-0.07110946625471115,0.14042969048023224,0.09611216932535172,0.08028179407119751,0.027874594554305077,-0.11353451758623123,-0.04803279787302017,0.0036266495008021593,0.1102825477719307,0.04570449888706207,0.05392402410507202,0.07522661238908768,0.0011658992152661085,-0.0019654722418636084,-0.0874653309583664,0.016272205859422684,0.051340606063604355,-0.08241014927625656,0.11813155561685562,-0.03523585572838783,-0.06322847306728363,-0.07123752683401108,0.005839960183948278,-0.023273436352610588,-0.03299596905708313,0.08233112096786499,-0.08045298606157303,-0.002153935842216015,-0.08962108939886093},
		{-0.05542472377419472,0.00506984256207943,0.01716006174683571,-0.09925499558448792,-0.1093013733625412,-0.0029885009862482548,0.039503633975982666,0.02689630165696144,0.08250062167644501,0.029758183285593987,-0.03576704114675522,0.04530910402536392,0.09910839051008224,0.007246608845889568,0.05990233272314072,0.07526477426290512,-0.08282183110713959,0.0839652419090271,-0.03001480922102928,-0.10963813215494156,-0.07907041162252426,-0.12414170056581497,-0.12200921028852463,-0.12108128517866135,0.0476168692111969,-0.08164218813180923,-0.08115928620100021,0.059824902564287186,-0.06605665385723114,-0.11133196949958801,-0.04178498685359955,0.016515307128429413,0.046820059418678284,0.08609381318092346,0.06328685581684113,0.12426002323627472,-0.0513666495680809,0.003098105313256383,-0.006031720899045467,0.07739533483982086,0.021200118586421013,-0.03985355421900749,0.12148423492908478,-0.06489239633083344,0.13429532945156097,0.03699713945388794,-0.04868542402982712,-0.09011933207511902,-0.014190799556672573,-0.02896256186068058,0.0775662288069725,-0.12191809713840485,-0.09564301371574402,-0.026530008763074875,-0.10359912365674973,-0.0447111502289772,0.015316911973059177,-0.057207152247428894,0.08425676077604294,-0.03454039245843887,0.006512520369142294,0.11711806058883667,0.09438344091176987,0.0751146525144577},
		{0.03289934620261192,-0.11062832921743393,0.06280381232500076,0.04063093662261963,0.013077387586236,0.11189933121204376,0.08092155307531357,-0.008116360753774643,0.04854254424571991,-0.03850396350026131,0.07836245000362396,-0.0950695350766182,0.057835109531879425,0.09814111143350601,0.08621981739997864,0.09273410588502884,0.01074947603046894,0.03726842254400253,0.04287416487932205,-0.015264584682881832,-0.06176818907260895,-0.07490044832229614,-0.10827590525150299,-0.10969824343919754,-0.12966285645961761,0.11572973430156708,0.07831767201423645,-0.04099304601550102,0.021002603694796562,-0.03267614543437958,-0.030841393396258354,0.08220737427473068,0.019515426829457283,0.12447407841682434,0.12653213739395142,-0.07489439845085144,0.06974739581346512,-0.004679437726736069,0.07757391035556793,-0.09877537190914154,0.02754829078912735,0.06689789891242981,0.1437874734401703,-0.06750577688217163,0.1360054761171341,0.08502276241779327,0.11387940496206284,-0.08431663364171982,0.034595787525177,0.012452749535441399,0.07042550295591354,0.0723889097571373,-0.03540967032313347,0.129258930683136,-0.032160770148038864,0.07844717800617218,0.04493715241551399,-0.09825021773576736,0.02871094085276127,0.011934912763535976,-0.10749392956495285,0.1051376685500145,0.09379702061414719,0.07688193023204803},
		{0.07334158569574356,-0.11884034425020218,0.04671983793377876,0.020283425226807594,-0.1279657483100891,0.032623641192913055,-0.05432555079460144,-0.009329824708402157,-0.06555385887622833,-0.05179503560066223,0.11379982531070709,0.082582026720047,-0.011833337135612965,-0.07859528809785843,-0.06799650937318802,-0.028979992493987083,-0.0687815472483635,-0.03342967480421066,0.04418233782052994,0.009047236293554306,0.10615716874599457,0.053057242184877396,-0.08761824667453766,0.0010126200504601002,0.027737027034163475,0.008714908733963966,-0.017768992111086845,-0.019697686657309532,-0.05665859580039978,0.10253123939037323,0.07152880728244781,-0.02599151059985161,0.11098068207502365,0.06076369434595108,-0.006400575861334801,0.034372203052043915,-0.06343481689691544,-0.106878861784935,-0.08299147337675095,0.006687440909445286,0.05827919393777847,-0.0778309628367424,-0.10005989670753479,0.05010029301047325,-0.01911769062280655,-0.04279319569468498,-0.022098010405898094,-0.0803382620215416,0.06631290912628174,0.0323394313454628,-0.06611968576908112,0.009326346218585968,-0.052846770733594894,0.08671516925096512,-0.039877086877822876,-0.0020162658765912056,0.03985149785876274,0.03598411753773689,-0.10922256857156754,-0.0031686110887676477,0.03520974516868591,0.030669456347823143,-0.09756625443696976,0.12065692245960236},
		{-0.0037335038650780916,-0.06935478746891022,0.062300845980644226,-0.08480089902877808,-0.09415328502655029,-0.03130590543150902,0.0913928672671318,-0.04151836782693863,0.06787791848182678,0.06142808496952057,-0.0661265179514885,-0.0938006192445755,-0.11171986162662506,0.01721128821372986,0.03373038396239281,0.09820950031280518,0.15188542008399963,0.003923709969967604,-0.04967743158340454,-0.11374970525503159,-0.05470706894993782,0.10486724972724915,0.11524977535009384,-0.13148914277553558,-0.13567127287387848,0.061942208558321,-0.12231387943029404,-0.07507501542568207,0.09204467386007309,-0.08312659710645676,0.09748663008213043,-0.11487423628568649,-0.07536617666482925,0.09079719334840775,-0.07679875940084457,0.10303656756877899,-0.11511065065860748,-0.10614289343357086,-0.030729010701179504,0.09615737944841385,0.08662603795528412,0.0032475916668772697,0.07842528074979782,0.0855136588215828,0.08573207259178162,0.0633142739534378,-0.07263127714395523,0.10527969896793365,-0.06938350945711136,-0.06708470731973648,-0.02625150978565216,-0.12007105350494385,0.04274020344018936,-0.10790842026472092,-0.1459975391626358,0.08026425540447235,0.0513325110077858,-0.11194434016942978,-0.051852110773324966,0.030786199495196342,-0.04314901679754257,0.08948118984699249,0.13572537899017334,0.024030717089772224},
		{0.06458186358213425,-0.06014616787433624,-0.007301720324903727,-0.1102205216884613,-0.059583570808172226,0.09504389017820358,0.05279470235109329,-0.03734917938709259,0.09950431436300278,-0.1256798952817917,-0.066266268491745,0.11327695101499557,-0.10520140081644058,0.1318739354610443,0.0893746167421341,-0.13505078852176666,-0.03418511152267456,-0.05731913074851036,-0.10023730993270874,0.08859456330537796,0.07255437970161438,-0.11977999657392502,-0.02245844341814518,0.06288626044988632,-0.035728078335523605,-0.040082644671201706,-0.03693189099431038,0.10245569050312042,-0.026540089398622513,0.000785438867751509,-0.0346648283302784,0.010854530148208141,-0.1150968074798584,-0.08985079824924469,-0.12778082489967346,0.0748685896396637,-0.10529713332653046,-0.08489054441452026,0.08125358074903488,0.054693881422281265,0.01909998059272766,-0.027458181604743004,0.00011362531949998811,-0.12574757635593414,-0.037142787128686905,0.06161690130829811,-0.0413496308028698,0.058186616748571396,0.04995002970099449,0.024736905470490456,-0.05659539997577667,0.07409319281578064,-0.11730864644050598,0.04627968370914459,0.0574675053358078,0.036896273493766785,0.09115424752235413,0.001270854496397078,-0.1061064749956131,-0.10944975912570953,0.09310996532440186,0.04294997826218605,0.05356599763035774,0.09606590121984482},
		{0.021482331678271294,-0.02783372439444065,-0.1011199951171875,-0.12607860565185547,0.07779039442539215,0.03272958844900131,-0.08148011565208435,0.12899959087371826,0.08152130246162415,-0.07307685911655426,-0.10886058211326599,0.016125740483403206,-0.02756381221115589,0.08544325828552246,-0.09846946597099304,0.07148275524377823,-0.038163553923368454,0.12749888002872467,0.06729664653539658,-0.06133636459708214,0.016040587797760963,-0.1311926245689392,-0.09833400696516037,-0.12034298479557037,0.002816520631313324,-0.006897821556776762,-0.06788843125104904,0.008363153785467148,-0.08236928284168243,0.07112128287553787,0.03168952092528343,-0.0718630701303482,-0.06512462347745895,-0.11794713884592056,0.09358278661966324,-0.013299057260155678,-0.08983045816421509,-0.031584981828927994,0.021137511357665062,-0.013972309418022633,-0.1299906224012375,-0.056266073137521744,0.08383210003376007,-0.0021954018156975508,0.09536641836166382,-0.051285520195961,0.10488735139369965,-0.1382743865251541,0.07029066979885101,-0.09490225464105606,0.12208106368780136,0.08325350284576416,-0.08132460713386536,0.009506546892225742,-0.02495407685637474,-0.11054408550262451,0.07720573991537094,-0.10416173934936523,-0.025567524135112762,-0.024064423516392708,-0.04995151236653328,0.04203801229596138,-0.00900127924978733,0.06891625374555588},
		{-0.006072719115763903,0.03876553103327751,-0.09683521836996078,-0.04039672017097473,-0.13037213683128357,-0.059010814875364304,0.12912617623806,0.07836148887872696,0.12201209366321564,-0.10321882367134094,-0.0019598582293838263,-0.11104067414999008,0.0034778674598783255,-0.0236612968146801,-0.01088053360581398,0.11409830302000046,0.06197173148393631,0.029481226578354836,0.11096536368131638,0.11094511300325394,-0.11445695906877518,0.048510000109672546,-0.12537410855293274,0.04775949567556381,-0.003412473713979125,-0.012612058781087399,-0.06695209443569183,0.019740087911486626,0.012937579303979874,0.03530031815171242,-0.10735605657100677,0.06719794124364853,0.11658412963151932,-0.11101043969392776,0.12305071949958801,-0.10840249061584473,0.007777038030326366,0.09308431297540665,-0.1297057867050171,0.08868525177240372,-0.11117091029882431,0.06731287389993668,0.05776429548859596,-0.03584451973438263,0.026390427723526955,0.05623233690857887,0.006070881616324186,0.0863979309797287,-0.10327644646167755,0.1101563349366188,0.05818479508161545,-0.005029851105064154,0.07853256911039352,0.05988670140504837,0.0021485122852027416,-0.09561864286661148,0.10156471282243729,-0.08440118283033371,0.030132869258522987,-0.025821130722761154,0.07830769568681717,-0.07863903790712357,-0.04123319685459137,0.011193239130079746},
		{0.09420737624168396,0.021745769307017326,0.01300895493477583,0.07119233906269073,-0.12820887565612793,-0.008297443389892578,0.10754767805337906,-0.07034623622894287,0.008698972873389721,-0.12068967521190643,-0.11036007851362228,0.074440598487854,-0.004901947919279337,-0.0854063630104065,-0.0563177764415741,0.04170745238661766,0.06977109611034393,-0.009614401496946812,0.026220757514238358,-0.009822110645473003,0.025605350732803345,-0.024072127416729927,-0.0840822160243988,0.10679986327886581,-0.029785027727484703,-0.10485479235649109,-0.07606116682291031,0.04307890310883522,0.03527754917740822,-0.0535350926220417,-0.022953979671001434,0.10322855412960052,0.03722519800066948,0.010989302769303322,-0.0059351846575737,-0.034086886793375015,0.04149703308939934,0.10979524254798889,0.077436663210392,0.08894401043653488,0.06060679629445076,-0.04359734058380127,0.11463961750268936,-0.10750169306993484,0.06250140070915222,-0.02621525339782238,-0.1355736255645752,-0.030610021203756332,0.021765056997537613,0.029728872701525688,-0.08102329075336456,0.00949940923601389,-0.010744835250079632,-0.0446455292403698,0.11040820926427841,-0.018621178343892097,-0.003277452429756522,-0.026645764708518982,0.036092180758714676,0.020372427999973297,-0.03707239031791687,0.1009099930524826,-0.02585064060986042,-0.06503372639417648},
		{-0.10802415758371353,0.046238012611866,-0.07581343501806259,-0.04072198271751404,0.09047481417655945,0.0038730609230697155,-0.045904867351055145,-0.024780746549367905,0.03597668558359146,-0.06756336987018585,0.12151337414979935,0.09673289209604263,0.03789471089839935,0.0192697923630476,0.08503612875938416,0.0999680608510971,0.03730713203549385,0.04639183729887009,0.030095575377345085,0.05594911426305771,-0.02141052670776844,-0.00797874853014946,0.11929941922426224,0.11249364912509918,0.08066989481449127,-0.10366052389144897,-0.041179392486810684,-0.007966266945004463,-0.038560524582862854,-0.12187203019857407,0.004094894975423813,0.14552079141139984,-0.08167729526758194,0.07250410318374634,-0.059268783777952194,0.021939067170023918,-0.1116248145699501,0.06518515944480896,0.07967057824134827,-0.06969287246465683,0.03728083521127701,-0.08063680678606033,-0.05552000179886818,-0.09578687697649002,0.03702489659190178,0.023976843804121017,0.030350591987371445,-0.04641594737768173,-0.0863151028752327,-0.1273764669895172,-0.08112743496894836,-0.1443701833486557,0.0569813996553421,-0.11775344610214233,-0.11508647352457047,0.1094600260257721,0.07217221707105637,-0.1379353553056717,-0.09770362824201584,0.04842478781938553,0.05519856885075569,0.11835287511348724,-0.07266942411661148,0.1200781986117363},
		{0.0945797935128212,-0.11188273131847382,-0.09044769406318665,0.11632509529590607,0.03468547388911247,-0.03294798359274864,-0.11793147772550583,0.032791879028081894,-0.037101853638887405,0.07196930795907974,-0.014065255410969257,-0.028498124331235886,0.051927994936704636,-0.08777330815792084,-0.01888301968574524,-0.06322384625673294,0.12049658596515656,-0.08780745416879654,-0.0409841351211071,0.12919841706752777,-0.04697854444384575,0.05098176375031471,0.1181681752204895,0.11194643378257751,0.08442450314760208,0.11069231480360031,-0.1372479647397995,0.017619416117668152,0.11287832260131836,0.004180810879915953,0.10015355050563812,-0.01674473285675049,0.03213834390044212,0.1257496476173401,-0.07847234606742859,0.06811181455850601,0.07121909409761429,0.012826629914343357,0.019057907164096832,-0.07080139219760895,-0.00823075883090496,0.029981881380081177,0.07867653667926788,0.02837136946618557,-0.03080356866121292,0.0851408988237381,-0.10997645556926727,-0.02424967661499977,-0.027413101866841316,-0.12793917953968048,-0.07127218693494797,0.10498565435409546,-0.05213688686490059,0.02936560846865177,0.028702639043331146,-0.08220808207988739,0.09271823614835739,-0.00944862887263298,0.0045778523199260235,0.0306084007024765,0.10708700120449066,-0.0709533542394638,0.04497141391038895,-0.08615309745073318},
		{0.012409402057528496,0.04747219383716583,0.04024849086999893,0.019543102011084557,0.0556519515812397,0.12440378218889236,0.030293449759483337,-0.08278213441371918,0.005237692967057228,-0.013350754044950008,0.12751461565494537,-0.028341004624962807,0.011245870031416416,-0.0045385644771158695,0.0420973040163517,0.060825806111097336,0.13182836771011353,0.014638641849160194,-0.03306349366903305,-0.023597855120897293,-0.012239516712725163,0.05016253516077995,0.035674627870321274,-0.0460631363093853,-0.0762128159403801,0.052343279123306274,0.06377147883176804,0.055086735635995865,0.01533657405525446,0.017108311876654625,0.0428900420665741,-0.0004900904023088515,0.10404746979475021,0.09961499273777008,0.11039838939905167,0.025918301194906235,-0.048808857798576355,0.09596699476242065,0.08553298562765121,0.045814402401447296,-0.039202023297548294,0.010897807776927948,-0.09154742956161499,-0.06460409611463547,0.12696677446365356,-0.0033239612821489573,-0.035563185811042786,-0.02725636586546898,0.003784314263612032,-0.05937980115413666,-0.11665769666433334,0.06391365081071854,0.08902408927679062,0.11255937814712524,-0.028841504827141762,0.0008383427048102021,0.08142530173063278,-0.007634204812347889,0.052437834441661835,-0.07606931775808334,-0.11635378003120422,-0.05821719765663147,-0.08198768645524979,0.07067990303039551},
		{0.03255674988031387,0.0005841036909259856,0.03424081578850746,-0.007390451151877642,-0.05126433074474335,-0.02751585654914379,-0.10661641508340836,0.08004526793956757,0.059375640004873276,0.06018557399511337,-0.04428401589393616,-0.06101929396390915,-0.06846793740987778,0.052426792681217194,-0.0916040912270546,0.03196008875966072,0.09525693207979202,-0.032280243933200836,-0.07491884380578995,0.07393639534711838,0.044685397297143936,0.09075309336185455,-0.08804386854171753,0.0569104440510273,-0.11716097593307495,-0.1050959900021553,0.10863657295703888,-0.07834374159574509,-0.0289703868329525,-0.019589168950915337,0.09426998347043991,0.009446658194065094,0.10856936872005463,-0.00745895691215992,0.026217453181743622,0.11293231695890427,0.06740515679121017,-0.11028090864419937,-0.027302749454975128,-0.025972506031394005,0.04168000444769859,-0.06071524694561958,-0.09263206273317337,-0.030317064374685287,-0.04377942904829979,0.10017334669828415,-0.120842345058918,-0.034233711659908295,-0.03592193126678467,-0.11333922296762466,-0.05322374403476715,-0.11817584186792374,0.010345125570893288,-0.09542710334062576,0.1067001074552536,0.12320311367511749,-0.10148445516824722,0.11925698071718216,-0.008872243575751781,-0.016244810074567795,-0.07557115703821182,0.07637471705675125,-0.016903335228562355,-0.13129779696464539},
		{0.007060993928462267,-0.011796453967690468,0.06151992827653885,-0.03636806458234787,0.001970674842596054,-0.03296918421983719,0.08432136476039886,-0.08005079627037048,-0.03286101296544075,0.10945908725261688,0.04294062405824661,0.06420325487852097,0.11786650121212006,0.10535361617803574,0.02228432707488537,0.09290540963411331,-0.058717280626297,0.0036221465561538935,-0.1283651888370514,0.12461847066879272,-0.1222262904047966,-0.015840966254472733,-0.007801197003573179,0.00037020823219791055,0.0379839688539505,-0.03567691519856453,-0.00524466997012496,-0.10986216366291046,-0.01798776164650917,0.024379750713706017,-0.06087462604045868,-0.011787302792072296,-0.08423829823732376,0.02630823664367199,0.0934075340628624,-0.09576566517353058,0.05026088282465935,0.11135656386613846,0.037601787596940994,-0.01532638818025589,0.10374026745557785,-0.07955948263406754,0.08779507130384445,0.0610947459936142,0.021272648125886917,0.0873924121260643,-0.03493107110261917,-0.04370221495628357,0.10137128084897995,0.12719018757343292,-0.09613979607820511,-0.10982603579759598,0.07970189303159714,-0.10259785503149033,-0.004804584197700024,0.1200714260339737,-0.1180933490395546,-0.07602119445800781,-0.05726402625441551,0.0010147906141355634,0.010991258546710014,-0.06031163036823273,-0.0313369482755661,0.07832183688879013},
		{-0.06145329028367996,-0.025413455441594124,0.09757585823535919,0.10136990249156952,0.10466357320547104,0.042099907994270325,-0.10994454473257065,0.12278369069099426,-0.13231225311756134,-0.11052417010068893,-0.0077878376469016075,0.07584597170352936,0.06633950024843216,0.12746047973632812,-0.028544267639517784,-0.03542832285165787,0.12105755507946014,0.018009783700108528,0.040830567479133606,-0.07227319478988647,0.03996850177645683,-0.008033429272472858,0.08495093882083893,-0.13462863862514496,0.08357290923595428,-0.12577907741069794,0.09349112212657928,0.035544995218515396,-0.10053978115320206,0.048629406839609146,0.07653336226940155,0.047977373003959656,0.0432758629322052,0.029197880998253822,0.11245682090520859,0.07912532240152359,-0.09809599071741104,-0.08224812150001526,-0.0834420695900917,0.004995011258870363,-0.0006322847912088037,-0.058549344539642334,0.006297689396888018,0.023918190971016884,0.016038786619901657,0.12030883133411407,0.06774096935987473,-0.12982888519763947,-0.013970056548714638,0.02557949535548687,0.03228739649057388,-0.12665919959545135,-0.05906517431139946,-0.007831105962395668,0.06906197965145111,0.10568691790103912,0.08933842182159424,-0.11519837379455566,-0.00879349373281002,0.019528644159436226,0.021942241117358208,0.0899866372346878,-0.0788426473736763,-0.04111066833138466},
		{0.026678279042243958,-0.10611957311630249,0.12715855240821838,-0.08254506438970566,-0.020434051752090454,-0.07857056707143784,-0.05879061296582222,0.0333230160176754,-0.023834578692913055,-0.012344497255980968,-0.02145809680223465,-0.10711265355348587,-0.00030030947527848184,0.060099486261606216,-0.046517472714185715,0.03076581284403801,0.01688213087618351,0.04072626680135727,-0.0037648796569556,0.09551255404949188,-0.06508991122245789,0.08013039082288742,-0.10775424540042877,-0.0544760636985302,0.009569731540977955,0.11652444303035736,-0.036578480154275894,-0.08568175137042999,-0.07589290291070938,-0.10973852127790451,-0.1223185807466507,0.0014321014750748873,-0.10209032148122787,0.10670638829469681,0.10713756084442139,-0.10882086306810379,0.04515732079744339,0.02088663913309574,-0.06412976235151291,-0.12808147072792053,0.12148058414459229,-0.0984429121017456,-0.10442113131284714,-0.10536494106054306,0.07472340017557144,0.006702966056764126,0.0033693851437419653,-0.10227519273757935,-0.09085888415575027,0.08237086236476898,0.07299090176820755,-0.0030558172147721052,-0.0415324941277504,-0.10318067669868469,-0.10730215907096863,0.08535723388195038,0.007933294400572777,0.103216253221035,-0.04020015522837639,-0.05671069398522377,0.016797417774796486,0.05689285323023796,-0.016296662390232086,-0.025509728118777275},
		{0.023494625464081764,0.08510816097259521,-0.07562263309955597,-0.09068259596824646,0.11277996003627777,0.12535369396209717,0.005759476684033871,-0.11512929201126099,-0.010073716752231121,0.1046055257320404,-0.1095951646566391,-0.07870696485042572,0.03467106446623802,-0.12189725041389465,0.10677151381969452,-0.05727984011173248,-0.11379676312208176,-0.08072258532047272,-0.11374936997890472,0.047092948108911514,-0.10665389895439148,0.09549747407436371,-0.009930788539350033,-0.07963710278272629,-0.06211806461215019,-0.006868082098662853,0.09863490611314774,-0.0904245600104332,-0.1237945705652237,0.05579664930701256,0.09845420718193054,-0.006002838723361492,0.10184309631586075,-0.08121529221534729,-0.10718777775764465,0.0795145332813263,-0.08163752406835556,0.02337772399187088,0.09396316111087799,-0.11828475445508957,0.09924670308828354,-0.11423838883638382,-0.02101515419781208,-0.0001416702871210873,-0.08682194352149963,0.1142568364739418,0.06449352204799652,-0.09683827310800552,-0.034960538148880005,-0.07889878749847412,0.05112982168793678,-0.0017178419511765242,0.03509566932916641,0.05540063977241516,-0.008883911184966564,-0.025352753698825836,-0.05805369094014168,-0.03663287311792374,-0.08294447511434555,-0.09759064763784409,0.011684278026223183,-0.11415709555149078,-0.10111177712678909,-0.07783237844705582},
		{-0.022371474653482437,0.07109780609607697,-0.00024437042884528637,-0.005951802711933851,-0.031843312084674835,-0.11320685595273972,0.13193126022815704,-0.03300467133522034,-0.04677506908774376,0.08658306300640106,0.022120444104075432,0.07755345851182938,0.12181468307971954,0.09954575449228287,-0.04288185015320778,-0.02595122531056404,0.10716107487678528,-0.01831682212650776,0.03633023425936699,0.10276050120592117,0.05899500846862793,0.021478276699781418,0.021011658012866974,-0.11334463208913803,0.12564252316951752,0.08412022143602371,-0.1013379693031311,-0.09900638461112976,-0.09813226014375687,0.11384739726781845,0.12300800532102585,-0.04846049100160599,0.10496686398983002,-0.09856510907411575,0.07085362076759338,0.10714215785264969,-0.08313512802124023,0.10311079770326614,-0.08371337503194809,0.017260603606700897,0.05706634745001793,-0.03242987021803856,-0.09238798916339874,-0.08527807146310806,-0.0035020390059798956,0.05468737334012985,0.014953739009797573,0.10529813170433044,0.0046280440874397755,0.1385461837053299,0.020875096321105957,-0.08565143495798111,-0.08329980820417404,-0.05337224528193474,0.04519498348236084,0.11763068288564682,0.05301544815301895,0.12650112807750702,-0.015370718203485012,0.07620709389448166,-0.10516142845153809,0.08305007964372635,0.14054571092128754,0.11072470247745514},
		{-0.08139030635356903,0.0732496827840805,-0.09577036648988724,0.009691460989415646,-0.12394001334905624,-0.04739904776215553,0.00469717662781477,-0.03292759135365486,-0.05051377788186073,-0.06124047189950943,-0.07261006534099579,-0.05805373191833496,-0.04998248070478439,-0.03180902451276779,-0.01922445558011532,-0.06438828259706497,0.09112553298473358,-0.062115930020809174,0.05587414652109146,-0.06503460556268692,0.009429069235920906,-0.039035674184560776,-0.025049909949302673,-0.10357392579317093,-0.0015992110129445791,0.07589353621006012,-0.11615695804357529,0.005030040629208088,-0.0519857332110405,-0.06993956863880157,-0.11703981459140778,0.0463038831949234,-0.003577688243240118,0.014675257727503777,0.04996023327112198,-0.04748879000544548,0.08799879997968674,-0.11368075758218765,-0.03811635822057724,-0.004942114464938641,0.10455494374036789,-0.002064336556941271,-0.0611947700381279,0.0894978865981102,0.03876860439777374,0.08519939333200455,-0.027986710891127586,0.00870690867304802,0.08583680540323257,0.12167137861251831,-0.06266607344150543,-0.0385262705385685,-0.015199892222881317,0.016352375969290733,0.030061734840273857,-0.08584221452474594,-0.061830781400203705,0.09344971925020218,-0.11204357445240021,0.13479676842689514,0.04870486631989479,0.11878831684589386,0.020045610144734383,-0.0922168642282486},
		{0.04774908721446991,0.047029975801706314,-0.027568861842155457,-0.032880038022994995,0.09327743202447891,0.015148275531828403,-0.07773424685001373,0.07274674624204636,0.10562532395124435,-0.03936413303017616,-0.04315340891480446,-0.039038047194480896,0.01745760068297386,0.11819716542959213,0.07532459497451782,0.044778838753700256,-0.0856703445315361,-0.09923899918794632,-0.02471097745001316,0.055933043360710144,-0.06188644468784332,0.12310990691184998,-0.07907791435718536,0.054564155638217926,-0.06904137879610062,0.06006097048521042,-0.05715150386095047,-0.009754445403814316,-0.03641248494386673,0.0798371210694313,0.11164826154708862,0.07006790488958359,-0.06032485142350197,-0.07011465728282928,-0.010371905751526356,-0.07062838971614838,0.02532542124390602,-0.06760773807764053,-0.034062955528497696,0.034539662301540375,0.01523665338754654,0.05574909225106239,-0.11218909174203873,-0.07976245880126953,-0.10165625810623169,-0.042637113481760025,0.06924238055944443,0.03566917032003403,0.012689908035099506,-0.061256252229213715,-0.09064289182424545,0.0379459485411644,-0.048938680440187454,0.08391297608613968,0.05560191348195076,-0.0727577805519104,0.07623255997896194,-0.12853525578975677,0.04175970330834389,0.03428058326244354,0.09962151199579239,-0.07199297845363617,-0.002889220369979739,-0.027129117399454117},
		{-0.015864301472902298,0.10425221920013428,0.0029508767183870077,-0.06667415052652359,-0.023276986554265022,-0.0016479867044836283,-0.0771636813879013,0.10126537084579468,-0.1203489750623703,0.06286560744047165,-0.08859586715698242,-0.036995358765125275,0.09434646368026733,-0.07432941347360611,-0.06863605976104736,0.05700056254863739,0.12763158977031708,0.009272626601159573,0.1072552427649498,-0.03949210047721863,0.06683480739593506,0.01693224534392357,-0.10310780256986618,-0.09293912351131439,0.02712273970246315,-0.11253951489925385,0.08119755983352661,0.10997574776411057,-0.005326992832124233,0.1156303882598877,-0.11972306668758392,0.054106295108795166,-0.04429136589169502,-0.10221609473228455,-0.09078045934438705,0.06009708717465401,-0.005487121641635895,0.02872711606323719,0.11151788383722305,0.06471769511699677,-0.06276513636112213,0.07714256644248962,0.03622398152947426,0.04623738303780556,-0.09857171773910522,-0.044669777154922485,0.020035265013575554,0.11188235878944397,-0.029559273272752762,-0.0030586798675358295,-0.07794229686260223,0.05709468945860863,-0.018988201394677162,0.10494701564311981,0.009465680457651615,-0.02862711250782013,0.028245510533452034,0.003348901402205229,0.06489502638578415,-0.011870533227920532,0.029304923489689827,0.08235779404640198,-0.07711198180913925,-0.07073971629142761},
		{-0.06256422400474548,0.11943134665489197,-0.047141704708337784,-0.0927726998925209,0.1223544329404831,-0.02744680643081665,-0.020873887464404106,0.09493894875049591,0.037542570382356644,-0.008261548355221748,0.11877661943435669,0.1216045618057251,0.08880952000617981,0.010217190720140934,-0.13459473848342896,0.07909288257360458,-0.10113038122653961,-0.06708122044801712,-0.05778767541050911,0.03019588254392147,0.12430474907159805,-0.04717203974723816,0.03206625208258629,-0.07818058133125305,-0.12597857415676117,0.1194923147559166,-0.048673972487449646,-0.09479940682649612,0.11312594264745712,-0.12613873183727264,-0.12314566969871521,0.09653996676206589,-0.001541342120617628,0.113693967461586,0.005874689668416977,-0.10209508240222931,0.12078730762004852,-0.05910332128405571,-0.04865258187055588,-0.02805127203464508,-0.10208770632743835,-0.07012418657541275,0.11654399335384369,0.11713340133428574,0.04023618996143341,-0.059116918593645096,-0.03475338593125343,0.07152697443962097,-0.10289490222930908,-0.09354747831821442,-0.045277152210474014,0.09745952486991882,-0.03560052067041397,-0.014805764891207218,-0.021992122754454613,-0.03321337699890137,0.05801919102668762,-0.10857675224542618,-0.06671575456857681,0.04516706243157387,-0.07501319795846939,-0.10124809294939041,0.0113449702039361,0.052595581859350204},
		{-0.018459785729646683,0.05530356243252754,-0.07446291297674179,0.1252295970916748,0.06297129392623901,0.10802873224020004,-0.02903367578983307,0.08469010889530182,0.08617837727069855,-0.09480483084917068,-0.025835799053311348,-0.10078664124011993,0.10508233308792114,0.001635560067370534,0.08579374104738235,0.013912106864154339,-0.11593861877918243,0.03246987983584404,3.98160373151768e-05,0.06523649394512177,-0.09724283963441849,0.0025330332573503256,-0.006920002866536379,-0.01430261880159378,0.058051034808158875,0.09773306548595428,-0.13985973596572876,-0.051029227674007416,0.015803717076778412,0.05549100413918495,-0.024633537977933884,-0.0835067629814148,0.004557461477816105,0.08925761282444,-0.050430089235305786,-0.0472433865070343,-0.057293105870485306,-0.07906480878591537,-0.09330551326274872,0.027716798707842827,-0.12116431444883347,-0.08547278493642807,0.12087444961071014,-0.07231832295656204,0.045322783291339874,0.11787671595811844,0.007254325784742832,-0.11764680594205856,0.028143607079982758,0.06697726249694824,-0.024427101016044617,-0.1145961582660675,0.08779110014438629,0.06462855637073517,-0.07243990898132324,-0.09526775032281876,-0.0404331311583519,0.03595833107829094,-0.0690036192536354,-0.10877013951539993,0.01748632825911045,-0.0604785792529583,-0.06636343896389008,-0.045668769627809525},
		{0.09247606247663498,0.10467929393053055,0.048245690762996674,0.12867145240306854,-0.109758161008358,0.025694098323583603,0.038220521062612534,-0.041861020028591156,-0.03839176520705223,0.002719070529565215,-0.011921267956495285,-0.027450133115053177,0.05645031854510307,-0.11497762799263,-0.03468874469399452,-0.026575181633234024,-0.036110784858465195,-0.06818794459104538,0.07535615563392639,0.050995972007513046,-0.04591934755444527,-0.1253129541873932,0.012479043565690517,0.0018902146257460117,-0.09379841387271881,-0.0846424400806427,0.006305924151092768,-0.11797092109918594,0.10942628234624863,-0.13464313745498657,0.07584081590175629,0.0599401630461216,0.07669545710086823,0.016496386379003525,-0.09593760222196579,0.09595706313848495,-0.1157844290137291,-0.12938492000102997,-0.012271814979612827,-0.02061748132109642,-0.10576320439577103,0.09360321611166,0.007877371273934841,-0.10791325569152832,0.13830159604549408,-0.11884114146232605,0.09106775373220444,-0.08593937754631042,0.11272464692592621,-0.08863719552755356,-0.02542087435722351,-0.0851382240653038,0.11510137468576431,-0.05215019732713699,0.08097662776708603,-0.10377421230077744,-0.04921233654022217,-0.09526633471250534,-0.05638580769300461,0.03093591146171093,-0.06615123897790909,0.11928658932447433,0.07557844370603561,-0.07539640367031097},
		{0.009844017215073109,-0.020712273195385933,0.11521827429533005,-0.05309390276670456,-0.05194266512989998,0.07046924531459808,-0.06004445627331734,0.08176226913928986,-0.05006122589111328,-0.06410206109285355,-0.08368595689535141,-0.06903862208127975,-0.08446908742189407,0.11148477345705032,-0.12700268626213074,-0.030416101217269897,0.06151361018419266,-0.10704587399959564,-0.08377451449632645,-0.05922511965036392,0.0963275358080864,-0.09082750976085663,-0.06831549853086472,-0.11581344902515411,0.05616668611764908,0.1267928034067154,-0.00226347497664392,-0.00500357523560524,0.1105172261595726,0.11714886873960495,0.01537261437624693,-0.1002495214343071,-0.07501377165317535,0.019849160686135292,0.02532537840306759,0.04997194558382034,0.07905524224042892,0.022485872730612755,0.07384249567985535,0.06720608472824097,-0.05184425786137581,0.025408701971173286,-0.06688648462295532,0.12135099619626999,0.0957176610827446,0.004194167442619801,0.012452549301087856,-0.11461634933948517,-0.02896212227642536,0.08381418138742447,-0.01787324622273445,-0.10076580941677094,-0.06926393508911133,0.07667899131774902,-0.11779001355171204,0.08953674137592316,0.023579321801662445,0.06024041026830673,-0.06627470999956131,0.13860151171684265,-0.043472785502672195,0.0989426001906395,-0.0702725425362587,-0.08417240530252457},
		{0.05866063013672829,0.13458167016506195,-0.029912328347563744,-0.11824052035808563,0.10743977874517441,-0.005933714099228382,-0.023763533681631088,-0.0541987344622612,-0.049714263528585434,0.11587508022785187,0.11627821624279022,0.07122372090816498,-3.634157474152744e-05,-0.07395419478416443,-0.03222152963280678,0.016758881509304047,0.020034313201904297,-0.08725163340568542,-0.09890786558389664,0.11886091530323029,0.0016351211816072464,-0.03793526813387871,-0.04665825515985489,0.02217438630759716,0.1013874039053917,0.05938733369112015,-0.06168924272060394,0.00856742262840271,0.11561564356088638,0.1030540019273758,-0.08413361012935638,0.13940967619419098,0.05114971101284027,-0.025667911395430565,-0.06742705404758453,0.09684521704912186,-0.03347862884402275,-0.0961279645562172,0.010481854900717735,-0.07452495396137238,-0.10187246650457382,0.07361987233161926,0.11697274446487427,0.12474305927753448,-0.10409022867679596,-0.11858294904232025,-0.03542027622461319,-0.09834028780460358,0.0763200893998146,0.10634103417396545,-0.038354888558387756,0.11001915484666824,0.13205908238887787,-0.027684766799211502,0.04157966747879982,-0.011462084949016571,0.0015353350900113583,0.10555657744407654,-0.01502341777086258,0.05707518011331558,0.020671335980296135,0.0542888306081295,0.018438007682561874,0.04532401263713837},
		{-0.011956140398979187,0.0494864396750927,0.015325063839554787,0.0494779571890831,0.05645543709397316,0.09977279603481293,0.06278492510318756,0.120793916285038,0.027993561699986458,0.006052874028682709,-0.036748241633176804,-0.07625453919172287,0.004928614478558302,-0.005215096287429333,-0.04870986193418503,-0.07293388992547989,-0.07839999347925186,-0.03831568732857704,0.04712917283177376,0.11405353993177414,0.01755189523100853,0.1152963861823082,0.07701274007558823,-0.006198826711624861,-0.0808962881565094,-0.05630439147353172,0.07436811178922653,0.10467303544282913,-0.025330809876322746,-0.12032244354486465,0.10868240892887115,-0.03393220156431198,-0.013053611852228642,0.04696402698755264,0.030706986784934998,0.03125679865479469,0.05085286498069763,0.05857393518090248,0.017073411494493484,-0.08680666983127594,-0.06485991179943085,0.13096196949481964,0.10891704261302948,-0.08398821949958801,0.11531595140695572,-0.0857534259557724,0.12085691094398499,-0.08427746593952179,-0.08571182936429977,0.14149552583694458,0.014614653773605824,0.022107578814029694,-0.012362428940832615,0.11439339071512222,-0.06965074688196182,0.04981828108429909,0.052759893238544464,0.12345009297132492,-0.0783945843577385,-0.09635850787162781,-0.10823206603527069,0.023468751460313797,0.14410628378391266,-0.09027576446533203},
		{-0.060588039457798004,-0.10338406264781952,-0.06795264035463333,-0.028020475059747696,0.09842115640640259,-0.09290418773889542,0.055905092507600784,0.019555576145648956,-0.13748039305210114,-0.02502042055130005,0.009710404090583324,0.04676271975040436,0.059062425047159195,0.01110161654651165,-0.09477255493402481,-0.00178766087628901,0.048942551016807556,-0.0024322355166077614,-0.07789838314056396,0.012207433581352234,-0.03216738626360893,-0.12042524665594101,-0.013937358744442463,-0.061300117522478104,-0.0924709364771843,0.08061657100915909,0.030147939920425415,0.06458738446235657,0.08014074712991714,-0.12004225701093674,0.04575418680906296,0.09690239280462265,0.10625486820936203,-0.1021461933851242,0.024144252762198448,-0.09848218411207199,0.13296212255954742,0.09010586887598038,-0.0032661098521202803,0.08210553228855133,0.13441793620586395,0.1272822618484497,-0.013771348632872105,-0.09497413039207458,0.007834232412278652,0.09785397350788116,0.03194523975253105,-0.03834608197212219,-0.055502742528915405,0.08154843002557755,-0.06155344098806381,-0.0400351844727993,-0.042097557336091995,0.003146698698401451,0.04760180413722992,0.023780999705195427,0.012172069400548935,0.05959445610642433,-0.03294012323021889,0.13888177275657654,0.06418393552303314,0.021188637241721153,0.018114741891622543,0.08502239733934402},
		{0.04745237156748772,0.02407285012304783,0.11116251349449158,-0.061257973313331604,-0.08020708709955215,-0.07492466270923615,-0.03280433267354965,-0.08871809393167496,-0.04440481215715408,0.012566784396767616,0.04335557669401169,0.07614582031965256,0.13241256773471832,-0.12133016437292099,0.1312292367219925,0.014244100078940392,0.08193860203027725,-0.007957684807479382,-0.018453631550073624,0.11685611307621002,-0.08402980864048004,-0.09536930173635483,-0.03975576162338257,-0.1410246193408966,0.009628205560147762,0.11706306785345078,0.05080008879303932,0.07193940132856369,-0.0023869771976023912,-0.07332064211368561,-0.029733167961239815,0.11285409331321716,-0.11275764554738998,0.0008398823556490242,-0.0469670407474041,-0.05535554885864258,-0.03510252386331558,0.022750770673155785,0.07918620854616165,0.0038473790045827627,0.008420114405453205,-0.039274781942367554,-0.12299103289842606,0.08891063928604126,-0.008627038449048996,-0.06817545741796494,0.12485311180353165,-0.11614258587360382,-0.08032237738370895,-0.08422719687223434,-0.025264404714107513,0.023766761645674706,-0.009541922248899937,-0.11928814649581909,0.0024311242159456015,-0.06616207212209702,-0.08409717679023743,-0.01929653249680996,-0.1038212701678276,0.04072188585996628,-0.04425594583153725,0.0600900799036026,-0.09269857406616211,0.0771220326423645},
		{0.029454877600073814,-0.0308609027415514,-0.03061148338019848,0.01270310953259468,0.05573736131191254,0.10641385614871979,0.02685944363474846,0.07998329401016235,-0.015551183372735977,0.1137024387717247,0.13345903158187866,0.07339920848608017,0.010627539828419685,-0.04450996592640877,-0.06691375374794006,-0.08158159255981445,-0.04846297577023506,0.11571848392486572,-0.03901365399360657,0.07969379425048828,0.0076997000724077225,-0.10603267699480057,0.038169458508491516,-0.1121639832854271,-0.08001473546028137,-0.011146115139126778,-0.05473616346716881,-0.06316673010587692,0.021074112504720688,0.08659262955188751,-0.04795749858021736,-0.002371830865740776,0.029786329716444016,-0.04093945026397705,0.07151668518781662,0.03554696962237358,-0.09940825402736664,0.06073140725493431,0.09240581095218658,-0.048374515026807785,0.005272215232253075,0.039182938635349274,0.08258315920829773,0.04845722019672394,-0.09885018318891525,0.038976844400167465,-0.11189859360456467,0.07163330167531967,0.00335527490824461,-0.034758273512125015,0.017630893737077713,-0.017823487520217896,0.120167076587677,0.01742972433567047,0.05276136100292206,0.003115181578323245,-0.034696538001298904,0.010882893577218056,0.05596557632088661,-0.07068558037281036,0.11945458501577377,-0.04110163450241089,-0.014785174280405045,0.021472709253430367},
		{-0.05627911165356636,-0.09996785968542099,0.07251562923192978,-0.12645885348320007,0.09242270141839981,0.031644754111766815,-0.009600233286619186,0.06866549700498581,-0.020606428384780884,-0.08868379145860672,-0.03676355257630348,0.11300384253263474,-0.020360538735985756,0.1160767674446106,-0.08332240581512451,0.12237095832824707,-0.05952147766947746,0.0497388057410717,-0.004484628327190876,0.029819225892424583,0.002957247896119952,0.03452089801430702,-0.07079123705625534,0.06520257145166397,0.06926301121711731,0.0027285621035844088,0.060734495520591736,-0.007385013159364462,-0.00845534447580576,-0.04410584270954132,-0.040595851838588715,-0.10111252218484879,0.07034453004598618,0.0691152960062027,-0.04144328460097313,-0.11314886063337326,0.11413686722517014,0.11781296133995056,-0.06931199133396149,0.0832618921995163,0.06989920884370804,0.01764870434999466,-0.07444323599338531,-0.003307300852611661,-0.029608337208628654,-0.04629383608698845,0.055851347744464874,0.04020080342888832,0.1144912913441658,0.032391004264354706,0.11540385335683823,-0.09909860044717789,0.03226887062191963,0.08543885499238968,-0.053184233605861664,-0.07767698913812637,0.03941752389073372,-0.09983893483877182,-0.06588106602430344,0.12202265113592148,0.12816807627677917,0.03463275358080864,-0.0749548077583313,0.08764860033988953},
		{-0.11296484619379044,-0.0014621143927797675,0.11416927725076675,-0.0315541997551918,-0.08219385892152786,-0.09942939877510071,-0.0615248866379261,0.09525047242641449,0.07119748741388321,0.09584784507751465,-0.02599702775478363,0.05938945338129997,0.12215343862771988,-0.001059784204699099,0.034073662012815475,0.001318650902248919,0.11785589158535004,-0.023224005475640297,-0.022038333117961884,-0.11907868832349777,-0.06592649221420288,0.10471739619970322,0.09344790130853653,-0.005518820136785507,-0.0767466202378273,-0.11342461407184601,0.05219344049692154,0.08187319338321686,-0.10407940298318863,-0.006194544490426779,-0.05535431578755379,0.12480956315994263,-0.05110581964254379,0.0421721413731575,0.10829749703407288,0.009636115282773972,0.11521212011575699,-0.003205162240192294,-0.061371318995952606,0.12625175714492798,0.025124188512563705,-0.0907042920589447,0.07142892479896545,-0.0035532969050109386,-0.00792862568050623,-0.12823303043842316,0.11251813173294067,-0.05751734972000122,0.11469605565071106,0.0050730472430586815,0.12781013548374176,-0.09296715259552002,0.032228317111730576,-0.02620559185743332,0.02276511862874031,0.011891156435012817,0.03716975450515747,-0.07155317813158035,-0.12540777027606964,0.016215573996305466,0.05846609175205231,0.019794099032878876,0.08397471904754639,-0.03152874857187271},
		{-0.00518413633108139,0.06283285468816757,-0.022908087819814682,-0.10888006538152695,-0.08554766327142715,0.1310773491859436,-0.09960383921861649,-0.07142719626426697,-0.027336640283465385,0.02031116560101509,-0.08676765114068985,-0.02358202636241913,-0.07641971111297607,-0.028857901692390442,-0.08112995326519012,0.09865140169858932,-0.0839715525507927,-0.10128296166658401,0.0911620557308197,-0.002846830291673541,-0.06483979523181915,-0.04967042803764343,0.10098203271627426,0.07641635835170746,-0.05677487701177597,-0.0625220462679863,0.11042365431785583,-0.006420434918254614,-0.05046749487519264,-0.011196712031960487,-0.012695668265223503,-0.03630201518535614,0.06765267252922058,0.08208563923835754,-0.1089230626821518,0.055352333933115005,-0.09272810816764832,-0.05634859576821327,-0.006613180972635746,0.06604012101888657,-0.05389641597867012,-0.028905805200338364,-0.004650713410228491,-0.10430579632520676,0.11659284681081772,-0.02898324653506279,0.034766990691423416,-0.018710296601057053,0.09500311315059662,-0.048820991069078445,-0.06525026261806488,-0.06714677810668945,0.07467832416296005,0.04491909593343735,0.02526623010635376,0.045704435557127,-0.10601292550563812,0.030770907178521156,-0.015520405024290085,-0.03402986004948616,-0.09092208743095398,-0.09542734175920486,0.10873148590326309,0.018894998356699944},
		{-0.0353466235101223,0.10234182327985764,-0.07428546249866486,0.06928139179944992,-0.08681515604257584,0.09262626618146896,0.026706010103225708,0.004550413694232702,-0.02128300629556179,0.02245551161468029,-0.03760409355163574,-0.0016614366322755814,-0.06408452242612839,0.02821657806634903,0.1013178601861,-0.09024215489625931,-0.08725633472204208,-0.1150432825088501,0.10918594151735306,0.11557342112064362,0.12367444485425949,0.07391241192817688,-0.12338683009147644,0.03603258356451988,0.07288264483213425,-0.050132859498262405,0.04255480691790581,0.028487518429756165,-0.08007699996232986,0.11390826106071472,-0.06947094202041626,0.03581954911351204,-0.11497117578983307,-0.037031807005405426,-0.0877186506986618,0.08759405463933945,-0.02072397619485855,-0.052315257489681244,0.0709664598107338,-0.04017620533704758,0.05993442237377167,0.10636307299137115,0.023077411577105522,0.12977851927280426,0.07548149675130844,-0.01412719301879406,-0.030960723757743835,0.013424900360405445,0.036514535546302795,0.0404498428106308,0.11389628797769547,0.03593318909406662,0.04090318828821182,0.04867394641041756,0.11545872688293457,0.009374357759952545,-0.048491258174180984,0.008636144921183586,0.10831836611032486,0.11152010411024094,0.08130735158920288,-0.029188064858317375,0.031532905995845795,-0.012888696044683456},
		{0.09799228608608246,0.1310950070619583,-0.10733497142791748,-0.13049401342868805,-0.11004198342561722,-0.06957489997148514,0.07292453944683075,-0.09969407320022583,0.06849531084299088,0.03228483721613884,-0.07978031784296036,-0.035872433334589005,-0.01560899056494236,-0.01074764970690012,0.08190596848726273,-0.11270826309919357,0.02281094342470169,-0.07798902690410614,0.0772605836391449,0.004601618740707636,0.03213287889957428,-0.12053912878036499,-0.06385911256074905,-0.0019668047316372395,-0.06635399907827377,-0.050232771784067154,0.07541824132204056,0.1278589516878128,0.03245660662651062,-0.08249198645353317,0.04075782746076584,-0.04361126199364662,-0.007346451748162508,-0.037942320108413696,0.09191545844078064,0.08596589416265488,0.01834039017558098,-0.025366969406604767,-0.08969568461179733,0.0856170728802681,-0.12066958844661713,-0.05037016049027443,-0.003983866423368454,-0.030613847076892853,-0.10001758486032486,0.011365577578544617,-0.000917815079446882,-0.08516927808523178,-0.01687626540660858,0.1068946048617363,-0.08262486755847931,0.11763710528612137,-0.050959665328264236,-0.10563253611326218,-0.059712186455726624,0.09674340486526489,0.03480858355760574,-0.03428748995065689,0.10496599972248077,-0.006705253850668669,0.10677554458379745,0.07914148271083832,-0.029588710516691208,0.029773423448204994},
		{0.03723987936973572,-0.09821942448616028,0.004331051371991634,-0.08323124051094055,-0.03839895874261856,0.05529516190290451,-0.06176477298140526,-0.059990838170051575,0.02649303711950779,0.03055841661989689,0.04084860906004906,0.08117691427469254,0.03994070738554001,-0.09089425951242447,-0.0039958166889846325,-0.08977750688791275,-0.040798213332891464,-0.06635471433401108,-0.07116083800792694,0.05688776820898056,-0.02250969596207142,0.07465872168540955,0.023425301536917686,0.017509467899799347,0.01762368343770504,-0.017301227897405624,-0.09598008543252945,-0.08304975926876068,0.04905875027179718,-0.08383103460073471,-0.13529323041439056,0.08782681822776794,0.10384073853492737,-0.03994191065430641,-0.1209988072514534,0.1012856736779213,0.014270064420998096,0.016447639092803,0.0018579228781163692,0.0024602841585874557,0.11265035718679428,0.0038366010412573814,0.06761261075735092,0.07607490569353104,0.09606790542602539,0.11200591176748276,0.03154937922954559,-0.09292125701904297,0.07653825730085373,0.06158154830336571,0.08263860642910004,0.04873910918831825,0.038500044494867325,-0.06862151622772217,-0.041188716888427734,0.039944425225257874,0.12600871920585632,0.0023319299798458815,-0.03584451228380203,-0.0777803286910057,-0.0016855030553415418,-0.029299816116690636,-0.015573322772979736,0.08960183709859848},
		{-0.08101201057434082,-0.049694668501615524,0.039905861020088196,0.06168144568800926,0.0526321679353714,0.07240524142980576,-0.010558311827480793,0.04710499197244644,-0.07648610323667526,-0.05878342315554619,-0.009588310495018959,-0.036362674087285995,0.12008097767829895,-0.015790775418281555,0.09006644785404205,-0.08328986912965775,0.1144457533955574,-0.011463159695267677,-0.044798191636800766,0.06479521840810776,-0.12117939442396164,0.08137552440166473,0.07613322883844376,-0.09098757803440094,0.128939688205719,-0.0748658999800682,0.09816237539052963,0.09771749377250671,0.03347259387373924,-0.017835397273302078,-0.025065356865525246,-0.048055361956357956,-0.02695331536233425,-0.08068202435970306,-0.0630703940987587,-0.05768048018217087,0.05333208665251732,-0.11956168711185455,0.06998245418071747,-0.030450962483882904,-0.12030135840177536,-0.10337448865175247,-0.09894130378961563,-0.03764234855771065,-0.10477454960346222,0.08573245257139206,-0.004022377077490091,0.010926718823611736,0.11080286651849747,0.054006338119506836,0.09507133066654205,-0.09575716406106949,-0.0029893345199525356,0.02084628865122795,0.07882323116064072,-0.028839532285928726,0.018720442429184914,0.010796419344842434,0.06413137167692184,-0.11595539003610611,-0.027114814147353172,-0.005243334919214249,0.00665180804207921,-0.0641104131937027},
		{-0.13647162914276123,0.1342550814151764,0.09544006735086441,0.11453961580991745,0.09588086605072021,-0.02066301368176937,-0.08523689955472946,-0.0604424774646759,-0.048110008239746094,-0.06534768640995026,-0.006822776049375534,0.08017521351575851,-0.10063876211643219,-0.051005978137254715,-0.054331131279468536,-0.07376629114151001,0.0786392092704773,-0.1162833571434021,-0.09059745818376541,0.018256302922964096,0.035180483013391495,0.04726642742753029,-0.07638300210237503,-0.04752209037542343,-0.04623859375715256,0.013371452689170837,0.07958374172449112,0.1404096484184265,-0.08608521521091461,0.07151181250810623,-0.14654797315597534,0.09420182555913925,0.055709514766931534,0.014902698807418346,0.017285780981183052,-0.12937788665294647,0.051653459668159485,0.04188447818160057,0.056679364293813705,0.10620511323213577,0.05984700471162796,0.08508133143186569,-0.021092019975185394,-0.0741456001996994,0.03772244602441788,-0.01903405785560608,0.09766874462366104,-0.10151449590921402,-0.03977424278855324,-0.07278356701135635,0.06636770069599152,0.08210323750972748,0.11012560874223709,-0.12205645442008972,0.10762745141983032,0.11880704015493393,0.07951335608959198,0.07354122400283813,0.03272968903183937,-0.08419011533260345,-0.09601136296987534,-0.10689819604158401,0.1415713131427765,0.046937789767980576},
		{-0.05660519003868103,-0.05780205503106117,0.06329945474863052,-0.1035679429769516,0.09261246770620346,0.04342278838157654,0.04543920233845711,-0.05662994459271431,-0.11945129930973053,0.10566705465316772,-0.026679441332817078,0.07527778297662735,-0.10599721968173981,-0.08777352422475815,-0.051173266023397446,-0.03147464245557785,0.07293611764907837,-0.023938296362757683,0.03160956874489784,0.014577171765267849,-0.03433287516236305,-0.03768007457256317,0.11591614782810211,0.013961195945739746,-0.10684891045093536,0.10761558264493942,0.03934168815612793,-0.0321861170232296,0.07362889498472214,0.015657922253012657,-0.06706514209508896,-0.12048943340778351,-0.09052909165620804,0.1026591956615448,-0.05672863870859146,-0.08581601083278656,0.0035270745866000652,-0.0684388279914856,0.1222396120429039,-0.03420133888721466,-0.059068385511636734,-0.03990422189235687,-0.03359469026327133,-0.012067303992807865,0.12288302183151245,0.05447601526975632,0.10830174386501312,0.069676972925663,0.11356800049543381,0.11294300854206085,0.044957660138607025,-0.013628016225993633,0.09083954989910126,-0.11563004553318024,0.05078331008553505,0.02271059900522232,0.09378854185342789,-0.05747675150632858,-0.06040520966053009,0.02450188808143139,-0.0014521179255098104,0.0007377506117336452,0.005890584085136652,0.04627016931772232},
		{-0.07728879153728485,-0.08631689101457596,0.06426021456718445,-0.025738298892974854,0.12241251766681671,-0.09869921207427979,-0.0900588184595108,-0.03901870921254158,0.07651228457689285,-0.10189416259527206,-0.10689376294612885,-0.03976878151297569,-0.027638401836156845,-0.04776442423462868,0.031294263899326324,-0.017542872577905655,-0.05955388769507408,0.0831240639090538,-0.03821546211838722,-0.09679027646780014,-0.11710654944181442,0.010423966683447361,0.09998156875371933,-0.10924635827541351,-0.10256418585777283,-0.02316945232450962,-0.10375411808490753,0.13625043630599976,-0.06104038283228874,-0.0657481700181961,0.03619353100657463,-0.09460829943418503,-0.00018747831927612424,-0.08002572506666183,0.09988272190093994,0.010097452439367771,0.02538430131971836,0.025610914453864098,0.025763148441910744,-0.07464685291051865,-0.12065862864255905,0.0065973615273833275,0.024239767342805862,-0.05476517230272293,0.05886464565992355,0.015964480116963387,-0.07842376083135605,-0.09762124717235565,-0.11418087035417557,0.12088211625814438,0.018867800012230873,-0.04993254691362381,0.10647012293338776,-0.07308845221996307,0.07440853863954544,-0.04777401313185692,-0.0038830353878438473,0.07888569682836533,0.041860539466142654,0.0007836813456378877,0.08228350430727005,0.008711074478924274,0.0007966107805259526,0.035133909434080124},
		{-0.03020119108259678,-0.0898294523358345,0.07831183075904846,0.021568812429904938,-0.0942583754658699,0.030576013028621674,0.04243406653404236,0.07820837944746017,0.031590066850185394,-0.029333001002669334,-0.05171728506684303,-0.025625158101320267,-0.02505321055650711,-0.014345964416861534,-0.12616895139217377,-0.053800083696842194,0.09037991613149643,-0.020722124725580215,0.05618470534682274,0.11765097081661224,0.014454363845288754,0.12211648374795914,-0.1006912812590599,-0.12428560853004456,0.0902440994977951,0.12641122937202454,-0.027386220172047615,0.12239167839288712,-0.013447222299873829,0.1014440655708313,-0.08309140801429749,-0.11047111451625824,-0.10807083547115326,0.043057236820459366,-0.1246209517121315,-0.014030507765710354,-0.12447737902402878,0.1244596317410469,0.11099829524755478,0.007896358147263527,0.0483621247112751,0.1355530023574829,0.07100130617618561,-0.05405988544225693,0.08410484343767166,0.1303238719701767,-0.12871016561985016,0.11171403527259827,-0.07751835137605667,-0.07706483453512192,0.0805305615067482,-0.0062808021903038025,-0.04621666297316551,0.02484283410012722,0.05496959388256073,-0.11797501146793365,0.0820750966668129,0.10397322475910187,-0.05990876257419586,-0.09749659150838852,-0.05323527753353119,0.0855095162987709,-0.021360352635383606,-0.08611758798360825},
		{0.09794551134109497,-0.04474494606256485,-0.11980913579463959,-0.10568840056657791,-0.027376702055335045,-0.03326346352696419,0.10326150804758072,-0.11821984499692917,0.11533033102750778,0.003343001240864396,0.0969187468290329,0.06621696054935455,-0.009561481885612011,0.10240981727838516,-0.0457577109336853,0.053216125816106796,-0.06096367910504341,0.09895290434360504,0.01810251735150814,-0.04049311578273773,-0.05944232642650604,-0.10702819377183914,0.08702400326728821,-0.06751354038715363,0.01748811826109886,0.03785558044910431,-0.1095791757106781,-0.0359644740819931,-0.03779076412320137,0.10271832346916199,0.054063621908426285,0.06938938796520233,0.07079979032278061,0.004868175368756056,0.04526355862617493,0.14189215004444122,-0.015931349247694016,0.025637449696660042,-0.0652356892824173,0.09060721844434738,-0.0742601528763771,0.07656647264957428,0.020816069096326828,0.02173077128827572,-0.0799228847026825,-0.02593403309583664,0.049101345241069794,0.05687091872096062,0.002159812720492482,-0.06610137224197388,0.021564004942774773,0.11809933930635452,-0.09081999212503433,-0.11750389635562897,-0.07075462490320206,0.12041474878787994,-0.04402685910463333,-0.015558448620140553,0.060805901885032654,-0.07412415742874146,0.0019919932819902897,-0.000815387989860028,-0.11109264940023422,0.11740212887525558},
		{-0.0814170092344284,0.021710827946662903,-0.011009425856173038,-0.08845445513725281,0.12048855423927307,-0.03692656382918358,-0.09566972404718399,0.000674604729283601,-0.02031034231185913,0.016763655468821526,-0.022045791149139404,0.1432831883430481,0.02065492793917656,0.10748329013586044,-0.1322607547044754,0.042291563004255295,0.018898917362093925,0.0013156004715710878,0.07111713290214539,0.0547034926712513,-0.0009585446678102016,0.07736887037754059,0.01996416598558426,-0.009389109909534454,-0.10485503077507019,-0.06267938017845154,-0.01987377554178238,0.011845760978758335,0.026207562536001205,0.07787924259901047,0.11363864690065384,0.03476623073220253,-0.0001802008191589266,0.06763903796672821,0.11881013959646225,0.025431446731090546,0.07119739800691605,-0.02413073740899563,0.004672951065003872,-0.0883258506655693,0.00884758960455656,-0.0964360311627388,0.1264638453722,-0.05844924598932266,-0.12137898057699203,-0.004916534759104252,-0.05164064094424248,-0.019613580778241158,-0.13979126513004303,0.05111142620444298,0.04317699745297432,0.05231434479355812,0.03290398418903351,-0.1363261640071869,0.031919121742248535,-0.0953700914978981,-0.095486119389534,-0.07416953146457672,-0.012710518203675747,-0.03801167756319046,0.027384700253605843,-0.0931810662150383,0.1367367058992386,-0.03654652088880539},
		{0.07551436871290207,-0.03391736373305321,-0.12973107397556305,-0.07887550443410873,-0.053195126354694366,-0.027397049590945244,-0.00596498791128397,-0.04128342121839523,0.006698345299810171,-0.035314153879880905,0.06171305105090141,-0.05025641992688179,0.010226530022919178,0.0499902106821537,-0.12466289103031158,0.04202866181731224,0.02338223159313202,0.08408850431442261,0.03002697229385376,-0.10747384279966354,0.03939591348171234,-0.1283331960439682,0.1186397522687912,0.06250179558992386,-0.01063421182334423,-0.08822925388813019,-0.10396372526884079,0.09212737530469894,-0.062107864767313004,-0.09066326916217804,0.060602229088544846,0.11605851352214813,-0.13345235586166382,0.09921638667583466,-0.04078793525695801,0.09402572363615036,-0.08165718615055084,0.03611201047897339,0.041137322783470154,-0.003530756337568164,0.03506404533982277,0.09163115173578262,0.00413148757070303,0.0556640625,-0.03444681689143181,-0.053399428725242615,0.011682311072945595,-0.09731771051883698,-0.11463166028261185,-0.00040861923480406404,0.05963622033596039,0.11339454352855682,-0.013108865357935429,0.10097455233335495,-0.11957388371229172,-0.07594457268714905,-0.05175449326634407,-0.024009939283132553,0.11513925343751907,-0.0745563954114914,-0.06298955529928207,0.024025386199355125,0.13777223229408264,-0.11164259165525436},
		{0.06179209053516388,-0.053404055535793304,0.10258420556783676,-0.06292979419231415,0.11428853869438171,0.08383411914110184,-0.005517230369150639,-0.06403739750385284,-0.0652569979429245,0.09573794156312943,0.052259817719459534,-0.1122494712471962,0.08468694984912872,0.12890484929084778,-0.11779651045799255,0.04982848837971687,0.04396166279911995,0.12229504436254501,0.012823677621781826,-0.005366359371691942,-0.02525593340396881,-0.10393751412630081,-0.11522652208805084,-0.05713610351085663,0.1133144199848175,0.028604663908481598,0.05344950407743454,-0.02947315201163292,-0.062465135008096695,0.13272447884082794,-0.09351751208305359,0.06110586225986481,0.09721154719591141,0.10559049993753433,0.12660540640354156,-0.06972064822912216,-0.10999326407909393,-0.06928075850009918,0.13148681819438934,-0.06814336776733398,0.001487075351178646,0.09612613171339035,-0.0718885213136673,-0.05374225974082947,-0.07475642114877701,0.0905357077717781,0.10938550531864166,0.025034679099917412,-0.05581289902329445,-0.12456303089857101,0.05809735134243965,0.1283777356147766,0.09634453803300858,-0.008933491073548794,0.10873272269964218,0.11705640703439713,0.09244485199451447,-0.0773850530385971,-0.07992544025182724,0.013747374527156353,-0.04291241243481636,-0.1154046356678009,0.10124031454324722,0.0716794952750206},
		{0.03674132749438286,-0.010277360677719116,0.058940667659044266,0.041403722018003464,0.04732251912355423,-0.04566151276230812,0.09703214466571808,-0.09210550785064697,-0.11824445426464081,0.08774251490831375,0.056646253913640976,0.0010435973526909947,0.00523467268794775,0.1163645088672638,0.05581297352910042,-0.1106361374258995,0.060708146542310715,-0.004677562974393368,-0.0881505236029625,-0.09039793163537979,0.00908817257732153,-0.03664731979370117,-0.00478855287656188,-0.03803132101893425,-0.12688390910625458,-0.13306714594364166,0.1213168203830719,-0.03437291458249092,0.007609252817928791,0.035654205828905106,-0.050504837185144424,0.07588929682970047,0.007124438416212797,-0.10182786732912064,-0.04720446839928627,0.12267304211854935,0.0690789446234703,-0.0139083256945014,0.026364829391241074,-0.03089999407529831,0.13281714916229248,-0.06200132519006729,0.11943308264017105,0.14070597290992737,0.018172703683376312,-0.10984669625759125,-0.10384327173233032,0.06291893124580383,-0.030835138633847237,-0.06796124577522278,0.08400365710258484,-0.07771648466587067,0.11086929589509964,0.07430737465620041,-0.05438005179166794,0.05273396149277687,-0.05761753022670746,0.05456312373280525,0.11637133359909058,0.1208069771528244,-0.04300450533628464,0.11444885283708572,0.010560696013271809,0.1230800524353981},
		{-0.010680933482944965,-0.010834111832082272,0.06407507508993149,0.12902650237083435,-0.11417493969202042,-0.110072061419487,-0.014163563959300518,0.11842640489339828,-0.04518100246787071,0.1435132920742035,0.1352505087852478,0.11668214201927185,-0.06349052488803864,-0.0966477319598198,-0.05873245373368263,-0.006842875387519598,-0.08584196865558624,-0.04237273707985878,0.07106522470712662,0.09855169802904129,0.09341995418071747,0.03659312054514885,-0.042098112404346466,-0.04077238216996193,-0.017980407923460007,0.08704511821269989,-0.08652535080909729,0.11410991847515106,-0.08560645580291748,0.005120930727571249,-0.05839293450117111,0.06304323673248291,-0.07980793714523315,0.1253841668367386,-0.11977861076593399,-0.08999907970428467,-0.01611372083425522,0.08252612501382828,0.04214024171233177,0.0046642436645925045,0.022006897255778313,0.0735548660159111,-0.022428391501307487,0.11035294830799103,0.02758590690791607,-0.0997970849275589,-0.09319378435611725,-0.05265120044350624,-0.05014242231845856,0.05718647316098213,-0.09140042960643768,0.04475557059049606,-0.10277801007032394,0.0941515862941742,0.07801863551139832,-0.06394783407449722,0.08182783424854279,-0.07889498770236969,-0.10471582412719727,0.1122068464756012,-0.009595061652362347,0.0034677404910326004,0.03673757240176201,0.061433788388967514},
		{0.05242438614368439,0.021513719111680984,-0.05396854877471924,-0.08394109457731247,0.10692815482616425,0.024981770664453506,0.0717601478099823,-0.022643951699137688,0.07252749800682068,0.12463900446891785,-0.06360889971256256,-0.12314410507678986,0.001100921188481152,0.07691445201635361,0.12377775460481644,0.09285511076450348,0.012963253073394299,0.07475084066390991,0.08574993908405304,-0.06100461259484291,-0.0757787898182869,0.018687814474105835,0.0006670336006209254,-0.027242926880717278,-0.010744776576757431,0.019235096871852875,-0.007751426659524441,0.021807804703712463,0.06175166368484497,0.056620318442583084,-0.08613603562116623,-0.12838485836982727,0.004634476732462645,0.008213279768824577,0.07941889762878418,-0.07018707692623138,0.07137638330459595,-0.12606196105480194,-0.033731039613485336,0.09325453639030457,0.12383347004652023,-0.04302360489964485,-0.029636655002832413,0.14322717487812042,-0.006628392729908228,0.08092144131660461,0.09935809671878815,0.009098068810999393,0.04194990172982216,0.0043425774201750755,0.008535115979611874,0.03488597273826599,-0.04503723978996277,-0.09541531652212143,0.12690789997577667,-0.12359920144081116,-0.0721205398440361,0.013413132168352604,0.011239487677812576,-0.08038775622844696,0.09364212304353714,-0.10245200246572495,0.1197330504655838,-0.11454766243696213},
		{-0.03999347984790802,0.025928061455488205,-0.062390346080064774,0.003883386729285121,0.020086200907826424,0.12404656410217285,0.0399898886680603,-0.046842917799949646,-0.08034572750329971,0.07424744218587875,-0.10990699380636215,-0.007703638169914484,0.01277596689760685,-0.0736580342054367,0.10170895606279373,0.07641669362783432,-0.045111797749996185,-0.11319644004106522,0.12817129492759705,-0.11376207321882248,-0.03196466714143753,0.06554850935935974,0.09961497783660889,0.04279952868819237,-0.09752262383699417,0.07008807361125946,-0.014964009635150433,0.08348114043474197,-0.07278174161911011,-0.0745217353105545,-0.12078162282705307,0.08001084625720978,0.029505839571356773,0.1096872016787529,0.03098776377737522,0.11357485502958298,0.03446163237094879,-0.020656397566199303,-0.06249268352985382,-0.10927686095237732,0.013537692837417126,0.1133536621928215,0.04180074855685234,0.03533799573779106,0.006304105278104544,-0.0406857393682003,0.05225510150194168,-0.10839103162288666,0.10200349986553192,0.01626156084239483,-0.04867485165596008,-0.10330257564783096,0.08162542432546616,-0.020022470504045486,0.12453626841306686,0.07863377779722214,0.08789603412151337,-0.08170698583126068,0.13859054446220398,0.00899689644575119,0.012455727905035019,-0.019684553146362305,-0.052280016243457794,0.010264319367706776},
		{-0.02053951658308506,0.09435927867889404,-0.10638926178216934,0.03417544811964035,0.03381932154297829,0.06202206388115883,0.10168667882680893,-0.06587245315313339,-0.09431055188179016,0.03046162612736225,-0.10727326571941376,0.07499026507139206,-0.014267419464886189,-0.04368853196501732,0.03597532957792282,-0.05174925923347473,-0.04870276525616646,-0.10311239212751389,-0.027719935402274132,0.07005120068788528,0.13254570960998535,0.010963565669953823,0.09222487360239029,-0.04404529929161072,0.0024070325307548046,-0.032223138958215714,0.11126863211393356,-0.08890169858932495,-0.07927384227514267,0.015495541505515575,-0.11609464138746262,0.04678744077682495,-0.06834689527750015,0.051551397889852524,-0.08837419003248215,0.06900021433830261,-0.038409095257520676,-0.06117915362119675,0.12786278128623962,-0.012678560800850391,-0.08516930043697357,0.02356623113155365,-0.007949304766952991,0.05845944210886955,0.045817311853170395,0.09095194190740585,0.04191996529698372,0.046615246683359146,-0.02584701217710972,-0.06859494000673294,0.06047360226511955,-0.05046466365456581,0.022182192653417587,-0.13179334998130798,-0.10797162353992462,-0.01567297801375389,-0.04558519646525383,-0.09949513524770737,-0.07973244041204453,-0.04546196758747101,0.09939857572317123,0.11184153705835342,0.042842261493206024,0.012861902825534344},
		{-0.022792663425207138,-0.030318448320031166,0.11010293662548065,0.11859236657619476,-0.018809374421834946,0.003146650269627571,-0.11769059300422668,-0.11387655138969421,0.07892188429832458,-0.049399055540561676,0.1263067126274109,-0.11587047576904297,0.037022728472948074,-0.03921906650066376,-0.014027486555278301,0.06343507021665573,0.05378279089927673,-0.11675304174423218,-0.07941123843193054,-0.03722435235977173,0.04409700259566307,-0.03188423439860344,-0.09122976660728455,-0.02187299355864525,-0.0049376352690160275,-0.06352667510509491,0.039610374718904495,-0.09356651455163956,-0.07318077981472015,-0.08167204260826111,0.025810113176703453,-0.03277092054486275,0.015409212559461594,-0.004296431317925453,-0.0844428688287735,-0.05501148849725723,-0.0017207651399075985,-0.07791795581579208,0.11748979240655899,0.11798075586557388,0.011110890656709671,-0.08256378769874573,0.028580430895090103,-0.05245273560285568,-0.07317137718200684,-0.021268371492624283,-0.012398501858115196,-0.10993307083845139,0.012397252954542637,-0.07349526137113571,0.07143133133649826,0.0183023102581501,-0.04912106692790985,-0.02713361755013466,0.030702952295541763,-0.10699816048145294,0.06942681223154068,0.10968614369630814,0.09958308935165405,-0.06171143800020218,0.07695075869560242,-0.07662303745746613,-0.11492972075939178,-0.09542567282915115},
		{0.011879936791956425,0.05352308601140976,-0.03389666602015495,-0.08809491246938705,0.056284099817276,-0.10700041800737381,-0.0354597307741642,0.10364507138729095,0.022078119218349457,-0.0962725356221199,0.008628017269074917,0.08767859637737274,-0.11989564448595047,-0.06201857328414917,-0.02068554423749447,0.07024861127138138,-0.04963074252009392,-0.07882007956504822,0.0803583562374115,-0.09519992023706436,0.05743441358208656,0.11783594638109207,0.06204808130860329,0.025495972484350204,-0.0707254409790039,0.08098593354225159,0.07863058149814606,0.1002446860074997,-0.07142097502946854,0.02674688585102558,-0.0696263387799263,0.069732166826725,-0.06428492814302444,0.07343282550573349,0.10697947442531586,-0.07541028410196304,0.06872706115245819,0.10695279389619827,0.006388029083609581,-0.03804894909262657,0.10256493836641312,0.005011565517634153,-0.07699266076087952,0.1269075870513916,0.10464440286159515,-0.13828416168689728,-0.0827668234705925,-0.1189684346318245,-0.13004224002361298,0.08466794341802597,-0.03261544182896614,0.10197817534208298,0.03510556370019913,-0.04498641937971115,0.08034978061914444,-0.07129164040088654,0.02054070681333542,-0.010906049981713295,-0.10559268295764923,-0.08503942936658859,-0.014032907783985138,-0.09587733447551727,-0.12617452442646027,0.05312215909361839},
		{0.022449597716331482,-0.07532815635204315,-0.06411966681480408,0.062193531543016434,0.06488323956727982,-0.12896692752838135,0.11858558654785156,0.09516218304634094,-0.12293779850006104,0.08966077119112015,0.03478243574500084,0.06375870108604431,-0.11211057752370834,-0.05807424336671829,0.0658152624964714,0.10631883144378662,-0.10457145422697067,-0.051306549459695816,-0.0060473717749118805,0.10205014795064926,0.0010713967494666576,0.07664190977811813,-0.04916011169552803,0.07705294340848923,-0.02100711688399315,-0.06389284133911133,0.011197513900697231,-0.07438453286886215,-0.014646741561591625,0.12594829499721527,0.1228925883769989,0.08822839707136154,0.05331019312143326,0.03992519527673721,0.04462538659572601,-0.08311377465724945,0.10660490393638611,0.09442317485809326,0.08834566175937653,-0.10648132115602493,-0.10010748356580734,-0.0535036101937294,-0.06933555006980896,-0.09603589028120041,-0.027873536571860313,0.014412937685847282,0.10558727383613586,-0.08186725527048111,-0.06746255606412888,0.04162973165512085,0.11979623883962631,0.01477239653468132,-0.061038363724946976,-0.06459992378950119,0.12541458010673523,0.08535842597484589,0.09111109375953674,-0.09201642125844955,-0.04645593836903572,0.047895677387714386,0.10977113991975784,0.08756725490093231,0.10339104384183884,0.06455913931131363},
		{0.01556082721799612,-0.034144941717386246,0.025745054706931114,-0.028006762266159058,-0.09211061894893646,0.06700393557548523,-0.0038105053827166557,-0.04408031702041626,0.02049647830426693,0.10757679492235184,-0.03501098230481148,-0.08039620518684387,-0.07518325001001358,-0.05314566567540169,-0.12540969252586365,-0.09384911507368088,-0.008603643625974655,-0.00478361127898097,-0.10965301096439362,0.02920672856271267,-0.08213334530591965,0.0738038420677185,0.12501661479473114,0.11011557281017303,0.08987835049629211,-0.07055705040693283,-0.10226696729660034,0.0820465013384819,0.15043246746063232,0.029981033876538277,0.07915762066841125,-0.0026313583366572857,0.07711974531412125,-0.05249788239598274,0.05409282073378563,-0.0042656585574150085,0.06851749867200851,0.04590009152889252,0.13788098096847534,0.06836111843585968,-0.04742759093642235,0.13107024133205414,-0.07192720472812653,-0.002909277565777302,0.11986175179481506,-0.03448069468140602,-0.11431373655796051,-0.06078040972352028,0.008474796079099178,0.1124359592795372,-0.05305197462439537,-0.02699154056608677,0.10559555888175964,0.07033967971801758,0.08039044588804245,-0.05331785976886749,0.13297343254089355,-0.12281803041696548,0.0862095057964325,0.05911559984087944,-0.008838786743581295,0.008009787648916245,-0.10249266028404236,0.12886090576648712},
		{-0.0009360865224152803,-0.02490144968032837,0.056888021528720856,-0.02929006703197956,0.08479706943035126,-0.030771104618906975,0.03651702404022217,-0.013933418318629265,-0.08954174071550369,0.0160064734518528,-0.10697034001350403,-0.05869385600090027,-0.04115212708711624,-0.029492301866412163,-0.12004110217094421,0.09707885980606079,0.04540465772151947,-0.044385019689798355,0.09496171027421951,-0.03421298414468765,0.022199196740984917,-0.05309232324361801,-0.03906332328915596,0.05579724907875061,0.11569569259881973,-0.012990491464734077,0.05169425904750824,0.05106629431247711,-0.0455898717045784,0.11967780441045761,-0.05383911728858948,0.07922963798046112,-0.02744900994002819,-0.07567392289638519,-0.04440983757376671,0.06673688441514969,-0.037990644574165344,-0.08393755555152893,-0.1028032898902893,0.08061166107654572,-0.03387683629989624,0.11892964690923691,0.07149248570203781,-0.010579700581729412,0.1287245750427246,-0.03425270691514015,0.05224388837814331,0.1256408840417862,0.044538095593452454,-0.04802480712532997,0.007752556819468737,0.01721733808517456,-0.023243743926286697,0.11828643828630447,-0.09914781153202057,0.011380398645997047,0.04429249092936516,-0.010213580913841724,-0.00490593072026968,0.014345618896186352,-0.06075126677751541,0.07760325074195862,0.041527990251779556,0.0012554565910249949},
		{0.10303965210914612,0.03372327983379364,-0.12939482927322388,-0.10502757877111435,0.11992770433425903,-0.03125883266329765,-0.06558717787265778,0.002106492640450597,0.014012961648404598,0.015401611104607582,0.015139141120016575,-0.0202386025339365,-0.010020841844379902,-0.12438716739416122,-0.08552345633506775,-0.07289644330739975,0.030402708798646927,0.007627085316926241,-0.03759240731596947,-0.08766692131757736,-0.044699158519506454,0.0856906846165657,0.10964492708444595,-0.046812109649181366,-0.1304081827402115,0.02554655633866787,0.04416360706090927,0.03879136964678764,0.09678368270397186,-0.06200874596834183,0.03507903590798378,0.08552494645118713,-0.06800346076488495,-0.0260662529617548,-0.08083660900592804,-0.0676620826125145,-0.016065936535596848,-0.04038527235388756,0.11905970424413681,-0.10491321980953217,-0.11108306795358658,-7.301360892597586e-05,-0.11748627573251724,0.14023442566394806,-0.11363887041807175,-0.0383518822491169,0.03747745603322983,-0.03429696708917618,0.11448825895786285,0.09451641887426376,-0.055707965046167374,0.010133781470358372,-0.11353614926338196,0.06308257579803467,-0.062345825135707855,0.012286964803934097,0.11699189245700836,-0.1198391318321228,-0.054231271147727966,-0.02763836644589901,0.12263353168964386,0.010747562162578106,-0.0003352109342813492,-0.004648690111935139},
		{-0.0691392719745636,0.019364047795534134,0.08971508592367172,0.06587570160627365,-0.10594332218170166,-0.13702495396137238,0.08228227496147156,0.12950296700000763,0.09253029525279999,0.12049317359924316,0.08722687512636185,-0.030639128759503365,0.06038050726056099,-0.10235429555177689,0.010444625280797482,-0.014963459223508835,-0.09042122215032578,0.07569491863250732,-0.039362505078315735,-0.07633941620588303,-0.0760820209980011,0.019520319998264313,0.01492841076105833,0.0861118957400322,-0.09976273030042648,0.1174844279885292,-0.08888760209083557,-0.11226305365562439,0.13580583035945892,-0.09797374904155731,0.11471828818321228,-0.12063422799110413,-0.11141306906938553,0.09894698113203049,-0.1235746443271637,-0.08937183767557144,0.0831947848200798,-0.11438179016113281,-0.0915117859840393,0.019222797825932503,-0.1133265346288681,0.05118119716644287,-0.0643305703997612,0.022737901657819748,-0.0001766649220371619,0.08342697471380234,0.1043914407491684,-0.018559087067842484,-0.03437478095293045,-0.06382452696561813,0.10024195164442062,-0.057690370827913284,0.11786136031150818,0.006159456912428141,-0.08197781443595886,-0.06772664934396744,-0.01545478031039238,-0.014475141651928425,0.02734558843076229,-0.026342418044805527,0.04816507548093796,-0.09406501054763794,-0.03435511887073517,-0.08333119004964828},
		{-0.13907909393310547,-0.001541349571198225,-0.08304473012685776,0.027187494561076164,0.03955990448594093,-0.12203353643417358,0.07821197062730789,-0.04314596951007843,-0.02907523699104786,-0.013478148728609085,-0.06366131454706192,-0.07082196325063705,0.05606723949313164,0.007781741209328175,0.08956277370452881,0.10036128759384155,0.04840080067515373,-0.12328384071588516,0.07477102428674698,-0.09382530301809311,0.06865478307008743,0.0030693262815475464,0.08555981516838074,0.09422850608825684,0.0926627665758133,-0.13040001690387726,-0.13280309736728668,-0.04649252071976662,0.034733064472675323,-0.033594537526369095,-0.019649822264909744,-0.11436192691326141,0.11049623787403107,0.05342068895697594,-0.125192329287529,0.05778023228049278,-0.02092357724905014,0.06058153510093689,-0.00010563105752225965,0.11880014836788177,-0.09912431240081787,-0.05913974344730377,-0.05706128105521202,0.008049358613789082,-0.09420463442802429,0.06041610240936279,0.1200517937541008,-0.11197999864816666,0.07507478445768356,0.017393315210938454,0.06403640657663345,0.014469638466835022,-0.1019146516919136,0.06834150105714798,0.054322730749845505,0.08972322195768356,-0.06663433462381363,0.10205209255218506,-0.05565502494573593,-0.08347003906965256,-0.018107755109667778,0.12026206403970718,-0.09555290639400482,-0.11168691515922546},
		{-0.03641636297106743,0.024862196296453476,0.041984494775533676,0.015480052679777145,-0.03556737303733826,-0.07966222614049911,-0.0029346863739192486,-0.04309160262346268,-0.01775764860212803,-0.07394659519195557,0.0198215264827013,-0.07144349068403244,0.04638998210430145,-0.031519174575805664,-0.10651195794343948,0.020289404317736626,-0.004744534846395254,0.08335305005311966,-0.012595916166901588,0.012432356365025043,-0.07837239652872086,0.025046013295650482,-0.087165467441082,0.12788011133670807,-0.1359529197216034,0.06455201655626297,-0.131201833486557,0.05840286612510681,-0.09284322708845139,-0.009233043529093266,0.0010983448009938002,-0.0008897313382476568,0.00965910218656063,0.11648105829954147,-0.031589020043611526,-0.06489408761262894,-0.11504587531089783,0.04728773608803749,0.012335236184298992,-0.039498861879110336,0.07770182192325592,-0.056007906794548035,-0.1126638725399971,-0.049123503267765045,-0.02598586492240429,-0.018706414848566055,0.04880870506167412,0.02303421124815941,-0.08295407146215439,0.1012188121676445,0.0928826555609703,0.09163520485162735,-0.11016867309808731,0.12312012910842896,-0.0025117513723671436,-0.06893707811832428,-0.038497354835271835,-0.06816326081752777,-0.10021053999662399,-0.012258509173989296,-0.0383266881108284,-0.061604034155607224,0.127566859126091,0.07993707805871964},
		{0.036054350435733795,0.08590873330831528,-0.12065012007951736,0.018952250480651855,-0.002904573455452919,0.03542279079556465,-0.08232583105564117,0.050668682903051376,0.08904096484184265,-0.04991155490279198,0.0455697737634182,-0.1126137375831604,-0.09226644784212112,-0.07023163139820099,-0.014012587256729603,0.03907369449734688,-0.09161218255758286,0.09759373962879181,0.054744165390729904,-0.07989401370286942,-0.049435071647167206,-0.06466654688119888,-0.05475534498691559,-0.07604753971099854,0.019471358507871628,-0.004967461805790663,0.02481948211789131,0.03852929547429085,-0.01918243244290352,-0.06583134084939957,0.07585126906633377,-0.11407256871461868,0.0995391234755516,0.014253539964556694,-0.10840193927288055,0.04982588440179825,-0.010631297715008259,-0.10256509482860565,-0.04407667741179466,0.06251751631498337,0.02118978463113308,-0.047580964863300323,0.06474018096923828,0.06793628633022308,-0.09159716963768005,-0.0246141217648983,-0.06773830205202103,-0.10282492637634277,0.08617137372493744,-0.019886501133441925,0.14000362157821655,-0.06808064877986908,-0.10863909125328064,0.11136472970247269,-0.07563372701406479,0.10664345324039459,-0.0930224284529686,-0.0593353770673275,0.10310494899749756,0.06846695393323898,0.09649569541215897,-0.059853773564100266,-0.05203138291835785,-0.07756423950195312},
		{0.02609199285507202,-0.0909767746925354,-0.041485343128442764,-0.0081928800791502,0.0318000502884388,0.06498245149850845,0.012686828151345253,0.07535529881715775,-0.028887463733553886,0.06696683913469315,-0.06808920204639435,0.08681540191173553,0.0112698283046484,-0.11782804876565933,0.07532553374767303,0.08199940621852875,0.12936222553253174,-0.07912127673625946,-0.12387511134147644,-0.0378483347594738,0.021778197959065437,0.09482645243406296,0.0030408096499741077,0.001610248233191669,-0.045733124017715454,0.021884141489863396,0.11008749902248383,-0.12155662477016449,-0.10169065743684769,0.11655344814062119,0.030088303610682487,-0.12116751074790955,0.07453160732984543,0.10659085214138031,-0.0962248221039772,0.10896065086126328,0.08425991982221603,0.05327324569225311,-0.02797280065715313,0.0906791016459465,-0.09698359668254852,-0.06603746861219406,-0.04450381174683571,-0.04969745874404907,0.13826070725917816,0.017123062163591385,-0.018699226900935173,0.0143059017136693,-0.015269879251718521,0.031250156462192535,-0.018830865621566772,-0.0007615676731802523,0.10080536454916,0.05693775415420532,-0.09579330682754517,0.020812515169382095,0.04273878410458565,-0.12417799234390259,0.08690644055604935,-0.03596129268407822,-0.045373618602752686,0.13082674145698547,-0.0071497466415166855,-0.03962915018200874},
		{-0.13674061000347137,-0.009569084271788597,-0.035641733556985855,0.11330810189247131,-0.0559050589799881,0.11415623873472214,0.08833517879247665,0.0472879521548748,-0.07566427439451218,0.04918060824275017,-0.021403968334197998,0.046673793345689774,-0.08225946873426437,-0.1200675517320633,0.059784580022096634,-0.1460111439228058,0.10832106322050095,-0.10780896246433258,0.12089960277080536,0.07363124191761017,-0.07105249166488647,0.018169879913330078,-0.07645734399557114,0.0984257161617279,-0.0645144060254097,-0.10156156122684479,-0.12110260128974915,-0.04816378280520439,0.043275170028209686,-0.03874018043279648,0.09629954397678375,0.004003110807389021,0.10862557590007782,0.02504134550690651,0.03550409525632858,0.11760828644037247,-0.08438380062580109,-0.07558781653642654,0.017236221581697464,0.09217739850282669,-0.04907957464456558,0.05936748534440994,0.07173425704240799,0.0021740987431257963,-0.07623057812452316,-0.03781319409608841,-0.10742105543613434,-0.04455864802002907,0.06275808811187744,0.09614256024360657,-0.017842227593064308,-0.06230407580733299,-0.0014012898318469524,-0.05105658248066902,-0.03733894228935242,0.03763139620423317,0.14160841703414917,0.07995366305112839,-0.12469107657670975,-0.062208328396081924,0.05764203518629074,0.10754279792308807,-0.10353147238492966,0.025557981804013252},
		{-0.02346823737025261,0.06250463426113129,0.0625428706407547,0.030042488127946854,0.04935135692358017,-0.13487985730171204,0.052478060126304626,0.018043922260403633,0.047505997121334076,0.05023994669318199,0.04410732164978981,-0.017795177176594734,0.049067623913288116,-0.06830020993947983,0.05000299960374832,0.07251758873462677,0.08382892608642578,-0.005379623267799616,-0.059438977390527725,-0.015972943976521492,0.05962815508246422,0.019281990826129913,0.0160540658980608,0.08108723908662796,0.025344697758555412,-0.0679105669260025,0.12254621088504791,-0.024855483323335648,0.10697868466377258,-0.053164009004831314,0.11801649630069733,0.03687863051891327,0.03879139944911003,-0.025660112500190735,-0.038650572299957275,-0.12423758953809738,0.027008185163140297,-0.03677339851856232,0.04248584806919098,-0.004722652956843376,0.05001872777938843,0.007875261828303337,-0.0990404486656189,0.09091723710298538,0.10000212490558624,0.10659725964069366,-0.03406825661659241,0.013719577342271805,-0.0153762586414814,-0.09455791860818863,0.09212299436330795,-0.0819922611117363,0.06885889917612076,0.04025327414274216,-0.045458875596523285,0.029540570452809334,0.07676472514867783,0.1118573471903801,-0.10890638083219528,-0.0958232507109642,0.1271093636751175,-0.06790110468864441,-0.019850464537739754,0.13726159930229187},
