#include "ap_fixed.h"
#include "ap_int.h"

#include "hls_stream.h"

typedef ap_fixed<48, 12> fixed_pt; // Gives integer range from -512 to 511, which should be sufficient, floating accuracy till  -0.00000023849
//typedef ap_fixed<32, 8> weight_pt; // Gives integer range from -512 to 511, which should be sufficient, floating accuracy till  -0.00000023849

typedef ap_int<8>       io_pt;

#define NUMBER_OF_INPUTS 300
#define NUMBER_OF_NODES 64

#define NUMBER_OF_OUTPUTS 5


struct AXI_IO {
	io_pt data;
	ap_uint<1> last;
};

typedef hls::stream<AXI_IO>  stream_io;



const fixed_pt weights_1[NUMBER_OF_INPUTS][NUMBER_OF_NODES] =
{
		{0.05859643220901489,-0.07707396149635315,0.002736456226557493,0.1346951723098755,-0.0156912449747324,-0.011466030031442642,-0.08848247677087784,0.10060855746269226,-0.08568159490823746,-0.03499637171626091,0.03883139789104462,-0.018898194655776024,-0.07297221571207047,0.07983633875846863,-0.07768379896879196,-0.11649522185325623,-0.05118248239159584,-0.003171649295836687,0.026711950078606606,0.04498179629445076,0.11722297966480255,-0.14911210536956787,-0.06749425828456879,-0.13496649265289307,0.0498928502202034,-0.10774698108434677,0.10427075624465942,-0.02511770837008953,-0.04476982355117798,-0.04670490324497223,-0.09520884603261948,0.07746470719575882,0.08812804520130157,0.030082225799560547,0.062040720134973526,-0.006537274457514286,-0.01905236765742302,0.07019225507974625,-0.08721208572387695,-0.02983735129237175,0.018119992688298225,-0.10443409532308578,0.06532878428697586,-0.043493811041116714,-0.02782496064901352,0.026416882872581482,-0.12847064435482025,-0.07827774435281754,-0.05548989772796631,-0.12777245044708252,0.06018242985010147,0.11826448887586594,0.11864586919546127,0.009273497387766838,0.04034649208188057,0.05475667864084244,0.028751853853464127,0.038333963602781296,0.01000997330993414,0.11982129514217377,0.024348018690943718,0.0017014099285006523,0.081820048391819,-0.1103433296084404},
		{-0.12248260527849197,0.06372341513633728,0.1026349812746048,0.1044982373714447,0.01825229451060295,0.10549565404653549,0.11554426699876785,-0.0795755609869957,0.04099944978952408,0.18483105301856995,-0.1408245712518692,0.09584204852581024,0.06183018535375595,-0.014105838723480701,-0.015253337100148201,0.06077343225479126,0.04219198226928711,0.06441201269626617,0.04090387746691704,-0.060163985937833786,-0.0907098576426506,0.008054686710238457,0.057074762880802155,-0.08354778587818146,-0.12352829426527023,0.11119504272937775,-0.02963147684931755,-0.08641024678945541,-0.11923930048942566,-0.08564513176679611,0.011878494173288345,-0.07111958414316177,0.01978699304163456,0.0958268791437149,-0.01995117962360382,0.0800987109541893,-0.021178636699914932,0.15442682802677155,-0.1063532680273056,0.043335922062397,0.10891789197921753,-0.03221594914793968,0.06010941416025162,-0.12938232719898224,0.13297303020954132,0.0913938656449318,-0.05248576030135155,0.10511968284845352,-0.09700386226177216,-0.10282320529222488,-0.11994091421365738,0.1183914840221405,0.07744824141263962,-0.01638634130358696,-0.057957809418439865,0.09684247523546219,-0.06289684772491455,-0.03396226465702057,0.11451280117034912,-0.09517938643693924,-0.12115506827831268,0.012752940878272057,0.006466343067586422,-0.005282107274979353},
		{-0.1305236667394638,-0.02108357846736908,0.0049987668171525,0.15314701199531555,-0.06279787421226501,-0.07726158946752548,-0.09899803251028061,0.11854086071252823,0.1133539080619812,0.10042771697044373,0.07997475564479828,0.026983093470335007,0.08134660869836807,0.05112553387880325,0.023915253579616547,-0.062292974442243576,-0.1706240177154541,0.006549689918756485,-0.0381130687892437,-0.10967385023832321,0.14710751175880432,0.02375863306224346,-0.02002762071788311,-0.04772837087512016,-0.05754890665411949,-0.11311725527048111,-0.06571463495492935,0.09521108120679855,-0.08769439160823822,0.009658824652433395,0.014856379479169846,0.050025299191474915,0.14507223665714264,-0.027530288323760033,-0.023046335205435753,-0.025961900129914284,0.15457020699977875,-0.07845354825258255,0.09959890693426132,-0.05371954292058945,0.012459374964237213,-0.026112128049135208,0.07102188467979431,-0.02958931215107441,0.05851195007562637,-3.24283137160819e-05,-0.1327703893184662,-0.03331603854894638,-0.09126485884189606,0.06775332987308502,-0.12951435148715973,0.09669239073991776,-0.059997543692588806,-0.008201220072805882,-0.006456892937421799,-0.09245595335960388,0.035443373024463654,0.10114316642284393,-0.0046042101457715034,-0.1397777497768402,-0.010088431648910046,-0.037489358335733414,0.1598759889602661,0.007189219351857901},
		{0.025109291076660156,-0.12746219336986542,-0.04587345942854881,0.05148685723543167,-0.02078932896256447,0.11474131047725677,0.05110175907611847,0.043742138892412186,-0.12955333292484283,0.037088267505168915,-0.10246358811855316,0.03488938510417938,0.011814875528216362,0.0534479022026062,0.048736751079559326,-0.1347721964120865,0.037698063999414444,-0.033341389149427414,-0.011539478786289692,0.08290775120258331,-0.05248028039932251,0.1066153421998024,0.09138313680887222,-0.08767573535442352,-0.026765460148453712,-0.09888201951980591,0.008185683749616146,-0.001855966867879033,0.015640543773770332,-0.026853444054722786,0.04502912238240242,0.04901055619120598,-0.10185746848583221,0.0733417421579361,-0.06083181872963905,0.08549930900335312,0.15212690830230713,0.11313934624195099,0.09602996706962585,0.06925184279680252,-0.12930522859096527,0.014953411184251308,-0.10849742591381073,-0.04195522516965866,0.0981450155377388,-0.005442650057375431,0.03702472150325775,0.030274074524641037,0.06250486522912979,-0.11415199190378189,0.027524666860699654,-0.04933638870716095,-0.001983009511604905,-0.04035746306180954,0.0712619498372078,0.05592694878578186,0.01300908625125885,0.021606627851724625,-0.1320991814136505,-0.06918307393789291,-0.09387002885341644,-0.0085323266685009,0.1279480904340744,0.036071646958589554},
		{0.043120354413986206,0.06112352013587952,-0.015147092752158642,0.12942953407764435,0.05786186456680298,0.06959588825702667,0.05879868194460869,-0.027475878596305847,0.026127852499485016,0.08240430057048798,-0.004284906201064587,-0.06775739043951035,-0.00948263518512249,0.05313760042190552,-0.030937127768993378,-0.007508906070142984,-0.16131965816020966,-0.004310524556785822,0.0980428159236908,0.027895735576748848,-0.10166287422180176,-0.10251115262508392,-0.10797546803951263,0.05820643529295921,-0.09188731014728546,0.006495271809399128,0.04231986030936241,0.08632358908653259,-0.05261022225022316,0.024571212008595467,0.005468630697578192,-0.0683763176202774,0.02593942917883396,0.0053325011394917965,-0.00015645797247998416,0.03656258434057236,0.13638855516910553,0.05702711269259453,-0.07766889035701752,-0.07715072482824326,-0.011150921694934368,-0.10084467381238937,0.041752949357032776,-0.1130809336900711,0.12352477759122849,0.03346250578761101,-0.005399729590862989,0.05530622601509094,0.1297711580991745,-0.127350851893425,0.10165666043758392,-0.025392701849341393,0.016494600102305412,0.08434012532234192,0.02192608453333378,-0.11644887179136276,0.07219276577234268,-0.043763671070337296,-0.06146563962101936,-0.028122110292315483,-0.031075583770871162,0.02319294400513172,0.08827012032270432,0.03720511496067047},
		{-0.13026094436645508,-0.10960855334997177,-0.12633834779262543,-0.021429510787129402,-0.025910252705216408,-0.10856780409812927,0.14618706703186035,0.0886838436126709,-0.004582613240927458,0.1002214178442955,0.0962863340973854,-0.14450950920581818,0.0017513788770884275,0.07767514139413834,0.040584269911050797,-0.10152482986450195,-0.014707004651427269,0.00110327557194978,-0.024274026975035667,0.0023666720371693373,0.05179540067911148,0.07657848298549652,-0.10772283375263214,0.059504520148038864,0.09915020316839218,0.03634311631321907,-0.04014739394187927,0.016141170635819435,-0.03898242861032486,-0.012096955440938473,0.0011914990609511733,-0.05846184864640236,0.06700455397367477,0.05025096237659454,-0.08957543224096298,-0.027614613994956017,-0.09252618253231049,-0.023596901446580887,0.00015759802772663534,0.0414065420627594,0.05731186643242836,-0.06575167179107666,-0.10208775103092194,-0.10212542861700058,-0.07396378368139267,0.09242530912160873,0.07763414829969406,-0.05700496956706047,-0.08514222502708435,-0.053725242614746094,0.059858374297618866,0.014546818099915981,-0.016900375485420227,0.01737595908343792,-0.044222719967365265,0.03736221045255661,0.047941382974386215,0.055911287665367126,-0.005573215428739786,0.040966328233480453,-0.022071467712521553,0.06689195334911346,-0.04092114046216011,-0.07991804927587509},
		{-0.14794698357582092,-0.12861862778663635,0.1157868355512619,0.046760864555835724,-0.11550214886665344,0.03618686646223068,0.04908819496631622,-0.10967868566513062,0.05520555377006531,0.0026078494265675545,0.012410974130034447,-0.1330844610929489,0.03226984292268753,-0.10702618956565857,0.031818509101867676,-0.1329067498445511,-0.14511634409427643,0.051093392074108124,-0.014764165505766869,-0.09000052511692047,-0.02949657291173935,-0.07820247113704681,-0.1300332397222519,0.082877017557621,0.12830740213394165,-0.09050339460372925,-0.01139870099723339,0.03654593601822853,0.07530822604894638,-0.14295656979084015,0.044077400118112564,-0.07123903185129166,0.010254263877868652,-0.017892904579639435,-0.01536775566637516,-0.10575657337903976,0.12950442731380463,0.03427824750542641,-0.017544647678732872,0.021290093660354614,0.06923988461494446,0.10035936534404755,0.04794737696647644,0.12045203149318695,-0.04575558751821518,-0.05828561261296272,-0.09121132642030716,0.09751933813095093,-0.02049066126346588,-0.0324820838868618,-0.033210013061761856,-0.07214910537004471,-0.1084781363606453,-0.12168010324239731,-0.03506690263748169,0.11728560924530029,-0.11564144492149353,0.030360279604792595,0.0101730702444911,-0.100193552672863,0.05878336355090141,-0.05914673954248428,0.11566008627414703,0.016065239906311035},
		{0.05912136286497116,-0.010891865938901901,-0.10760141164064407,-0.0008233695407398045,-0.05475182458758354,0.08868645876646042,-0.04300108179450035,-0.11031948775053024,-0.051541972905397415,-0.052319642156362534,-0.13446493446826935,-0.012177924625575542,0.02395969070494175,-0.02322687953710556,0.049551837146282196,0.04986878111958504,0.01302934717386961,-0.14914964139461517,-0.09033805876970291,-0.032852597534656525,-0.08866477757692337,0.1243213564157486,-0.045523710548877716,0.07209312915802002,-0.08243630826473236,0.024637291207909584,0.02703733555972576,-0.01695370301604271,-0.11727791279554367,0.08941598981618881,-0.08603780716657639,0.07828942686319351,0.025753239169716835,0.016197016462683678,0.03531518206000328,-0.09830838441848755,0.15078836679458618,0.026938198134303093,-0.05833750218153,0.0873577818274498,0.06562824547290802,0.09392980486154556,0.06510808318853378,0.11678550392389297,0.10685472935438156,0.08340519666671753,0.08729299902915955,0.08248800039291382,-0.021572628989815712,-0.11975247412919998,0.10707659274339676,0.018115106970071793,-0.09661787003278732,-0.06321180611848831,0.11536192148923874,0.14608292281627655,-0.0633578822016716,0.0990762934088707,-0.08966783434152603,-0.05747339129447937,-0.10181228071451187,-0.046682700514793396,0.05956472456455231,0.03172864019870758},
		{0.015195094980299473,-0.14256161451339722,-0.07192037999629974,-0.0891035944223404,0.026384098455309868,0.09865845739841461,0.12156912684440613,0.11509554088115692,0.11073674261569977,0.032896626740694046,-0.051184218376874924,-0.02850249782204628,0.09779919683933258,0.018095364794135094,-0.07023067772388458,0.03146946430206299,0.014525809325277805,0.0723993107676506,0.0587928369641304,0.03634926304221153,0.03379300236701965,0.05101826414465904,0.06816507875919342,-0.03612793609499931,-0.04299406334757805,-0.14505645632743835,-0.07977046817541122,0.03378722071647644,0.015488664619624615,0.012755095958709717,-0.08525747805833817,0.015971025452017784,0.09210949391126633,-0.026478223502635956,0.0640135407447815,0.012611379846930504,0.03195131570100784,-0.027256445959210396,-0.08999893814325333,0.07154577970504761,0.010786270722746849,0.10635903477668762,0.09074875712394714,-0.09456118941307068,0.10811331868171692,-0.07679597288370132,0.07103823125362396,-0.09040559083223343,0.11103316396474838,-0.059731513261795044,-0.06709425151348114,-0.015683269128203392,0.0120338574051857,0.12081165611743927,0.030611377209424973,-0.018216779455542564,-0.04770742729306221,0.027767004445195198,-0.04627697169780731,-0.12149995565414429,0.05835231766104698,0.019757552072405815,0.1144343763589859,0.09368716180324554},
		{-0.06923956423997879,-0.12117577344179153,0.10202470421791077,0.0030888221226632595,-0.022294022142887115,-0.025278806686401367,0.11536303162574768,0.08089403063058853,-0.0938241183757782,-0.004584866110235453,0.0034245678689330816,-0.030998622998595238,0.020760366693139076,0.026820402592420578,-0.021267596632242203,0.10592237859964371,0.03930061683058739,0.07227182388305664,-0.02422180213034153,0.029099799692630768,0.05886107683181763,0.12652112543582916,0.06304511427879333,-0.02604898437857628,0.02127069979906082,0.010593850165605545,0.08874216675758362,0.11874135583639145,-0.045442480593919754,0.056466542184352875,-0.16396990418434143,-0.10357225686311722,-0.003021370619535446,0.06663646548986435,0.12319932132959366,-0.05811421945691109,0.12107909470796585,-0.116249218583107,0.06279846280813217,-0.0912516862154007,-0.03288435563445091,0.00865168683230877,0.03243795782327652,0.12747624516487122,-0.02014491893351078,-0.10744713246822357,-0.09560661762952805,-0.04856600984930992,-0.0861668810248375,0.037401288747787476,-0.09014470875263214,-0.014216810464859009,-0.006296509876847267,-0.040281105786561966,0.04579365625977516,0.06595345586538315,-0.008913875557482243,-0.009550057351589203,0.09736308455467224,-0.05645115301012993,-0.06735194474458694,-0.019856180995702744,0.12077879160642624,0.10788372159004211},
		{0.030071532353758812,0.10488875210285187,0.024589749053120613,-0.018536748364567757,-0.03208491951227188,-0.005123216658830643,-0.03263266757130623,-0.10095079243183136,0.020852409303188324,-0.08446893095970154,0.07276587188243866,0.037923458963632584,-0.054707013070583344,0.12776066362857819,-0.028567569330334663,0.07363367825746536,-0.03845050930976868,0.06691882759332657,-0.12350668758153915,-0.11108209192752838,-0.013623882085084915,0.05042131617665291,0.10324478149414062,0.0772092267870903,-0.1356213241815567,-0.028776133432984352,0.05840298905968666,-0.0862370952963829,0.08201000094413757,0.016340097412467003,-0.13932248950004578,-0.025863228365778923,0.06063605099916458,0.1221768856048584,-0.09284549206495285,-0.11207933723926544,-0.11769618093967438,-0.008772335946559906,-0.0043146200478076935,-0.08712402731180191,0.02499590441584587,0.054201267659664154,0.023600051179528236,0.04049946740269661,-0.09515760838985443,0.08516915142536163,0.06204639747738838,0.12075175344944,0.006170219276100397,0.06092090904712677,-0.09728232026100159,0.003875183640047908,0.12469645589590073,-0.024934997782111168,-0.10654754936695099,0.010313385166227818,-0.12263309955596924,-0.05783342570066452,0.0005890153115615249,-0.0400121808052063,0.07635658234357834,0.10472308844327927,-0.02682955376803875,0.09447357803583145},
		{-0.08475323021411896,0.10918485373258591,0.08191253244876862,0.1441963016986847,0.026395978406071663,0.11833864450454712,0.16741147637367249,0.11033325642347336,-0.09930342435836792,0.02791886404156685,0.012586856260895729,0.007856680080294609,0.03204489126801491,0.09709468483924866,-0.017312180250883102,0.04319390654563904,-0.02480912208557129,-0.05389246344566345,0.036630310118198395,-0.14242908358573914,0.0055610486306250095,0.10162662714719772,0.09526541829109192,-0.06783617287874222,0.009573721326887608,-0.010317239910364151,-0.07736143469810486,0.0007423661299981177,0.09202750772237778,-0.08727815002202988,-0.07208201289176941,-0.011165158823132515,0.009772159159183502,0.13020004332065582,0.012104886583983898,0.036831144243478775,0.007746705319732428,0.03424760326743126,0.028199180960655212,-0.06487512588500977,-0.06478636711835861,-0.06837049126625061,0.09900083392858505,-0.002887862268835306,-0.03699478507041931,-0.08154667913913727,0.10092713683843613,0.07032551616430283,-0.12315665930509567,-0.1300688236951828,-0.0965866893529892,0.1241532638669014,0.10501471906900406,-0.0029509877786040306,0.10263974219560623,0.019184933975338936,-0.005337758455425501,-0.07677242904901505,-0.08311320841312408,-0.04463748261332512,0.03810381889343262,0.10499755293130875,-0.007081393618136644,-0.07159184664487839},
		{-0.07417763769626617,-0.022100897505879402,0.044318437576293945,0.04155604541301727,-0.04673358425498009,0.020738713443279266,-0.001053261454217136,-0.12574037909507751,-0.04173183813691139,0.061763230711221695,-0.09190795570611954,0.028870468959212303,0.08884849399328232,-0.09924198687076569,0.09414460510015488,-0.07923761755228043,0.013824141584336758,-0.09754596650600433,0.0876229852437973,0.09007945656776428,0.0997060164809227,-0.06904378533363342,0.09434375911951065,-0.017216045409440994,0.10052976757287979,0.058970753103494644,-0.020970100536942482,-0.09350202232599258,0.036117106676101685,0.024038702249526978,-0.013908003456890583,0.039355430752038956,-0.04877253621816635,0.016037296503782272,-0.05520588159561157,0.11779133975505829,0.00840086117386818,0.11377594619989395,-0.04100341349840164,-0.08987746387720108,0.10189944505691528,0.06016029790043831,-0.0505138523876667,-0.08163156360387802,0.02999785728752613,-0.04080480337142944,0.05243049934506416,-0.05108467489480972,0.011225295253098011,0.06440532952547073,0.09840910881757736,0.0535365529358387,-0.05681094527244568,0.094615638256073,0.15935827791690826,-0.0020910657476633787,0.06345189362764359,0.04877385124564171,0.04863446578383446,-0.022828849032521248,0.14410817623138428,0.036433037370443344,0.10810552537441254,0.022563379257917404},
		{-0.10494519770145416,0.047349125146865845,0.0038534244522452354,0.11069036275148392,-0.034284815192222595,-0.10180644690990448,0.19003412127494812,0.0956914946436882,0.05965964123606682,-0.06196201965212822,0.01740775816142559,-0.12088657170534134,-0.005830508191138506,0.0656043216586113,-0.004025345668196678,0.052821241319179535,-0.07467697560787201,0.04671851173043251,0.08041932433843613,0.09120063483715057,0.0759090781211853,0.06264230608940125,0.05772452428936958,-0.08588238805532455,-0.12142089009284973,0.10867762565612793,0.12883931398391724,0.03022240847349167,0.01619834080338478,-0.08127914369106293,0.03446289896965027,-0.08485330641269684,0.09222490340471268,0.1453879475593567,0.04482600465416908,-0.1015719547867775,0.013477945700287819,-0.05688660591840744,-0.12463082373142242,0.05603191629052162,-0.06645896285772324,-0.044414982199668884,0.10725544393062592,0.08927536010742188,-0.09633835405111313,-0.0525628924369812,0.025525175034999847,0.13186785578727722,-0.10150217264890671,-0.032693639397621155,0.06559908390045166,0.0038072040770202875,-0.12328378111124039,0.10545744001865387,0.04372067749500275,-0.0004019623447675258,0.02186025306582451,0.09796768426895142,-0.06579410284757614,-0.05484408140182495,-0.027182549238204956,-0.013470252975821495,0.07169871032238007,-0.07055960595607758},
		{-0.047112833708524704,-0.0510333850979805,0.07620302587747574,0.07441335171461105,0.029861044138669968,0.050055090337991714,-0.06397537887096405,0.09769964963197708,0.058055005967617035,0.10458049178123474,0.015076636336743832,-0.01107641588896513,-0.0002159940922865644,-0.08532791584730148,0.05988837033510208,-0.010056308470666409,-0.10549814254045486,-0.10474862158298492,-0.03430560603737831,-0.005895632319152355,-0.1174420565366745,-0.091913603246212,-0.05440656095743179,0.09037033468484879,0.062347348779439926,-0.024639414623379707,0.009909948334097862,-0.046075984835624695,0.043673984706401825,-0.09419462829828262,-0.15114302933216095,-0.09428708255290985,0.1134679839015007,-0.003408408723771572,-0.022114602848887444,0.09558634459972382,0.12386161088943481,-0.12039390206336975,-0.125106081366539,0.08986949175596237,-0.005496074911206961,-0.0690406933426857,-0.007433431223034859,0.06352807581424713,0.01817960850894451,-0.01877629943192005,0.016811830922961235,0.003918505273759365,0.09010715037584305,0.05367099866271019,-0.0982152670621872,0.014749569818377495,-0.024546828120946884,-0.09877675026655197,0.005331836640834808,-0.08278772234916687,-0.07646825164556503,-0.0638313740491867,-0.07260840386152267,-0.08790512382984161,0.08403171598911285,0.13174356520175934,-0.04331293702125549,0.13654670119285583},
		{0.07888861000537872,0.09114977717399597,0.006726639810949564,-0.014250601641833782,-0.13247449696063995,-0.12093809992074966,0.07257070392370224,-0.03713312745094299,0.10153654217720032,-0.061550483107566833,0.09289076179265976,0.03234224021434784,0.005006871651858091,-0.1240711584687233,0.10496480017900467,0.09082592278718948,-0.05117461085319519,-0.09345617145299911,0.08455974608659744,0.0382414348423481,-0.0007164753624238074,-0.1348252296447754,0.0873982310295105,0.05678202956914902,-0.02344823256134987,0.032501220703125,-0.059418607503175735,0.02934121899306774,0.0685962364077568,-0.013140713796019554,-0.04454423487186432,-0.11745351552963257,0.11702276021242142,0.10312261432409286,-0.012659553438425064,-0.016917366534471512,-0.049697063863277435,-0.007586328312754631,0.08723440766334534,-0.05741455405950546,-0.15033507347106934,0.11391271650791168,-0.05441982299089432,0.013944840058684349,0.1135515347123146,-0.12520618736743927,0.019187137484550476,0.127414733171463,0.04881993681192398,-0.0947256088256836,-0.05172795429825783,0.05722863972187042,0.044097900390625,0.006186827551573515,0.06362565606832504,0.05427548289299011,-0.057576652616262436,-0.05238223820924759,-0.007488845381885767,0.024676354601979256,0.0560474768280983,0.13002550601959229,0.01597294583916664,-0.025958703830838203},
		{-0.023553408682346344,0.09603089094161987,-0.08903074264526367,0.12690889835357666,-0.12206034362316132,-0.015725532546639442,-0.0655369907617569,-0.10664647072553635,-0.05022052675485611,-0.026595449075102806,0.09513476490974426,0.005634439177811146,0.08424264192581177,-0.03329400345683098,-0.022476818412542343,-0.07844178378582001,0.016377586871385574,-0.051179639995098114,-0.040326911956071854,0.07810059934854507,0.08979721367359161,0.07998587191104889,-0.1283436119556427,0.023737523704767227,-0.010090920142829418,0.048176348209381104,-0.05298649147152901,-0.09387960284948349,0.03889274224638939,0.0986710786819458,-0.10550130158662796,0.01923678070306778,0.03752150014042854,-0.03393905609846115,0.08439910411834717,-0.017389629036188126,-0.08343228697776794,0.1157241240143776,-0.07259207218885422,0.11979994177818298,0.08763895183801651,0.08995787054300308,0.06081753596663475,0.024254433810710907,0.09282537549734116,-0.017617380246520042,0.06439165025949478,0.07722093164920807,0.06667622178792953,0.08543780446052551,-0.08477574586868286,0.12625177204608917,-0.017582140862941742,0.09777265042066574,0.16437989473342896,0.03504063934087753,0.018840385600924492,-0.04448811337351799,0.12485634535551071,0.11102022975683212,0.10914981365203857,0.08669727295637131,0.11496482789516449,0.09550298750400543},
		{-0.03261282294988632,-0.1110483855009079,0.0954863503575325,0.11098065972328186,-0.0020462169777601957,0.001334912609308958,0.04531513527035713,-0.0935603454709053,0.08717253059148788,-0.13445138931274414,0.050601016730070114,0.0004602878470905125,0.05656980723142624,-0.1140766441822052,0.04968007653951645,0.049815572798252106,0.1001782938838005,-0.12018084526062012,0.06710148602724075,0.01460329070687294,0.04199458658695221,-0.07430452853441238,-0.09703328460454941,-0.1303972750902176,0.06582260876893997,0.09286059439182281,0.045494239777326584,-0.11068867146968842,-0.02333703264594078,0.0644167810678482,-0.10877510160207748,0.030886447057127953,-0.01981397345662117,-0.05618362873792648,0.1378556191921234,0.06379010528326035,0.05830574780702591,0.09413741528987885,-0.058995265513658524,0.019006479531526566,0.013058087788522243,0.035204801708459854,0.02411631867289543,-0.033657316118478775,-0.10674814134836197,0.11308124661445618,0.08809416741132736,0.023428956046700478,-0.010326254181563854,-0.07628481835126877,-0.0019979174248874187,0.11264970153570175,-0.026237040758132935,0.11016566306352615,-0.0014531491324305534,-0.09748581796884537,0.06491367518901825,0.10274414718151093,0.053223609924316406,-0.07625610381364822,-0.04522839933633804,-0.0038952811155468225,-0.011241872794926167,-0.08205685019493103},
		{0.09285520762205124,0.1074296310544014,0.08391700685024261,0.11165837198495865,0.01778438501060009,-0.12327854335308075,0.08459097892045975,-0.030896209180355072,-0.0895189642906189,-0.04155680164694786,0.08338049799203873,-0.03684587776660919,-0.08348013460636139,-0.1000978946685791,0.02597828209400177,0.09063460677862167,-0.10373649001121521,-0.020617390051484108,0.06681949645280838,0.06356413662433624,0.05712777376174927,-0.1334070861339569,0.001949165016412735,-0.09776996076107025,0.049159884452819824,-0.011567473411560059,0.10169920325279236,0.06632180511951447,-0.0427415706217289,-0.02389231137931347,-0.03175804391503334,-0.013695996254682541,0.03662097826600075,-0.07017572224140167,-0.02970289997756481,-0.023884277790784836,-0.07858319580554962,0.02362528257071972,0.10362415760755539,0.06806512176990509,0.004210959654301405,0.044754043221473694,0.05251379311084747,-0.07496586441993713,0.020242581143975258,0.014355705119669437,-0.061390478163957596,-0.03450276702642441,-0.008897473104298115,-0.03077090159058571,-0.05779753625392914,0.0726093053817749,-0.019379915669560432,0.09624432027339935,-0.057881537824869156,0.11412651091814041,0.021986791864037514,-0.004756861366331577,0.10752475261688232,-0.0971553698182106,0.09775121510028839,0.008563750423491001,-0.04751909524202347,0.08132702857255936},
		{-0.10680662095546722,0.03309078887104988,0.085334412753582,0.07419051229953766,-0.03155149519443512,-0.11693554371595383,0.011112896725535393,-0.127585306763649,-0.014698410406708717,0.028909968212246895,0.08401967585086823,0.008099756203591824,0.09050445258617401,0.014998223632574081,0.10131081938743591,0.06009082496166229,-0.06016829237341881,0.04368531331419945,-0.09164022654294968,0.08484238386154175,-0.044272299855947495,0.07750745117664337,-0.07096365094184875,-0.05418626591563225,-0.05733153596520424,0.021433822810649872,0.09110962599515915,0.06782533973455429,-0.01407061330974102,-0.06122595816850662,0.09947629272937775,-0.09862624108791351,0.07975737750530243,0.022022688761353493,0.08271953463554382,0.1081710085272789,0.05723137408494949,0.060187771916389465,0.1050855740904808,-0.028696592897176743,-0.12419797480106354,-0.01330571249127388,-0.06870861351490021,0.06635760515928268,0.014572744257748127,0.016981903463602066,-0.06010829657316208,-0.042610324919223785,-0.005845766514539719,-0.044997688382864,0.11508677154779434,0.13206717371940613,0.026676541194319725,0.08158598840236664,0.08883970975875854,0.04403747618198395,0.05300327390432358,0.004158063791692257,0.12219851464033127,0.05371040105819702,0.11180353909730911,0.001159240840934217,-0.09784186631441116,0.07695920020341873},
		{0.09872718155384064,0.03218143433332443,-0.08654384315013885,0.04757041111588478,-0.049635063856840134,0.11133524030447006,0.14063793420791626,0.08432761579751968,0.0808960422873497,-0.010403705760836601,-0.11375479400157928,0.022965695708990097,-0.0084705064073205,0.10756123065948486,0.015969770029187202,0.07219522446393967,0.10394567251205444,0.06793376803398132,-0.09586871415376663,-0.05232291668653488,0.07883109152317047,0.05240500718355179,0.04162391647696495,0.08264756947755814,-0.08113612234592438,-0.03882802650332451,-0.036941297352313995,0.094507597386837,-0.032746125012636185,0.10394184291362762,-0.04802829027175903,-0.11988301575183868,-0.01733645796775818,0.11812803894281387,-0.015045232139527798,0.06883067637681961,0.14020103216171265,-0.046039436012506485,0.009802144020795822,0.10970500856637955,-0.11390900611877441,0.08536852151155472,-0.07624871283769608,-0.1266556680202484,0.028149878606200218,-0.03502591699361801,0.10336673259735107,-0.1299310177564621,0.09324556589126587,-0.03277493640780449,-0.01725592464208603,0.028737742453813553,-0.1164010539650917,-0.11322766542434692,0.12573647499084473,-0.006611397955566645,0.04149855673313141,-0.060790568590164185,-0.052041832357645035,0.009847407229244709,0.12386150658130646,-0.1098385825753212,0.04892747104167938,-0.0329226478934288},
		{-0.03778041899204254,-0.08904989808797836,0.09422954171895981,0.11608017981052399,0.046582985669374466,-0.01288764551281929,0.12840954959392548,0.09130442142486572,-0.03080753982067108,-0.12923204898834229,-0.04437221959233284,0.007185704540461302,0.006547276396304369,-0.014589189551770687,0.006229231599718332,-0.1581093966960907,-0.07148240506649017,0.10992106795310974,-0.12989813089370728,0.044548146426677704,-0.050253499299287796,0.05176839232444763,-0.0966581404209137,0.0677352175116539,-0.07691159844398499,-0.12428705394268036,0.05790453776717186,0.07736977934837341,0.017646754160523415,-0.13748709857463837,0.010702705942094326,-0.020144768059253693,-0.039623554795980453,-0.043005574494600296,0.014627417549490929,0.02741250768303871,0.025295034050941467,0.06328930705785751,0.0842176303267479,-0.060596223920583725,0.11172948777675629,-0.04604172334074974,-0.06515558809041977,0.04653950780630112,0.028211217373609543,0.13332098722457886,0.0038551832549273968,-0.05282469093799591,0.03016265295445919,0.08643832802772522,0.0992700532078743,0.0651024580001831,0.056554581969976425,0.12000381946563721,0.022594859823584557,-0.08227773755788803,-0.10912764072418213,-0.005719646345824003,0.02141212671995163,-0.11008042842149734,0.152179554104805,-0.08268566429615021,0.13660509884357452,0.033172234892845154},
		{-0.04175576940178871,0.011084695346653461,0.04557579383254051,-0.05973142758011818,-0.1503932923078537,0.03810546547174454,0.14148765802383423,0.10566014796495438,0.15597416460514069,-0.05635221675038338,-0.009946286678314209,0.03022930771112442,-0.11933045089244843,0.06364510953426361,0.07834380865097046,0.06482477486133575,0.053511474281549454,0.09404083341360092,-0.13204771280288696,-0.0304533950984478,0.05603134259581566,-0.10571341961622238,0.14445029199123383,-0.0006862658192403615,0.10985074937343597,-0.13492268323898315,0.022344039753079414,0.056334927678108215,0.02969079464673996,0.030696190893650055,-0.005146237555891275,-0.1345798820257187,0.10268469899892807,0.015596913173794746,0.07154960185289383,0.05694184824824333,0.0771070346236229,-0.11573921889066696,-0.01930033043026924,-0.10228690505027771,0.0868804007768631,-0.044480420649051666,0.15131165087223053,-0.014957396313548088,-0.028721559792757034,-0.09708084911108017,-0.03166298195719719,-0.12401969730854034,-0.08518484234809875,0.08414774388074875,0.024253100156784058,0.14133581519126892,-0.05182493105530739,-0.07110622525215149,0.008323416113853455,0.06135046109557152,-0.006671404466032982,-0.07332168519496918,-0.09126130491495132,0.07755529135465622,-0.08979296684265137,-0.01331733912229538,-0.004328696057200432,-0.01628040336072445},
		{-0.028320008888840675,-0.09387777745723724,-0.047454606741666794,-0.09567955136299133,-0.06022235378623009,0.11853257566690445,-0.013282599858939648,-0.13199296593666077,0.14596399664878845,-0.12552142143249512,0.03744577616453171,-0.03921996429562569,-0.057791370898485184,0.05860896408557892,0.012499370612204075,0.0945027768611908,-0.03158467262983322,-0.12337008863687515,-0.1096179261803627,-0.07138671725988388,-0.10611817240715027,0.09034086763858795,0.08652442693710327,-0.04134150221943855,-0.06722836941480637,-0.08459249138832092,0.05459560081362724,0.006795956753194332,-0.12767334282398224,-0.057545434683561325,-0.006072437856346369,0.02498140186071396,0.010492018423974514,0.05541263520717621,-0.014532269909977913,-0.055897511541843414,0.03457716852426529,-0.05725149065256119,0.015911972150206566,-0.005247673485428095,-0.004025872331112623,-0.10297948867082596,-0.10290291905403137,-0.009063534438610077,0.077516108751297,0.03910745680332184,0.12302781641483307,-0.12207333743572235,0.06430340558290482,0.10764545202255249,0.09353945404291153,0.10923923552036285,-0.0853201374411583,0.001830975990742445,0.02628922276198864,-0.04159633442759514,0.006016877014189959,0.025242185220122337,0.018756354227662086,-0.062461987137794495,0.06990192085504532,-0.000942183774895966,0.051872823387384415,0.15751074254512787},
		{-0.06008929759263992,-0.10716960579156876,0.002481643110513687,0.09607747942209244,0.04804324358701706,-0.010910959914326668,-0.02866983786225319,0.015498566441237926,0.06139032170176506,-0.10059601068496704,-0.102580226957798,-0.027503184974193573,-0.003840250661596656,-0.06476136296987534,0.1377980262041092,0.03690178319811821,0.026544898748397827,-0.08670155704021454,-0.10172024369239807,0.1226339116692543,0.10977563261985779,0.03848988562822342,0.046780385076999664,0.02520892024040222,-0.06886860728263855,-0.05722648277878761,0.06128790229558945,-0.010606973432004452,0.04944799095392227,-0.026902036741375923,0.09834661334753036,-0.05357922986149788,-0.015906473621726036,-0.09609103202819824,-0.009401521645486355,0.0004176837974227965,0.0012117811711505055,0.043943166732788086,-0.042697660624980927,0.09536687284708023,-0.05875397473573685,0.07137145102024078,-0.0035033642780035734,-0.057837437838315964,-0.031181396916508675,-0.11375020444393158,-0.1079958826303482,0.034004729241132736,-0.07529310882091522,0.03602485731244087,-0.01721266098320484,-0.010479738935828209,0.05691076070070267,-0.029242021963000298,0.04113403707742691,-0.02568940818309784,0.010228653438389301,0.08300016820430756,-0.05334984511137009,-0.09334239363670349,0.036842260509729385,-0.09870252758264542,-0.0028412044048309326,-0.06530361622571945},
		{0.006285953801125288,0.044995516538619995,-0.058003515005111694,-0.11197958886623383,-0.08270630985498428,0.00869785901159048,-0.009241779334843159,0.07193765789270401,0.05052950978279114,-0.07058592885732651,-0.10730665922164917,0.07333016395568848,0.054267652332782745,0.011428755708038807,0.026979690417647362,-0.048867367208004,0.025944599881768227,-0.07350027561187744,-0.13032448291778564,0.025304976850748062,0.10467548668384552,-0.035949498414993286,-0.07806825637817383,-0.032268740236759186,-0.07221433520317078,-0.05108782276511192,0.13231514394283295,-0.07745102792978287,-0.06359948962926865,-0.027788834646344185,-0.11174724251031876,-0.13893640041351318,0.0450274795293808,-0.07765484601259232,-0.02529931627213955,-0.05781484395265579,0.1279965341091156,-0.09613316506147385,0.12278905510902405,-0.08755170553922653,0.0377589650452137,0.1302040070295334,0.11025926470756531,-0.030746202915906906,0.051733121275901794,0.13342620432376862,0.04959384724497795,0.02641110308468342,-0.012332651764154434,-0.03268969804048538,0.08509789407253265,0.10627052187919617,0.12376835942268372,0.08221977204084396,0.043906744569540024,-0.0458710640668869,-0.09850898385047913,-0.004088759422302246,0.10351838171482086,-0.05876412242650986,0.022383583709597588,-0.07299713790416718,0.11198212951421738,0.08406251668930054},
		{-0.14329755306243896,0.016799187287688255,0.04614724963903427,0.04070981591939926,-0.02401796542108059,-0.11637748032808304,-0.07064853608608246,0.09936227649450302,0.01988816447556019,-0.07132196426391602,0.10563986003398895,0.032673731446266174,-0.06170438230037689,0.01851249299943447,0.05863780528306961,-0.12352489680051804,-0.09460707753896713,0.13877488672733307,0.08152717351913452,-0.016150720417499542,0.013022019527852535,-0.13432681560516357,-0.08375277370214462,-0.12209632992744446,0.16017860174179077,-0.060363300144672394,-0.019442899152636528,-0.06446928530931473,-0.015856914222240448,-0.03498467057943344,0.10156656801700592,-0.14891134202480316,-0.05049138516187668,0.12054802477359772,-0.03727412223815918,-0.02433517388999462,-0.09333384782075882,0.05613229051232338,-0.01256153080612421,0.13061439990997314,0.06750559061765671,0.04573559761047363,0.0718703493475914,-0.07529764622449875,0.08159475028514862,-0.09894926100969315,-0.007906888611614704,-0.031773705035448074,0.08555164933204651,-0.09447517991065979,0.09114863723516464,-0.001231757691130042,0.13779878616333008,0.015164429321885109,-0.11727908253669739,0.044424254447221756,-0.07651839405298233,-0.012776500545442104,-0.06170758605003357,0.06686658412218094,-0.06889577209949493,0.054617878049612045,0.016299976035952568,-0.012437204830348492},
		{-0.002174892695620656,0.0003348457394167781,0.05117855966091156,-0.03873467445373535,0.042044296860694885,-0.031289104372262955,0.08515889942646027,0.07674840092658997,-0.0069150542840361595,0.014755507931113243,-0.09348787367343903,0.06560277938842773,0.07839351147413254,-0.051380254328250885,0.11249703168869019,0.09392707794904709,-0.1318962126970291,0.03070713020861149,-0.0760059654712677,-0.10300799459218979,0.14495506882667542,-0.08206698298454285,0.07008937001228333,0.04585523158311844,0.08063444495201111,-0.1266973912715912,0.05112658441066742,0.011377502232789993,-0.11825000494718552,0.04905964061617851,-0.02941943146288395,-0.02087397687137127,-0.11128393560647964,-0.008153287693858147,-0.04047273099422455,0.1182355135679245,-0.10201488435268402,-0.10711223632097244,0.017827214673161507,0.0868518278002739,-0.13534589111804962,0.03821408003568649,0.1016000360250473,0.06635576486587524,-0.13902641832828522,-0.06400033831596375,0.03984486684203148,-0.08293541520833969,-0.08698994666337967,0.09127587080001831,0.14503005146980286,0.12790106236934662,0.03424479439854622,0.017875071614980698,0.10244812071323395,-0.1355939507484436,-0.0963054820895195,-0.018836775794625282,0.05638616532087326,-0.11977303773164749,0.06222332641482353,0.01637161336839199,-0.06289258599281311,-0.09150517731904984},
		{-0.15391692519187927,0.07333285361528397,0.013829929754137993,-0.11516446620225906,-0.05246833339333534,0.023929432034492493,-0.08014074712991714,-0.05679364502429962,0.12140455842018127,-0.051660265773534775,-0.01773720420897007,0.03741636499762535,0.015654828399419785,-0.025067869573831558,-0.11098314821720123,0.013540208339691162,-0.114875927567482,0.00536999199539423,0.07211320847272873,-0.08645418286323547,-0.02826702781021595,0.09227432310581207,0.0896715372800827,-0.0008227377547882497,-0.017513468861579895,-0.03354034945368767,0.00033613794948905706,-0.10240992158651352,-0.10614871233701706,-0.10496167838573456,0.09522584080696106,-0.10075559467077255,-0.023867903277277946,-0.03767436742782593,0.060377996414899826,0.011927969753742218,0.07832180708646774,0.04479629918932915,0.08246629685163498,-0.09578142315149307,0.006137160584330559,-0.06501400470733643,0.0999947190284729,0.014589025638997555,-0.14839772880077362,0.034723807126283646,0.10608828067779541,-0.01411228533834219,0.1148793026804924,-0.0407145619392395,0.03482319414615631,0.08724113553762436,0.13375206291675568,-0.05282803252339363,-0.11004312336444855,-0.13553370535373688,0.01756688579916954,0.062220729887485504,-0.07503397017717361,0.03645429015159607,0.11846132576465607,-0.12316945195198059,0.03504553809762001,0.10164029151201248},
		{-0.15474283695220947,0.11076022684574127,-0.10065773874521255,-0.054819174110889435,0.02338981255888939,-0.030003856867551804,0.008145307190716267,-0.04781953990459442,0.03399575501680374,-0.06011545658111572,0.06718995422124863,0.023738963529467583,-0.058021605014801025,-0.14684058725833893,-0.06222018599510193,0.0912165716290474,-0.0910044014453888,-0.02378472127020359,0.13180828094482422,0.098716601729393,0.04926165193319321,-0.09372465312480927,0.0674772709608078,-0.033631954342126846,-0.00841313973069191,-0.03760569170117378,0.10060296207666397,-0.018667098134756088,0.08266688138246536,0.050379637628793716,0.08935458958148956,-0.008880142122507095,-0.12308371812105179,-0.016654321923851967,0.05944165587425232,0.0018819080432876945,-0.08062473684549332,0.049499381333589554,0.001697969390079379,0.09265919029712677,-0.05671758949756622,0.1437327265739441,0.09025450050830841,0.08355965465307236,-0.13642458617687225,-0.10299087315797806,0.06217276304960251,-0.05143863335251808,0.10055060684680939,0.05734739080071449,0.02286318689584732,0.0646950826048851,0.06724641472101212,-0.029536470770835876,-0.11429183930158615,-0.0064498200081288815,-0.044861022382974625,0.019110901281237602,0.014526315033435822,-0.023919835686683655,-0.08884308487176895,0.00932304933667183,-0.018211234360933304,-0.10022057592868805},
		{0.019131269305944443,0.09027068316936493,-0.09768550097942352,-0.021488141268491745,0.10162626206874847,-0.031183796003460884,0.029761815443634987,-0.13597087562084198,0.10866929590702057,0.04933027923107147,0.0015567088266834617,-0.13286037743091583,0.08453302085399628,-0.04043469578027725,-0.00044750358210876584,0.04066130518913269,0.006325901951640844,0.114659883081913,0.13524772226810455,0.1512378454208374,0.12317761033773422,0.032567910850048065,-0.09068474173545837,-0.05855876952409744,-0.042726535350084305,0.008096708916127682,-0.050535351037979126,0.13622497022151947,-0.04092078655958176,0.006626203656196594,0.019826320931315422,0.0033686659298837185,-0.11183501780033112,-0.044380590319633484,0.16008718311786652,-0.0667840987443924,-0.060040585696697235,0.004388745874166489,0.05789141729474068,-0.08126477152109146,0.08914542198181152,-0.027655430138111115,-0.05299673601984978,0.06296556442975998,-0.01321011409163475,-0.09303118288516998,0.08570311963558197,-0.1385195106267929,0.05975242331624031,-0.03354322537779808,0.15301702916622162,-0.007596592418849468,-0.047481417655944824,0.04104006662964821,0.07008282840251923,-0.1275215893983841,0.01351524330675602,-0.039706066250801086,-0.05721045285463333,-0.10842367261648178,-0.025716692209243774,0.08624588698148727,0.12892591953277588,-0.048257436603307724},
		{0.08187336474657059,-0.1048603430390358,-0.05126088857650757,-0.04295274615287781,0.12603870034217834,-0.08500265330076218,0.09744259715080261,-0.011857617646455765,-0.09007283300161362,0.02460409887135029,0.06518284976482391,0.012000386603176594,-0.008557512424886227,0.04573662206530571,-0.07292067259550095,-0.13552150130271912,-0.10947459191083908,0.03131367638707161,0.04213513433933258,-0.07834619283676147,-0.0625380203127861,0.0860450267791748,-0.00496648857370019,-0.031896211206912994,0.09747513383626938,-0.11099362373352051,0.09757696837186813,0.08837506920099258,0.015321161597967148,0.03708281368017197,-0.10713255405426025,-0.09954597800970078,0.06990969181060791,0.03669239953160286,-0.059377703815698624,0.010494429618120193,-0.07754092663526535,-0.045763902366161346,0.011828144080936909,-0.09344808012247086,-0.11759798228740692,-0.046362604945898056,-0.006839456968009472,-0.028264673426747322,-0.11412891000509262,-0.10400435328483582,-0.04125802218914032,0.04258016496896744,0.11460680514574051,-0.04185483232140541,0.06585526466369629,0.04521634057164192,0.1159188374876976,0.08234018087387085,0.05444755032658577,-0.010678685270249844,-0.08553628623485565,0.05867105349898338,-0.06874693185091019,-0.1235785037279129,-0.0818280428647995,0.0768454521894455,-0.06465480476617813,0.09896132349967957},
		{-0.04810412600636482,0.06373419612646103,-0.02351195551455021,0.10948477685451508,-0.1148727536201477,-0.11133875697851181,-0.10775268077850342,0.08807119727134705,-0.018902471289038658,-0.10998670011758804,0.05010658875107765,-0.10442300140857697,-0.043846599757671356,-0.029085664078593254,0.09880203753709793,0.028410576283931732,0.10136544704437256,-0.026883987709879875,0.12588529288768768,0.042614154517650604,0.10880913585424423,0.027877584099769592,0.13770043849945068,-0.06714919954538345,0.08749374747276306,-0.04746682569384575,-0.099830262362957,-0.01728029176592827,0.1109841912984848,0.005807113833725452,0.003354768268764019,-0.1066371351480484,-0.11958212405443192,-0.09616278856992722,0.16140128672122955,0.06095178797841072,0.0964529812335968,-0.08063531666994095,-0.04408596456050873,-0.09740365296602249,-0.07374371588230133,0.021230297163128853,0.0834653303027153,-0.03897460922598839,-1.3630889952764846e-05,0.10020432621240616,0.045425280928611755,-0.06499865651130676,0.05697258189320564,0.029032595455646515,0.07535861432552338,0.10929064452648163,-0.005101531744003296,-0.07090861350297928,0.044566910713911057,0.11765418946743011,0.006480091251432896,0.011028946377336979,-0.0494399257004261,0.03393054008483887,0.019300566986203194,-0.14660662412643433,-0.05155147984623909,-0.08924271911382675},
		{0.007408310193568468,-0.0920184850692749,0.058753885328769684,-0.0079049626365304,0.06919343769550323,-0.0032897437922656536,0.13960009813308716,-0.10489177703857422,0.10149399191141129,0.007342202588915825,-0.06600723415613174,-0.03400205075740814,-0.11091039329767227,-0.125159353017807,0.09837803989648819,-0.08653537184000015,-0.13349159061908722,-0.005362509284168482,0.015177172608673573,0.049538783729076385,-0.09779373556375504,0.0699794590473175,-0.05312503129243851,-0.11830760538578033,0.02387239784002304,0.06319419294595718,0.117377869784832,0.07537531852722168,0.09985718876123428,0.12160447239875793,0.09630373120307922,-0.05657188966870308,-0.06168152391910553,-0.024809343740344048,0.15886643528938293,0.07749167829751968,-0.09182487428188324,0.06828663498163223,0.11662983894348145,0.052020471543073654,0.014538164250552654,-0.03746981546282768,0.0004190634354017675,0.09726709872484207,0.016084007918834686,0.05857681483030319,-0.13518624007701874,-0.05576399713754654,-0.07354685664176941,-0.08785488456487656,0.024056103080511093,0.018746891990303993,-0.011912308633327484,-0.012866910547018051,0.011354824528098106,0.11672841012477875,0.04014555364847183,-0.007165958173573017,-0.10850785672664642,0.03334520757198334,0.10388720780611038,-0.03751491382718086,-0.03904052451252937,0.0833376795053482},
		{-0.01678691990673542,0.11519188433885574,-0.08571551740169525,-0.0027815692592412233,0.07073371112346649,-0.06650478392839432,-0.06840955466032028,0.06482923775911331,0.09115582704544067,0.031213274225592613,-0.02355213835835457,-0.13342884182929993,-0.0037127737887203693,-0.02893470972776413,-0.11187025904655457,0.08984918892383575,0.11122969537973404,-0.028377816081047058,0.11663564294576645,0.03975557163357735,-0.12237892299890518,0.038049787282943726,0.1456751525402069,0.0416855663061142,0.11873257905244827,-0.0315864160656929,0.08636727929115295,-0.027028603479266167,0.05750040337443352,-0.068843774497509,-0.11297863721847534,0.05109252780675888,-0.05978503078222275,0.04226510599255562,-0.02996060624718666,0.10158088058233261,0.03220058232545853,-0.0477871373295784,0.024102866649627686,-0.06626574695110321,-0.11594591289758682,-0.11479038000106812,0.011777467094361782,0.009064343757927418,0.02215254306793213,-0.007364861201494932,-0.14957605302333832,-0.04768756031990051,0.10415869951248169,-0.07307568192481995,0.0484275184571743,-0.03866666927933693,0.025433562695980072,0.1333443522453308,0.037358175963163376,-0.05075734853744507,0.014175007119774818,-0.04340700805187225,0.08419832587242126,0.03812504932284355,0.027152622118592262,0.057326678186655045,-0.07489420473575592,-0.07358559221029282},
		{0.04038088768720627,-0.05228335037827492,-0.10762771219015121,0.05299878492951393,0.0194406621158123,0.04914674535393715,0.07463562488555908,-0.09132709354162216,-0.07834348827600479,-0.14913395047187805,-0.07862144708633423,0.0465419702231884,-0.007383208256214857,0.02209286391735077,0.11107312887907028,-0.01306445524096489,-0.0901450365781784,-0.0981241762638092,0.12875187397003174,-0.02290993742644787,-0.07721833884716034,-0.0902458131313324,0.08159071952104568,-0.06337730586528778,0.10971253365278244,0.050684936344623566,-0.09656724333763123,-0.08744046092033386,0.07184787839651108,-0.07186523824930191,-0.08749673515558243,-0.02079944871366024,0.10701101273298264,-0.1252506524324417,0.09674891084432602,-0.08815303444862366,-0.15831831097602844,0.03395044058561325,-0.08710325509309769,-0.012230671010911465,0.013501380570232868,-0.10189288854598999,0.10146283358335495,0.010463549755513668,0.0638623908162117,0.13067670166492462,0.08426550030708313,0.1133938580751419,-0.08951575309038162,0.10305238515138626,0.14902998507022858,0.04267200455069542,-0.02287343703210354,-0.006138304248452187,0.0360698327422142,-0.006604713387787342,-0.08720431476831436,-0.0007435029838234186,-0.01165287010371685,-0.03247758373618126,0.10612044483423233,-0.11943946778774261,-0.015533395111560822,0.08886716514825821},
		{0.04796239733695984,-0.08508346229791641,-0.06610845774412155,0.034726157784461975,0.00614534318447113,-0.04137139394879341,0.1499537080526352,0.04863524064421654,0.10075124353170395,-0.035216376185417175,-0.011118104681372643,-0.023341065272688866,0.014233111403882504,-0.14740678668022156,0.12357072532176971,0.1335468292236328,-0.023711709305644035,0.06652072072029114,-0.06754685938358307,-0.0031849679071456194,-0.07286062091588974,-0.026393072679638863,0.08850079774856567,-0.0523352324962616,-0.0932387262582779,-0.09410028904676437,-0.06360197067260742,-0.06957287341356277,-0.004563628230243921,-0.05917994678020477,-0.07623022049665451,-0.12325551360845566,-0.06892494112253189,0.015219971537590027,0.06104099377989769,-0.057488106191158295,-0.16002985835075378,-0.12402210384607315,-0.1017606258392334,0.041035741567611694,-0.0842781811952591,-0.07501828670501709,-0.0797579362988472,-0.0839405506849289,0.07581143081188202,-0.07966433465480804,0.04855439066886902,0.04495454579591751,0.02551301196217537,0.11270180344581604,-0.0831700786948204,0.05350302532315254,-0.03648154437541962,0.06679639965295792,-0.018837150186300278,-0.11383499205112457,0.06885888427495956,0.09544574469327927,0.05525235831737518,-0.003324228571727872,0.10661669075489044,-0.08961892873048782,-0.04872945696115494,0.020269909873604774},
		{-0.1286952644586563,0.07403364777565002,-0.025235140696167946,-0.0033996966667473316,0.07600358128547668,0.06134236976504326,0.13709662854671478,-0.04509267210960388,0.07635083794593811,0.037677932530641556,0.07450088113546371,0.0461154468357563,0.1055862158536911,0.06790986657142639,0.06150400638580322,0.12835775315761566,0.000476063578389585,-0.033272501081228256,0.09695638716220856,0.13629570603370667,-0.11163143068552017,0.012032012455165386,0.022297166287899017,-0.03542301803827286,0.07717377692461014,-0.0014222253812476993,0.0849081426858902,-0.01681675761938095,-0.11037316918373108,-0.043387215584516525,-0.02699870802462101,0.042188942432403564,-0.035779919475317,0.08614008128643036,0.02613181248307228,0.11180182546377182,-0.045058295130729675,0.044551774859428406,0.09073818475008011,0.007220242638140917,-0.014750475063920021,0.11759673058986664,-0.09957961738109589,-0.010784514248371124,0.05714196339249611,0.152226984500885,-0.07488726079463959,0.010554338805377483,0.010294584557414055,-0.07039262354373932,0.06676766276359558,0.1132052019238472,0.019309505820274353,-0.02828994393348694,0.15290096402168274,0.031207868829369545,-0.020475057885050774,0.05606953799724579,-0.031964682042598724,-0.09165889769792557,-0.011964126490056515,-0.12341205775737762,0.12267733365297318,0.07055971026420593},
		{0.10449925065040588,-0.08764787018299103,-0.02022755891084671,0.0561220608651638,-0.0901997834444046,0.023648031055927277,0.14358143508434296,0.08239145576953888,0.019588405266404152,0.07856210321187973,-0.05455699563026428,-0.10894336551427841,0.14653052389621735,-0.09977477788925171,0.11605760455131531,-0.005396851804107428,-0.024257173761725426,-0.09137383848428726,-0.06906217336654663,-0.0432123988866806,-0.07644078135490417,0.10062329471111298,-0.08471308648586273,-0.02188466675579548,0.04261448606848717,0.02967885322868824,-0.05671875178813934,-0.08017522096633911,0.08289309591054916,0.05639670416712761,-0.1032923087477684,-0.04812747240066528,-0.051765937358140945,0.02424582652747631,-0.009298453107476234,0.0447067990899086,-0.13894443213939667,0.1254453957080841,-0.09841567277908325,0.0778781995177269,-0.0775410383939743,-0.04476015642285347,-0.11017963290214539,0.07781723886728287,0.030125539749860764,-0.0067995404824614525,-0.10164996236562729,-0.03946201875805855,-0.038010649383068085,0.049625661224126816,-0.04004094377160072,-0.08208770304918289,0.02975277230143547,0.06889214366674423,-0.06523513048887253,0.0053577180951833725,-0.03930480778217316,-0.0756114050745964,-0.032288577407598495,0.09912436455488205,0.05848817527294159,0.1299182027578354,-0.006778055336326361,-0.06023180112242699},
		{0.12125580757856369,0.020863858982920647,0.017594266682863235,0.0031034336425364017,-0.13837161660194397,-0.13444563746452332,0.12553858757019043,0.030468594282865524,-0.05382496491074562,0.09122519195079803,0.10538454353809357,0.08334174752235413,-0.029246291145682335,0.11685920506715775,-0.11671549826860428,-0.03272173926234245,0.027114754542708397,0.1079845055937767,0.04899901524186134,0.03629019856452942,-0.06903516501188278,0.05300859361886978,-0.04117316007614136,0.033898238092660904,-0.019528629258275032,-0.011199680157005787,-0.07199176400899887,0.09532900154590607,-0.046862922608852386,0.0010186793515458703,-0.04930784925818443,-0.05324677750468254,0.05964942276477814,0.04118950292468071,-0.07241252809762955,0.06846611946821213,-0.15660281479358673,-0.051566481590270996,0.11255916208028793,-0.13075733184814453,-0.00032521324465051293,-0.08452446013689041,-0.006058434024453163,0.020902292802929878,-0.07054761052131653,-0.08019912987947464,-0.004051469266414642,0.0650700181722641,0.12076011300086975,-0.06241609528660774,0.03365733474493027,0.07399865239858627,0.08301440626382828,0.05148928984999657,-0.015404172241687775,-0.004907978232949972,0.024070847779512405,-0.001087745651602745,0.07093586027622223,-0.029430817812681198,-0.09827740490436554,0.031500399112701416,-0.08590035885572433,-0.10832437127828598},
		{-0.0889066830277443,0.10117973387241364,0.09775721281766891,0.10503535717725754,0.03814562410116196,0.09438751637935638,0.11196161061525345,-0.08215600997209549,-0.08600494265556335,-0.0761992558836937,-0.0414031483232975,0.06802594661712646,0.034778181463479996,-0.0025370893999934196,-0.07652383297681808,0.06039849668741226,-0.07614699006080627,0.08832348138093948,0.02098456770181656,0.05449672415852547,-0.04466541111469269,-0.01577598974108696,-0.04145574942231178,0.028371326625347137,0.14478302001953125,0.001620003953576088,0.08257795125246048,0.0854693204164505,0.11947500705718994,0.11608370393514633,-0.024138418957591057,-0.009195081889629364,0.01736270636320114,-0.09407973289489746,0.051188208162784576,-0.04210907593369484,-0.15201863646507263,-0.03786984086036682,0.06914525479078293,0.06180597469210625,0.037250589579343796,0.03170185536146164,0.05613025650382042,0.01953827776014805,-0.12328383326530457,0.12302614003419876,0.049159277230501175,-0.0147691760212183,-0.01382792741060257,-0.04113161936402321,0.08141854405403137,0.01789851486682892,0.035556916147470474,0.06273156404495239,-0.06834354996681213,0.107337586581707,-0.04433804005384445,-0.03889274224638939,0.039189305156469345,0.05938198044896126,0.054607875645160675,-0.09263408929109573,0.08773218840360641,0.12961643934249878},
		{0.0591164156794548,0.0003507349465508014,0.021508898586034775,-0.05208215117454529,-0.10301629453897476,0.05544862523674965,0.05942476540803909,0.11137247830629349,-0.12430913746356964,-0.0978023037314415,-0.041761815547943115,-0.09303084015846252,-0.07204857468605042,0.047573015093803406,-0.020184200257062912,0.08345344662666321,-0.036552123725414276,-0.050914254039525986,0.07210376858711243,0.12489086389541626,-0.04532521963119507,0.11635269969701767,0.03440398350358009,-0.008059724234044552,-0.03147310018539429,-0.010845323093235493,0.026372218504548073,0.14664916694164276,0.09192853420972824,0.06312635540962219,0.015823686495423317,-0.07732439786195755,-0.12003376334905624,0.0077164131216704845,-0.003939098212867975,0.09571404755115509,0.05535786226391792,0.03608359396457672,0.0751836746931076,-0.08857688307762146,0.040078338235616684,0.12242782860994339,-0.024483520537614822,0.14412382245063782,0.10425080358982086,-0.026519769802689552,0.011191953904926777,-0.05347439646720886,0.05448591709136963,0.07719845324754715,-0.06205904483795166,-0.05448855832219124,-0.04234801232814789,0.14015454053878784,-0.015268160030245781,-0.03592982515692711,0.09278963506221771,-0.06475792825222015,0.02858210913836956,0.018273595720529556,-0.03847990557551384,0.0045349788852036,-0.0012152383569628,0.11427506059408188},
		{0.027583694085478783,0.09304159879684448,-0.03383224084973335,-0.04788103327155113,-0.13469994068145752,-0.1239960715174675,-0.06505975127220154,0.0871327817440033,0.016378693282604218,0.001474501215852797,-0.05232704430818558,0.08187751471996307,0.131595641374588,-0.02645447477698326,0.04521261155605316,-0.013979235664010048,-0.07564879208803177,-0.09046146273612976,0.06803611665964127,0.16256563365459442,-0.07389530539512634,0.12557964026927948,0.11416742205619812,0.07755707949399948,0.05318790301680565,0.14453868567943573,-0.08445128798484802,0.014520091935992241,-0.06520473957061768,-0.0755634754896164,-0.08006833493709564,0.04744971916079521,0.06830096244812012,-0.10050420463085175,-0.08409112691879272,-0.09106641262769699,0.043794162571430206,0.05345313251018524,0.06631278991699219,0.04481393098831177,-0.07674422115087509,-0.03130536526441574,0.014698575250804424,0.07750769704580307,-0.014603545889258385,-0.03402751684188843,0.10375882685184479,0.020644282922148705,-0.09370797127485275,-0.07508589327335358,0.03345056623220444,0.012661689892411232,0.054749373346567154,0.04103695973753929,-0.09364298731088638,-0.0722956582903862,-0.018476130440831184,0.03947914019227028,0.12191417068243027,0.10636397451162338,-0.13043558597564697,0.06861557811498642,-0.055080533027648926,-0.009025461971759796},
		{-0.11014395207166672,-0.0952632948756218,-0.08772673457860947,0.05799432843923569,-0.12872982025146484,0.03813185170292854,-0.04488430544734001,-0.10126463323831558,0.07206802070140839,-0.09659913927316666,0.08771512657403946,0.024011949077248573,0.0734269767999649,-0.05288863182067871,0.1206531897187233,-0.046639058738946915,0.03615036606788635,0.0161787997931242,0.10199375450611115,0.05151261389255524,0.041897960007190704,-0.012179046869277954,0.014509748667478561,-0.10268326848745346,-0.09829029440879822,-0.08967767655849457,0.12150878459215164,0.08979827165603638,-0.06818806380033493,0.01809120737016201,0.10093672573566437,-0.03766367584466934,0.10663987696170807,0.07797973603010178,-0.023732464760541916,-0.04222779721021652,-0.06702253222465515,0.020845530554652214,0.1297534555196762,-0.08942481875419617,0.10540199279785156,0.06329790502786636,0.037271685898303986,0.09921315312385559,0.03722706809639931,-0.003575255861505866,-0.13827133178710938,0.1402011513710022,-0.06848149746656418,0.09110434353351593,0.01441996730864048,0.15344564616680145,0.05525779351592064,0.06894470006227493,-0.018478961661458015,0.0778057873249054,0.10240030288696289,-0.03569350019097328,-0.049704693257808685,-0.06107994168996811,-0.05324341729283333,0.011917215771973133,0.0937490239739418,-0.004061386454850435},
		{-0.02889052964746952,-0.06571505963802338,0.1265130490064621,-0.08096732944250107,0.03807135298848152,0.03792477026581764,-0.05979318171739578,0.028760679066181183,-0.10647907108068466,-0.08829887211322784,0.03540337458252907,0.08569172769784927,0.07136931270360947,-0.10979016125202179,0.001492757466621697,-0.10632868856191635,-0.11038126051425934,0.10041040182113647,0.03789964318275452,-0.08559390157461166,-0.08745286613702774,-0.06483016908168793,-0.10933518409729004,-0.12642784416675568,0.06456024944782257,0.10570178180932999,-0.08092208206653595,-0.03598781302571297,-0.007508816197514534,0.09453868120908737,-0.03758782520890236,0.020344015210866928,-0.01803412102162838,0.06113636866211891,0.0041145505383610725,-0.016043223440647125,-0.046771205961704254,-0.04752019792795181,-0.05280282720923424,-0.1369204968214035,-0.06869131326675415,0.06900808215141296,0.12321536242961884,0.15532022714614868,0.014412445947527885,-0.06018048897385597,-0.08400215953588486,0.0178106427192688,-0.11512318253517151,0.06292380392551422,0.030062764883041382,0.15213797986507416,0.07891722023487091,0.15391559898853302,-0.01911916770040989,0.03943227604031563,0.05955927073955536,0.0927589163184166,0.09875417500734329,0.024002008140087128,0.05056547746062279,-0.07730119675397873,0.014244056306779385,0.11974892765283585},
		{1.9175153283867985e-05,0.11843103170394897,0.084797203540802,0.002225748263299465,-0.11927958577871323,0.06111904978752136,0.12714172899723053,0.03927130624651909,-0.12597669661045074,-0.025933237746357918,0.0775364339351654,0.054558757692575455,0.008064254187047482,-0.06285832822322845,-0.05873176455497742,0.020538300275802612,-0.11547735333442688,-0.02781190723180771,-0.0746888741850853,0.013963588513433933,0.0036178934387862682,0.018817508593201637,0.09856712818145752,0.002913127886131406,0.029212726280093193,0.08195246756076813,0.09062542766332626,0.10433954000473022,-0.1033097505569458,0.1298416554927826,0.09418529272079468,-0.06416472792625427,0.06418993324041367,0.06953795999288559,0.02192123606801033,0.08638176321983337,-0.0665275901556015,0.10178197920322418,0.10569129884243011,-0.10464558750391006,0.12651675939559937,0.11656761169433594,0.08385772258043289,0.1028459370136261,-0.09603840112686157,0.1389237642288208,0.009847204200923443,0.13991782069206238,0.12430379539728165,-0.06431834399700165,-0.08512548357248306,0.06322802603244781,-0.07854802906513214,-0.05318300798535347,0.09287197887897491,0.1213131844997406,-0.08011217415332794,0.008428964763879776,0.13662008941173553,0.04408951476216316,-0.003444751724600792,-0.04165923222899437,-0.12299490720033646,0.10358531773090363},
		{0.09407974779605865,0.09028852730989456,0.017804432660341263,0.10483632981777191,0.038697708398103714,0.08672347664833069,-0.03645454719662666,0.008393550291657448,0.0005605467013083398,0.018274882808327675,-0.04187595099210739,0.1261299103498459,-0.05097762122750282,-0.10579441487789154,-0.08424796164035797,-0.06655662506818771,-0.130034938454628,-0.08322573453187943,-0.0815928652882576,-0.018366754055023193,0.058269549161195755,0.017905941233038902,-0.08093011379241943,0.08576967567205429,0.09334533661603928,0.026441436260938644,-0.08340200781822205,-0.06714534759521484,-0.022537723183631897,0.05295164883136749,0.007705341558903456,0.028636008501052856,-0.04477778077125549,-0.13490529358386993,-0.11604772508144379,0.10049628466367722,0.0973956286907196,0.03675214946269989,0.04302945360541344,-0.05142601206898689,-0.07769278436899185,0.06484388560056686,0.00019189153681509197,-0.05018613487482071,-0.0743928924202919,-0.024944229051470757,0.021715017035603523,0.03393993154168129,0.006100641563534737,0.002552506048232317,0.04604971036314964,0.011850109323859215,0.04579051584005356,-0.012729917652904987,0.06307586282491684,-0.02653350867331028,0.015064621344208717,-0.09873507916927338,0.034163735806941986,0.08370406925678253,-0.13079488277435303,0.03154853731393814,-0.12458758056163788,-0.08855517953634262},
		{0.10129045695066452,-0.08711803704500198,-0.11023765057325363,-0.03741905465722084,-0.0041996692307293415,-0.1553916335105896,0.1244499683380127,0.12171700596809387,-0.10300386697053909,0.13208667933940887,-0.025432657450437546,0.08504194766283035,0.054741617292165756,-0.03831489384174347,0.08262691646814346,0.10324828326702118,0.05839018151164055,0.11046791821718216,0.05859362706542015,-0.07337803393602371,-0.04778047651052475,0.03005586937069893,0.062140218913555145,-0.056064341217279434,0.04405108839273453,-0.07421763241291046,0.10778869688510895,0.04376137629151344,0.13762496411800385,0.053182438015937805,-0.042144209146499634,-0.0681944489479065,0.02202916517853737,-0.12842923402786255,-0.07510398328304291,-0.0007107984856702387,0.07615206390619278,0.004344376735389233,-0.004435170441865921,-0.07212390005588531,0.12528419494628906,-0.05166127532720566,0.06966720521450043,0.12210532277822495,0.03811805695295334,0.016164328902959824,-0.12831369042396545,0.09252987056970596,0.11111298948526382,-0.06370927393436432,-0.0750574916601181,0.013503559865057468,0.11640343070030212,0.09968182444572449,-0.08156035840511322,0.06285220384597778,-0.037662070244550705,-0.10695830732584,0.12179109454154968,-0.008974389173090458,-0.10161624103784561,0.015170729719102383,-0.11614621430635452,-0.08058524876832962},
		{-0.08759385347366333,0.06070161610841751,-0.05390806496143341,0.057737309485673904,0.103026382625103,0.07878828048706055,0.009798564948141575,-0.03042432852089405,-0.04458586126565933,0.055120714008808136,-0.06391435861587524,-0.08278191089630127,-0.06757833063602448,-0.14205946028232574,0.09227967262268066,0.14576902985572815,-0.03218097984790802,-0.10709982365369797,0.012287169694900513,0.06129144877195358,-0.08745311200618744,-0.03589533269405365,-0.06813851743936539,-0.016387540847063065,0.005560486577451229,0.14779318869113922,-0.011128395795822144,-0.06412538141012192,0.0014934566570445895,-0.00022724845621269196,-0.01848149485886097,0.03723367303609848,-0.01252697128802538,-0.1480044424533844,-0.037666648626327515,0.08614227920770645,-0.10568342357873917,0.07501605898141861,-0.04546099901199341,0.07602569460868835,-0.06797576695680618,0.1247759610414505,-0.03949251398444176,0.010483575984835625,0.035450905561447144,-0.0804000049829483,-0.09232547134160995,-0.023168319836258888,-0.08509103208780289,0.03360531106591225,-0.08801302313804626,-0.07154886424541473,-0.006883054040372372,0.04189610108733177,-0.09038488566875458,-0.018747365102171898,0.09376275539398193,0.003266211599111557,0.09217874705791473,0.058778636157512665,0.017188863828778267,0.10564201325178146,-0.04499730095267296,-0.12030542641878128},
		{0.0444268137216568,0.12385057657957077,0.009363335557281971,0.026105836033821106,-0.08687638491392136,-0.07518155127763748,0.025080328807234764,0.03975817561149597,-0.04267164319753647,-0.12582401931285858,0.029409654438495636,0.034275252372026443,0.08066939562559128,-0.0007880718912929296,0.06939952820539474,0.1645328253507614,-0.08494767546653748,0.09052547067403793,0.1259375512599945,0.02158837579190731,-0.07336713373661041,0.16055580973625183,0.1387556791305542,-0.0446835458278656,-0.0006186348618939519,-0.013498779386281967,0.08608026802539825,-0.0928293913602829,0.025208324193954468,0.1235179454088211,-0.05504797771573067,-0.015487887896597385,0.11524312943220139,-0.07042405754327774,0.053208984434604645,-0.04664856940507889,-0.020267032086849213,-0.053334902971982956,0.059657007455825806,-0.010664216242730618,-0.10009156912565231,-0.0288455318659544,-0.08964435011148453,0.11946788430213928,0.013068716041743755,-0.06302246451377869,0.0020484712440520525,-0.013408878818154335,0.03339134901762009,0.09085778892040253,0.054780226200819016,0.0029302353505045176,-0.0014687925577163696,-0.043571703135967255,0.030770182609558105,0.03784960135817528,0.018266167491674423,-0.015538576990365982,-0.05416324734687805,0.04330902174115181,-0.09427867084741592,-0.08637169003486633,-0.05440928414463997,0.09505759179592133},
		{0.07782027870416641,0.014085499569773674,0.06640782207250595,0.14895904064178467,-0.03230945020914078,-0.028161339461803436,-0.0489114485681057,0.0362345315515995,0.048836395144462585,-0.09911960363388062,-0.05773971974849701,-0.031100036576390266,-0.02214989811182022,-0.0870264321565628,0.13730856776237488,0.011613831855356693,-0.07189560681581497,-0.004041675012558699,0.029963986948132515,0.06930995732545853,-0.025754930451512337,0.0671049952507019,-0.10693703591823578,-0.11249452829360962,-0.0696064680814743,-0.011000282131135464,0.051663290709257126,-0.07209122180938721,-0.004914714954793453,-0.009842181578278542,-0.1026853397488594,0.09626026451587677,0.08538515865802765,-0.08862512558698654,-0.006712296977639198,-0.031301308423280716,0.002891033422201872,-0.05313966050744057,0.11046824604272842,0.0006908038631081581,-0.057038888335227966,-0.08971589058637619,0.011182005517184734,0.07933052629232407,-0.10328359156847,-0.10137131065130234,0.08512984216213226,-0.027978425845503807,0.0781468078494072,0.12266629189252853,0.07878611981868744,-0.09674820303916931,-0.0907498449087143,0.1467030644416809,0.017813801765441895,0.03382103890180588,0.04686058312654495,0.09550211578607559,0.036186475306749344,-0.014843055047094822,-0.06298007816076279,-0.06593960523605347,0.03805258870124817,0.06511764973402023},
		{0.08253740519285202,0.13855458796024323,-0.11375664174556732,-0.0739474818110466,-0.0024708611890673637,0.05976234748959541,0.16454938054084778,0.03320722654461861,-0.11883789300918579,-0.07794444262981415,-0.028639132156968117,0.06276566535234451,0.06416807323694229,0.03792927414178848,-0.011613196693360806,0.17700208723545074,-0.07516691833734512,0.004152043256908655,0.03325523063540459,0.03534537926316261,-0.0817653089761734,0.03692857176065445,0.11328081041574478,-0.09680765122175217,0.003827740903943777,-0.013927849940955639,0.09529983252286911,-0.027047527953982353,-0.01836167648434639,0.06494542211294174,-0.11037244647741318,-0.01448513101786375,-0.08202766627073288,0.05547477304935455,0.05607733875513077,-0.062036823481321335,-0.12385988235473633,-0.0761093869805336,-0.043870482593774796,-0.04943712800741196,0.031076766550540924,-0.087318554520607,0.0290205217897892,0.032946404069662094,0.052066899836063385,-0.08917328715324402,0.07146982848644257,-0.09359053522348404,0.019455373287200928,0.10027281939983368,0.08929768204689026,-0.008269856683909893,0.10866770148277283,-0.006651425734162331,-0.07842162996530533,0.04620090872049332,0.11964908242225647,-0.02325568161904812,0.08610404282808304,-0.048357948660850525,-0.10611498355865479,0.12389694899320602,-0.07136168330907822,-0.05938218533992767},
		{-0.10393266379833221,-0.006293709389865398,-0.09605687111616135,0.0925726369023323,-0.0789470300078392,0.039679884910583496,0.048869967460632324,0.12404586374759674,-0.06222226843237877,-0.008636601269245148,-0.042177796363830566,0.04954393208026886,0.09740710258483887,-0.08804594725370407,-0.07875853031873703,-0.03517994284629822,0.02576753869652748,-0.005966970231384039,0.10050473362207413,-0.07202005386352539,-0.08122596889734268,0.16090019047260284,0.022292770445346832,-0.08476775139570236,-0.0835522711277008,0.1455322802066803,-0.06367260217666626,0.11879436671733856,0.058966390788555145,0.11569159477949142,-0.09197335690259933,0.025301096960902214,-0.1292196363210678,0.10487233847379684,0.1070966124534607,0.03876805305480957,0.04348015785217285,-0.1260506808757782,0.11053779721260071,-0.07974003255367279,0.07967878878116608,0.09870440512895584,0.06463988870382309,-0.009821848012506962,0.10189983993768692,0.06424549221992493,-0.10863762348890305,0.01913100853562355,0.10600248724222183,0.12383101880550385,0.12995949387550354,0.027558090165257454,0.048245012760162354,0.11651656776666641,-0.02505440264940262,0.029572177678346634,0.05492450296878815,-0.023179225623607635,0.12672148644924164,0.0027565874624997377,-0.09364040940999985,-0.08434731513261795,-0.08357104659080505,-0.03988032788038254},
		{0.0863223448395729,0.09273342043161392,-0.035724613815546036,-0.10350751131772995,0.021725879982113838,0.043802689760923386,-0.03759567812085152,-0.025650210678577423,0.059346579015254974,0.0498511902987957,0.001609220402315259,-0.09139606356620789,-0.11748537421226501,0.1040218397974968,0.011441710405051708,0.03237920626997948,-0.05177503079175949,0.041347093880176544,0.13018186390399933,-0.05751875787973404,0.11367271840572357,0.10019804537296295,-0.07378444075584412,-0.03625268489122391,0.024853888899087906,-0.05189050734043121,0.16826379299163818,-0.06125534325838089,-0.1139768660068512,0.11452820897102356,-0.12295537441968918,-0.07114164531230927,0.03669688478112221,-0.07759695500135422,-0.1416752189397812,-0.04580550268292427,-0.09662965685129166,0.01192830502986908,0.11914961785078049,0.03008221462368965,-0.04960748553276062,0.03635471686720848,-0.02066931314766407,0.12391337752342224,0.08994849771261215,0.08867824822664261,-0.12274982780218124,-0.04508431255817413,0.11066689342260361,-0.08279499411582947,0.03719168156385422,0.05986923724412918,0.03926583752036095,-0.030909903347492218,-0.09558834135532379,-0.04883969575166702,-0.07726241648197174,-0.022222116589546204,0.008404918015003204,-0.10178192704916,0.09994526952505112,-0.04433745518326759,-0.01667993888258934,-0.049532536417245865},
		{-0.014493761584162712,-0.05891522392630577,0.10228265076875687,0.1298190951347351,-0.0310151856392622,-0.014517426490783691,0.047040779143571854,-0.058604370802640915,-0.08257070928812027,-0.0026917550712823868,0.028364630416035652,-0.0699676126241684,0.10070313513278961,0.07896416634321213,-0.10704070329666138,-0.05106174573302269,-0.0987275019288063,-0.0594816617667675,-0.03668692335486412,0.039041344076395035,-0.0482407845556736,0.0875280350446701,0.09793165326118469,-0.06096319854259491,0.10229519754648209,0.008342436514794827,0.11334448307752609,0.0463135689496994,-0.09965482354164124,0.04509863629937172,0.09401717036962509,0.09981740266084671,0.02633172646164894,0.001008816296234727,0.0853586494922638,0.01849834993481636,0.031899161636829376,0.10564207285642624,0.09195536375045776,-0.012957166880369186,-0.06067845597863197,0.10033424943685532,0.0956977903842926,0.04685235396027565,-0.039992429316043854,0.12566307187080383,0.06068824604153633,-0.03457808494567871,-0.02667037583887577,0.007710386998951435,-0.09091945737600327,0.010369286872446537,-0.07042431831359863,-0.017809098586440086,0.09886245429515839,-0.07269251346588135,0.06662105023860931,-0.05361966788768768,0.024568824097514153,0.07531724125146866,0.08871817588806152,0.1475335955619812,-0.024165581911802292,-0.0880119800567627},
		{0.03143751248717308,-0.03908222168684006,0.01660814695060253,0.018111616373062134,-0.07988720387220383,0.0757119283080101,0.05796432122588158,0.03251795470714569,0.007142167072743177,0.16013161838054657,-0.09657365083694458,-0.06810085475444794,0.0007952612359076738,-0.011667981743812561,0.06424277275800705,0.09075193852186203,0.05977877601981163,0.11112771928310394,0.15400759875774384,0.09341362863779068,-0.10437048971652985,-0.014196394942700863,-0.013832351192831993,0.006070367526262999,0.05016117915511131,0.041726548224687576,-0.03844251111149788,-0.07546405494213104,-0.03759319335222244,-0.01693023182451725,-0.11200114339590073,-0.058366794139146805,-0.06925801932811737,-0.06984647363424301,-0.09303245693445206,-0.017122527584433556,0.07777667790651321,-0.08920921385288239,-0.041430361568927765,-0.029487362131476402,0.1219891905784607,-0.02002963051199913,-0.022756025195121765,0.11085565388202667,0.019880754873156548,0.02044619992375374,-0.13293345272541046,0.08337260037660599,0.002546158153563738,-0.028222613036632538,-0.047094739973545074,-0.053988415747880936,-0.03780100494623184,-0.0029873133171349764,0.1001259833574295,-0.10453800857067108,-0.105375736951828,0.10042712092399597,0.02614225633442402,0.09729009121656418,-0.1136135384440422,0.054753001779317856,0.04409472644329071,-0.11538928002119064},
		{-0.1100286915898323,0.01878332905471325,0.02865252085030079,0.06898758560419083,-0.04921872541308403,-0.0435454286634922,0.09326756745576859,0.10078121721744537,0.03067842684686184,0.17746107280254364,0.021965229883790016,0.06846805661916733,-0.10811722278594971,-0.060189276933670044,0.036976322531700134,0.13900190591812134,0.09888382256031036,0.12341534346342087,-0.03313418850302696,-0.10152549296617508,-0.07664189487695694,0.16327981650829315,0.02063065767288208,0.07068004459142685,-0.0606573261320591,-0.0017326518427580595,-0.02950024977326393,0.10216429084539413,0.09214866161346436,-0.05851380154490471,0.08264303207397461,-0.025451961904764175,-0.02130298689007759,-0.0029669473879039288,-0.01597435027360916,-0.014237161725759506,-0.10047280788421631,0.09293965250253677,-0.0777813121676445,-0.0682833194732666,-0.08950904756784439,0.08297574520111084,0.07772122323513031,0.15171587467193604,0.07183253765106201,0.07876849174499512,0.10428562015295029,-0.007249127607792616,0.11966373771429062,0.09018950909376144,0.0816764160990715,0.12426972389221191,0.07579727470874786,0.10940206795930862,0.10673657804727554,-0.014551067724823952,-0.06452782452106476,-0.05363570898771286,-0.0008368135895580053,-0.005473147612065077,-0.061957553029060364,-0.08069977164268494,-0.12389760464429855,0.03498844429850578},
		{0.016178086400032043,0.017593614757061005,-0.018120110034942627,0.0385456383228302,0.02023136056959629,-0.004506295546889305,0.13094496726989746,0.07241319119930267,-0.06589778512716293,-0.05727577209472656,-0.09221138060092926,-0.08852425217628479,0.09300127625465393,0.03172086179256439,-0.047327179461717606,0.12391483783721924,-0.11177085340023041,0.07194039970636368,0.15649406611919403,0.14224478602409363,-0.10564997792243958,0.12124986946582794,-0.0029553710483014584,0.11038379371166229,-0.12193727493286133,-0.053573623299598694,-0.06668291985988617,-0.07864610105752945,-0.01005143579095602,-0.05981537699699402,-0.10310603678226471,-0.1359386444091797,0.03486543148756027,0.004239923786371946,0.04284827783703804,-0.04236709326505661,-0.08397069573402405,-0.033231690526008606,-0.005822050850838423,0.07612178474664688,0.1259905844926834,-0.031046127900481224,0.013248365372419357,0.11269321292638779,0.10773102194070816,-0.06919512152671814,0.049486011266708374,-0.04424228519201279,-0.11383195221424103,0.10762063413858414,0.05609867721796036,0.0660029947757721,-0.05027928575873375,-0.057375505566596985,-0.04468996822834015,-0.017006218433380127,-0.12022174894809723,-0.057821162045001984,-0.0723351538181305,-0.0728137418627739,-0.07148966193199158,0.0048920828849077225,-0.12093406170606613,0.05898589268326759},
		{0.0532575361430645,-0.03900333121418953,-0.00893850065767765,0.06312298774719238,0.05910428985953331,-0.11453700065612793,-0.05829698219895363,-0.11201953887939453,0.08886151760816574,0.1554613560438156,-0.1443903148174286,0.10401473194360733,-0.08814525604248047,0.10464838147163391,0.06927767395973206,0.0569273941218853,-0.047177135944366455,0.11610758304595947,-0.08068323880434036,-0.0718689039349556,0.06702364981174469,-0.022707542404532433,-0.019025733694434166,-0.07649292796850204,-0.059259966015815735,0.0689103901386261,0.029619310051202774,0.06328260898590088,0.05065370351076126,-0.08040997385978699,-0.03358866646885872,0.05266548693180084,-0.11181318759918213,-0.041468653827905655,-0.01487007923424244,-0.05765295773744583,0.08181025832891464,-0.053475216031074524,-0.018687093630433083,-0.0456584170460701,-0.13185735046863556,-0.028809968382120132,0.13387387990951538,-0.04776068404316902,-0.06948230415582657,0.13701047003269196,0.05429624766111374,0.024844834581017494,0.05156509205698967,0.05250990390777588,-0.01234214473515749,-0.10950933396816254,-0.010962037369608879,0.10270664095878601,-0.011197944171726704,-0.05442813038825989,0.002803998999297619,0.04167930781841278,0.06006457656621933,0.014343908987939358,-0.037997424602508545,-0.08360370993614197,-0.0807458907365799,0.02374759502708912},
		{-0.03726250305771828,0.050141092389822006,-0.09091552346944809,0.09771499037742615,0.003929260652512312,-0.1595531702041626,-0.07096245884895325,-0.11045778542757034,-0.11563950031995773,0.17252342402935028,0.011256743222475052,0.09889286756515503,-0.06616652756929398,0.0581074133515358,0.06985863298177719,0.10587719082832336,0.013766556978225708,-0.06568855047225952,-0.041458722203969955,0.004694503732025623,-0.019691934809088707,0.14062760770320892,-0.10146306455135345,0.0067221624776721,-0.026600999757647514,-0.041414305567741394,0.12301704287528992,-0.11567385494709015,-0.0777885690331459,0.05492410808801651,0.0471217967569828,-0.08792907744646072,0.09864002466201782,0.01316259615123272,0.007319886237382889,-0.08884073793888092,-0.10478398948907852,0.10915328562259674,-0.07270888239145279,-0.03285893797874451,0.055458914488554,-0.0766664445400238,-0.007051578722894192,0.09538886696100235,-0.04279313236474991,0.05370479077100754,-0.07186666131019592,0.0901135504245758,-0.08576902002096176,-0.0031454884447157383,-0.07596413046121597,-0.035899024456739426,-0.03178638964891434,-0.09125665575265884,-0.03477605804800987,0.1378399133682251,0.10988494753837585,-0.021213721483945847,-0.09764008224010468,-0.015660360455513,0.11701782047748566,0.09405098855495453,-0.05923587828874588,-0.061184611171483994},
		{0.12538368999958038,0.04631279781460762,0.02441815473139286,0.10945332050323486,0.13261307775974274,-0.09796053171157837,-0.08927766978740692,0.05837790295481682,0.02427089586853981,0.1261279284954071,0.12726478278636932,-0.06383486837148666,-0.08782313019037247,-0.08348953723907471,0.005794098135083914,-0.04581553116440773,0.09358412772417068,0.036700062453746796,0.11244582384824753,-0.01956266537308693,-0.015783246606588364,0.07218983769416809,-0.05031807720661163,0.018663285300135612,-0.09177900105714798,-0.07031115144491196,-0.04039831832051277,0.12594600021839142,0.0522611178457737,-0.09724924713373184,-0.05300021544098854,-0.007935930043458939,-0.12805019319057465,-0.012727831490337849,0.03332633152604103,0.014867827296257019,0.06294668465852737,-0.07448166608810425,-0.04122498258948326,0.10702942311763763,-0.06859218329191208,0.004333334043622017,0.12434625625610352,0.20806890726089478,0.09934819489717484,0.03502270206809044,0.07888227701187134,-0.006315439939498901,0.01594541408121586,0.01009976677596569,0.10152240842580795,0.08497753739356995,0.09215638041496277,0.08484023809432983,-0.04889366403222084,0.046611666679382324,-0.028740892186760902,-0.0288504920899868,-0.05765702575445175,0.007951701991260052,-0.03626080974936485,0.10107074677944183,-0.09538711607456207,-0.024840930476784706},
		{0.02567458711564541,0.11294656991958618,0.06508088111877441,0.05132070928812027,0.0846996158361435,-0.05031643807888031,0.07510192692279816,0.060896314680576324,0.0814499706029892,0.03384250029921532,-0.118778757750988,0.017973853275179863,-0.12366388738155365,0.05809175968170166,-0.058090612292289734,-0.016780834645032883,-0.13763105869293213,-0.13030694425106049,-0.02727426029741764,0.1332259625196457,-0.1216655969619751,0.13843801617622375,-0.014251087792217731,-0.0051545752212405205,-0.145400732755661,-0.03665876016020775,0.12044616788625717,0.10515955090522766,0.03996853902935982,0.04925673454999924,-0.14136634767055511,-0.055917125195264816,-0.03550180420279503,0.09707976132631302,-0.10804577171802521,0.016044512391090393,-0.0747760757803917,0.09285163879394531,0.09213794767856598,-0.1053156927227974,-0.11295851320028305,0.01708541437983513,-0.08073978871107101,0.19619423151016235,0.03619236871600151,0.10031415522098541,0.09942837804555893,-0.053595032542943954,-0.00978622306138277,0.028957149013876915,0.02456371672451496,0.047359347343444824,-0.11736217886209488,0.09465930610895157,0.140578493475914,0.09675994515419006,-0.007774170953780413,-0.04451891407370567,0.07849422097206116,0.11980975419282913,0.0374656543135643,-0.03677443787455559,-0.04586874321103096,-0.012109264731407166},
		{0.08716525137424469,-0.0957745909690857,0.14135205745697021,0.06714855134487152,-0.016076186671853065,-0.0927063599228859,-0.07360682636499405,0.0655580386519432,-0.028513088822364807,0.16875259578227997,-0.13708627223968506,0.08585264533758163,-0.015338543802499771,-0.077015720307827,-0.05140608549118042,0.10540181398391724,-0.057069409638643265,-0.05690332129597664,0.06210917979478836,0.020057981833815575,-0.08263882994651794,-0.02025901898741722,0.039394643157720566,-0.10979745537042618,-0.11213742196559906,-0.0671764463186264,0.018619224429130554,-0.03971858322620392,0.0428885817527771,-0.04022704437375069,-0.015522236004471779,-0.07357511669397354,-0.11800357699394226,0.03180592134594917,-0.15348023176193237,0.060515571385622025,-0.06433560699224472,0.04899024963378906,0.1547713279724121,0.0034896230790764093,0.11452778428792953,0.12438157200813293,0.09588544070720673,-0.05376289412379265,0.07496597617864609,0.02332381345331669,-0.11238960921764374,0.026676472276449203,-0.02917935885488987,0.10747837275266647,0.07516968995332718,0.05009941756725311,-0.04217054322361946,-0.0153167974203825,0.06156410276889801,-0.029856622219085693,-0.034488093107938766,0.05102556198835373,-0.09909820556640625,0.057989683002233505,-0.021319273859262466,0.021929370239377022,-0.08198241889476776,0.07569514214992523},
		{0.009584969840943813,0.12840743362903595,-0.04696464538574219,0.03873911872506142,0.12574131786823273,-0.08411914855241776,0.0036292129661887884,-0.02550686150789261,-0.024320855736732483,-0.05161210522055626,0.05319000408053398,0.06253769993782043,-0.13243141770362854,0.14572252333164215,0.11166904121637344,-0.07082083821296692,0.016512755304574966,-0.11894512921571732,0.03256803750991821,-0.09543459117412567,-0.09126812219619751,0.034494172781705856,-0.012883732095360756,-0.0059040444903075695,-0.01294790394604206,-0.03033594973385334,0.10200173407793045,0.09079334139823914,-0.11817441135644913,-0.09868771582841873,0.04209114983677864,0.04937008395791054,0.015332486480474472,0.11934032291173935,-0.15062730014324188,0.0745958536863327,-0.09666397422552109,-0.09914711117744446,-0.041507869958877563,-0.004058119375258684,-0.10740652680397034,-0.010954503901302814,0.04484282433986664,0.1292906403541565,-0.12885941565036774,0.017923720180988312,-0.04888373985886574,0.00011607029591687024,0.0789712518453598,0.009231439791619778,0.05441068857908249,-0.02687443606555462,0.09813839197158813,-0.08128178864717484,-0.03936600685119629,-0.08761423081159592,-0.07073234766721725,-0.07822359353303909,0.08500105887651443,0.03250516206026077,0.050980303436517715,0.07241811603307724,-0.12079412490129471,-0.1117430254817009},
		{0.09338927268981934,-0.10355734825134277,-0.061764661222696304,0.08988705277442932,-0.016530027613043785,-0.10048969835042953,-0.018477218225598335,0.10373862087726593,-0.10540743917226791,0.18118274211883545,-0.10365182161331177,0.016195043921470642,-0.006577464751899242,0.09218118339776993,-0.006356632802635431,-0.046600718051195145,0.00264521362259984,0.08735960721969604,-0.02021196484565735,-0.07690033316612244,0.049481529742479324,0.03430590033531189,0.19018754363059998,-0.10724326968193054,-0.08704795688390732,0.048634838312864304,0.10589661449193954,0.1162739023566246,0.004197572357952595,0.015522508881986141,0.03819704428315163,-0.0998038575053215,0.08791077136993408,0.06344372034072876,0.00807099137455225,0.09196919947862625,0.022187896072864532,-0.0686509907245636,0.11667603254318237,0.09513610601425171,-0.10230909287929535,0.12065394222736359,-0.02838166058063507,0.01878492720425129,0.057063862681388855,-0.11189311742782593,0.027144040912389755,0.15777261555194855,-0.10222867876291275,0.06952758878469467,0.03257174417376518,0.01074517983943224,-0.13757412135601044,0.03579672425985336,0.0997801199555397,0.11255985498428345,0.11250672489404678,0.0029996444936841726,0.01898956671357155,-0.02789675071835518,0.03589945659041405,0.15594904124736786,-0.10213275253772736,0.00643914844840765},
		{0.08950181305408478,-0.0035487355198711157,-0.10206497460603714,-0.09880010038614273,0.15932150185108185,-0.11645711958408356,0.014567491598427296,0.06390021741390228,-0.12946999073028564,0.05905550718307495,0.05616127699613571,-0.02442963421344757,-0.09583643823862076,0.06524413824081421,-0.06180596351623535,-0.051901962608098984,-0.015665575861930847,0.030394813045859337,-0.06454650312662125,-0.09818121045827866,-0.03551771119236946,0.0039015135262161493,0.11336623877286911,0.07287003099918365,0.030287256464362144,-0.04223627597093582,0.06721342355012894,0.020293252542614937,0.06555028259754181,-0.00020755556761287153,-0.08468589186668396,-0.0378207229077816,0.08696210384368896,-0.011192881502211094,0.07704056799411774,-0.12139809876680374,0.02671337127685547,-0.08885983377695084,0.13579872250556946,0.10774680972099304,-0.07709689438343048,-0.03357355296611786,0.06865686923265457,0.015647994354367256,0.10414016991853714,0.11042674630880356,0.14457997679710388,-0.061986569315195084,0.12357141822576523,0.011918209493160248,0.021524982526898384,0.0519789382815361,-0.0020055684726685286,0.12156926095485687,-0.10087957978248596,-0.054103001952171326,-0.016439754515886307,-0.13121208548545837,-0.039651840925216675,0.0718107745051384,-0.08723513036966324,0.14982888102531433,0.0023638310376554728,0.0033316281624138355},
		{0.01914828084409237,0.07397523522377014,0.06563622504472733,0.057643499225378036,0.09408143907785416,0.05987703427672386,-0.09787987917661667,-0.09967897832393646,0.07972454279661179,0.06609736382961273,-0.09795007109642029,-0.09218542277812958,0.030368849635124207,-0.048265714198350906,0.11071585863828659,-0.025001391768455505,-0.0025809393264353275,0.026257148012518883,0.08444459736347198,0.03178045153617859,0.018410665914416313,0.1502230167388916,0.08994121104478836,-0.0622185617685318,0.06301914900541306,-0.03278656676411629,-0.05800365284085274,0.1149541363120079,-0.03390706703066826,-0.03856147453188896,0.001737292855978012,-0.13641543686389923,-0.09286881238222122,-0.008971724659204483,0.060137998312711716,-0.0525813102722168,-0.06661983579397202,0.01249454915523529,0.0695134699344635,0.02720317430794239,0.11115573346614838,0.10302906483411789,-0.06921625137329102,-0.034806497395038605,-0.08468025177717209,0.1003526896238327,0.12777678668498993,-0.04707618057727814,0.08994991332292557,-0.010813179425895214,0.09829358756542206,-0.037507589906454086,0.10076887905597687,-0.06957899034023285,-0.08603028208017349,0.0723433643579483,-0.03168192505836487,-0.05890868604183197,0.06588464975357056,-0.03656724840402603,-0.10384150594472885,0.08729662746191025,-0.0820729210972786,-0.10072930157184601},
		{0.153165802359581,0.11376439034938812,0.05736306309700012,0.053712405264377594,0.025212274864315987,0.007471494842320681,-0.13089336454868317,0.14596371352672577,0.10872294753789902,0.09295298159122467,-0.09661515802145004,0.09015126526355743,0.07581502944231033,0.13245919346809387,-0.06899326294660568,0.11664559692144394,0.09777165204286575,-0.06104834005236626,0.15390807390213013,0.03546114265918732,0.059308454394340515,0.032990843057632446,0.15260601043701172,-0.11541201919317245,0.04181509464979172,0.013975171372294426,0.01351212803274393,0.04799428954720497,-0.1109769195318222,-0.11916463077068329,-0.051892198622226715,-0.10128792375326157,-0.06436662375926971,0.023431601002812386,0.06769809126853943,-0.060891442000865936,-0.04280322417616844,-0.011575073003768921,-0.05089182034134865,0.06856278330087662,0.11503829061985016,0.020161345601081848,-0.09055925905704498,0.02987348847091198,-0.12397453933954239,0.12249551713466644,0.13558275997638702,0.05517810583114624,0.02620719186961651,0.11626287549734116,0.10598231106996536,0.12426530569791794,0.0006042152526788414,0.010436240583658218,-0.020781563594937325,-0.01315456721931696,-0.08648879826068878,-0.029916202649474144,-0.04494454339146614,0.12961097061634064,-0.12417594343423843,-0.05165249854326248,-0.0645807683467865,0.09871286153793335},
		{-0.02193685993552208,-0.0358867421746254,-0.09642624109983444,-0.04177749156951904,0.0934993103146553,0.0635027140378952,0.00783093087375164,-0.09845992922782898,-0.13542219996452332,-0.05274584889411926,-0.02082338184118271,-0.05387395620346069,0.05688732489943504,-0.09464534372091293,-0.07904069870710373,-0.10478383302688599,-0.061519984155893326,-0.10911128669977188,-0.004067561123520136,0.06045103073120117,0.05690716207027435,-0.01025498379021883,0.1809927523136139,0.11182978004217148,-0.09031938761472702,0.04094305634498596,0.03543756157159805,-0.03807588294148445,-0.07272261381149292,0.011836682446300983,0.06669352203607559,-0.03552521765232086,0.10103349387645721,0.04580694064497948,0.0016837258590385318,0.04631468653678894,-0.013171455822885036,0.04396681487560272,-0.035492610186338425,-0.06267192959785461,-0.12376753240823746,0.11868312209844589,-0.07424625009298325,-0.07577164471149445,0.06980971246957779,0.004730858840048313,0.09130441397428513,0.08919526636600494,-0.029737437143921852,0.10455086827278137,0.0706898644566536,0.03046002797782421,-0.00279335118830204,0.06033601239323616,0.09960063546895981,0.06638774275779724,-0.12013034522533417,-0.1145550012588501,-0.03872043639421463,0.07846242189407349,0.026443686336278915,-0.0823776125907898,0.0014365094248205423,-0.12370775640010834},
		{0.06772724539041519,-0.07854575663805008,0.08106133341789246,0.09622235596179962,0.14752662181854248,0.0027413011994212866,0.05824655666947365,0.06137043237686157,0.06312046200037003,-0.06977415084838867,-0.0243847593665123,-0.10856936126947403,-0.10666771978139877,-0.07912112027406693,-0.014569173566997051,0.07741968333721161,-0.04735398292541504,-0.0423046313226223,-0.05621638521552086,-0.049419522285461426,0.04040532931685448,0.057786643505096436,0.146216481924057,0.07676619291305542,-0.15156833827495575,-0.07449080795049667,0.04154840111732483,0.118745356798172,-0.04320339486002922,0.08572576940059662,-0.13077394664287567,-0.12303506582975388,-0.1045675277709961,0.08143507689237595,-0.12902268767356873,-0.13965892791748047,-0.011158458888530731,0.11648376286029816,-0.07971474528312683,-0.03790191560983658,0.06614667177200317,0.028411632403731346,0.14182987809181213,0.04438474029302597,0.09530613571405411,0.031637415289878845,-0.006911953445523977,0.14664123952388763,-0.10120881348848343,0.06554009020328522,0.029992008581757545,0.07905105501413345,0.09174785017967224,0.0777880847454071,0.015271360985934734,-0.015276869758963585,-0.012655816972255707,-0.13451583683490753,0.13844934105873108,-0.04453977942466736,0.0609719380736351,0.16498570144176483,0.02260264754295349,-0.061550579965114594},
		{0.09886617958545685,0.0012931127566844225,0.11412807554006577,-0.01460990495979786,0.110020712018013,-0.02917521633207798,0.11160042136907578,-0.042721983045339584,0.07084372639656067,0.0009368599858134985,-0.04336996003985405,-0.03122975118458271,-0.1267097294330597,-0.016365915536880493,-0.06454988569021225,0.01708253100514412,0.1332160234451294,-0.07891857624053955,0.11432532221078873,0.03915129974484444,0.08658353984355927,0.06938822567462921,-0.04881343990564346,0.0042123934254050255,0.06829699873924255,-0.04191514104604721,0.006250583566725254,0.05253330245614052,-0.05740609019994736,-0.09117601066827774,-0.08262242376804352,-0.02603931538760662,-0.10107765346765518,-0.07917314022779465,-0.10427229851484299,-0.11826949566602707,-0.10227201133966446,0.03750576823949814,0.12840473651885986,0.061330731958150864,-0.04514729604125023,0.113082654774189,-0.07712280005216599,-0.03046160750091076,0.09895630925893784,0.06708845496177673,0.14483603835105896,0.12995369732379913,-0.007471856195479631,0.0895180031657219,-0.012439155019819736,0.03710214048624039,0.04240614175796509,-0.09815751761198044,-0.09684425592422485,0.0026496395003050566,0.002884698798879981,-0.05275431647896767,-0.013887721113860607,0.06613306701183319,-0.09960512071847916,0.06098385155200958,-0.1316749006509781,-0.0350712351500988},
		{0.09397947788238525,-0.08820240944623947,0.07536196708679199,0.014337639324367046,0.0942620187997818,0.11522326618432999,-0.07019316405057907,-0.047334734350442886,0.06062393635511398,0.01093481294810772,-0.0819452702999115,0.05708301067352295,-0.13223746418952942,0.1332850158214569,0.000508192868437618,-0.03540286049246788,-0.10482136160135269,0.004204880446195602,0.003396014217287302,0.06893693655729294,-0.07089095562696457,0.10574346780776978,0.0929194912314415,0.09634359180927277,-0.15640069544315338,0.1335298717021942,0.1395208239555359,0.08530347794294357,0.019507965072989464,0.056686799973249435,0.102890245616436,-0.05815677344799042,0.010136701166629791,-0.07320483028888702,-0.00118519167881459,0.03705224022269249,0.012787507846951485,0.10023999959230423,-0.039909083396196365,-0.045098111033439636,-0.09924185276031494,-0.05133138597011566,0.04822632297873497,0.0668996199965477,-0.08360433578491211,-0.02939569018781185,-0.00923935603350401,-0.013672813773155212,0.05714920163154602,0.10818887501955032,0.015204718336462975,0.11037396639585495,0.07249442487955093,-0.09355239570140839,0.09715910255908966,-0.05572742596268654,0.07550060749053955,-0.07242266088724136,-0.035534996539354324,-0.08896263688802719,-0.016855495050549507,0.028560280799865723,-0.0017643175087869167,-0.0575026236474514},
		{0.04949099197983742,0.09508122503757477,0.06740712374448776,0.04202927649021149,-0.07117879390716553,-0.029854746535420418,0.04549778625369072,-0.07806557416915894,-0.093470998108387,0.14208994805812836,0.050035715103149414,-0.040549613535404205,0.0672905296087265,0.12389812618494034,-0.0709729865193367,0.07580052316188812,0.018252471461892128,-0.029919765889644623,0.1288876235485077,0.09172797948122025,0.04215889796614647,-0.07571098953485489,0.130734384059906,-0.021751245483756065,-0.029485858976840973,-0.09165211021900177,-0.11103735119104385,0.10104908794164658,0.08616280555725098,0.12053786963224411,-0.007572947535663843,0.04465285316109657,0.010862193070352077,0.06431462615728378,0.01611454412341118,0.08355612307786942,0.12702947854995728,0.01665910892188549,-0.10062023997306824,0.09049268066883087,-0.047088973224163055,0.042908258736133575,0.06828787922859192,0.0967695489525795,-0.1052202358841896,0.02433767355978489,-0.027529308572411537,0.022798506543040276,-0.01743208058178425,0.08322545886039734,-0.010692688636481762,-0.03265727683901787,-0.003956948406994343,0.10605496168136597,-0.03086632862687111,-0.018071236088871956,0.02645999938249588,-0.004048384726047516,-0.09131842106580734,-0.0017533113714307547,0.04350133240222931,-0.10173364728689194,-0.05223774537444115,-0.024661527946591377},
		{0.1545301228761673,0.06042170152068138,-0.06397920101881027,-0.08866453915834427,0.05291757732629776,-0.1010095477104187,-0.0355447493493557,0.11195309460163116,0.10806064307689667,0.11682745814323425,0.02022654376924038,0.13149866461753845,-0.06617209315299988,0.06247812509536743,-0.0828874409198761,-0.057501792907714844,-0.0882520005106926,0.09622041136026382,0.10963045060634613,0.028845833614468575,0.0784570649266243,-0.06599064916372299,0.07369303703308105,0.09110788255929947,0.08485130965709686,0.03958826884627342,-0.03564748167991638,0.08721663057804108,0.043977104127407074,0.02059386856853962,-0.044240888208150864,0.024357393383979797,0.0027488379273563623,-0.03459995239973068,0.020116746425628662,0.027353761717677116,-0.0008664368069730699,0.04795970395207405,-0.08412738144397736,-0.00622568279504776,0.10504446923732758,0.0341007336974144,-0.1005483940243721,-0.1272120624780655,0.08453762531280518,0.12579931318759918,0.1535525918006897,-0.04038425162434578,-0.0030358959920704365,0.013645456172525883,-0.03400268405675888,-0.05803151801228523,-0.0372934527695179,-0.02677011862397194,-0.09327571839094162,0.0887845978140831,0.023042017593979836,-0.017985176295042038,0.0018285997211933136,0.0990634560585022,0.0039808489382267,0.13247306644916534,-0.09024084359407425,-0.01435837708413601},
